{"n_nodes": 2081, "children_left": [1, 2, 3, 4, 5, 6, -1, -1, 9, -1, 11, 12, 13, -1, -1, -1, -1, 18, 19, 20, 21, 22, -1, 24, 25, -1, 27, 28, -1, -1, -1, 32, 33, -1, -1, -1, -1, 38, -1, 40, -1, 42, 43, -1, -1, -1, 47, 48, 49, -1, -1, -1, 53, -1, -1, 56, 57, -1, 59, 60, 61, 62, -1, -1, -1, 66, -1, 68, -1, -1, 71, 72, -1, -1, -1, 76, -1, -1, 79, 80, 81, 82, -1, 84, -1, 86, -1, 88, -1, 90, -1, -1, 93, 94, -1, 96, -1, -1, 99, 100, 101, 102, 103, -1, -1, -1, -1, 108, -1, -1, 111, 112, -1, -1, 115, 116, 117, -1, 119, 120, -1, 122, -1, -1, 125, 126, 127, 128, 129, -1, 131, 132, -1, -1, -1, 136, -1, 138, 139, 140, 141, 142, -1, 144, -1, 146, 147, 148, -1, 150, -1, 152, 153, -1, -1, -1, 157, -1, -1, 160, -1, 162, -1, -1, 165, 166, -1, -1, -1, -1, 171, 172, -1, -1, -1, -1, 177, -1, 179, -1, -1, 182, -1, -1, -1, -1, -1, 188, 189, 190, -1, 192, -1, -1, 195, -1, 197, -1, 199, -1, 201, -1, -1, 204, -1, -1, 207, 208, -1, 210, -1, 212, 213, 214, 215, 216, 217, 218, 219, 220, -1, -1, -1, -1, 225, -1, 227, -1, 229, -1, 231, -1, -1, 234, -1, 236, 237, -1, -1, -1, -1, 242, -1, 244, -1, -1, -1, 248, 249, 250, -1, -1, -1, -1, -1, 256, 257, 258, 259, 260, 261, 262, 263, 264, 265, 266, -1, -1, -1, 270, 271, 272, 273, 274, 275, -1, -1, -1, -1, -1, -1, -1, -1, 284, -1, 286, -1, 288, 289, 290, 291, -1, -1, -1, 295, -1, -1, -1, 299, 300, 301, 302, 303, 304, -1, 306, 307, -1, 309, -1, 311, 312, -1, -1, 315, 316, -1, -1, -1, 320, 321, 322, 323, 324, 325, 326, -1, -1, -1, -1, 331, -1, 333, 334, 335, 336, 337, 338, -1, -1, -1, 342, -1, -1, -1, -1, 347, -1, -1, 350, -1, -1, 353, -1, -1, -1, 357, 358, -1, 360, 361, -1, 363, -1, 365, 366, 367, -1, 369, -1, 371, -1, -1, -1, -1, -1, -1, 378, -1, 380, -1, -1, 383, 384, -1, -1, -1, -1, 389, 390, 391, 392, 393, 394, -1, 396, -1, -1, 399, 400, -1, 402, -1, 404, -1, 406, 407, -1, 409, 410, 411, -1, 413, -1, 415, -1, -1, 418, -1, -1, -1, -1, -1, 424, 425, -1, 427, -1, -1, 430, 431, -1, 433, -1, -1, -1, 437, 438, 439, 440, 441, 442, -1, -1, -1, -1, -1, -1, -1, 450, -1, 452, -1, -1, -1, 456, 457, 458, 459, 460, 461, -1, 463, -1, -1, -1, -1, 468, -1, 470, 471, 472, -1, -1, -1, -1, -1, 478, 479, 480, 481, -1, -1, -1, 485, -1, 487, -1, 489, -1, -1, 492, 493, 494, -1, -1, -1, -1, 499, 500, 501, 502, 503, 504, 505, -1, 507, -1, 509, -1, -1, 512, -1, 514, 515, 516, 517, -1, -1, -1, 521, 522, 523, 524, -1, -1, -1, -1, -1, 530, -1, 532, -1, -1, 535, 536, -1, -1, 539, -1, 541, -1, -1, 544, 545, 546, 547, -1, 549, -1, 551, 552, -1, -1, -1, 556, -1, -1, 559, 560, -1, -1, 563, 564, 565, 566, 567, -1, -1, -1, -1, 572, -1, 574, -1, 576, -1, -1, 579, -1, 581, -1, -1, 584, 585, -1, 587, 588, 589, -1, -1, -1, 593, 594, -1, -1, -1, 598, 599, 600, -1, 602, -1, -1, -1, 606, -1, 608, 609, -1, -1, -1, 613, 614, -1, 616, -1, -1, 619, -1, -1, 622, 623, 624, -1, 626, 627, -1, -1, -1, -1, 632, -1, 634, 635, 636, 637, -1, -1, -1, -1, 642, 643, -1, 645, -1, -1, 648, 649, 650, -1, -1, -1, 654, 655, 656, -1, 658, 659, -1, -1, -1, 663, 664, -1, -1, 667, -1, 669, -1, -1, -1, 673, 674, 675, 676, 677, 678, 679, 680, 681, 682, 683, 684, 685, 686, -1, 688, -1, 690, 691, 692, -1, 694, 695, -1, -1, -1, -1, -1, -1, 702, 703, 704, -1, 706, 707, -1, -1, -1, -1, -1, 713, -1, 715, 716, -1, 718, 719, 720, -1, -1, -1, -1, -1, -1, -1, -1, 729, 730, -1, 732, -1, 734, 735, 736, -1, 738, -1, -1, -1, 742, -1, -1, 745, 746, 747, -1, -1, -1, 751, 752, -1, 754, 755, -1, -1, -1, -1, 760, 761, 762, 763, -1, -1, -1, 767, -1, -1, -1, 771, 772, -1, -1, 775, 776, -1, -1, 779, 780, 781, 782, 783, 784, 785, -1, -1, -1, 789, -1, -1, -1, 793, 794, 795, 796, 797, 798, 799, -1, 801, 802, -1, 804, -1, 806, 807, 808, -1, 810, -1, 812, -1, -1, 815, 816, 817, -1, -1, -1, -1, -1, 823, -1, 825, 826, 827, 828, -1, -1, -1, -1, -1, 834, -1, -1, -1, -1, -1, -1, 841, 842, -1, 844, -1, 846, -1, 848, -1, 850, 851, -1, 853, 854, 855, -1, 857, -1, 859, 860, -1, -1, -1, 864, -1, -1, -1, -1, -1, -1, -1, -1, 873, -1, 875, -1, 877, -1, -1, 880, 881, 882, 883, 884, -1, 886, 887, -1, -1, -1, -1, -1, 893, 894, 895, -1, 897, 898, -1, 900, -1, -1, 903, 904, 905, 906, -1, -1, -1, -1, -1, -1, 913, -1, -1, 916, 917, -1, 919, -1, 921, -1, -1, 924, -1, 926, -1, 928, 929, 930, -1, 932, -1, -1, 935, 936, -1, -1, -1, -1, 941, 942, -1, 944, 945, 946, -1, -1, -1, 950, 951, -1, 953, -1, -1, -1, 957, 958, -1, -1, 961, -1, -1, 964, -1, 966, 967, 968, -1, -1, -1, 972, 973, -1, -1, -1, 977, -1, 979, 980, 981, 982, -1, -1, 985, 986, -1, 988, -1, -1, -1, 992, 993, 994, 995, 996, -1, -1, -1, 1000, 1001, 1002, 1003, 1004, 1005, -1, 1007, -1, -1, 1010, -1, 1012, 1013, -1, -1, -1, -1, -1, -1, 1020, -1, 1022, -1, -1, 1025, 1026, -1, 1028, -1, 1030, 1031, 1032, -1, 1034, -1, 1036, 1037, -1, -1, -1, -1, -1, -1, 1044, 1045, 1046, -1, -1, -1, 1050, 1051, 1052, 1053, 1054, -1, 1056, 1057, -1, 1059, -1, -1, -1, -1, 1064, -1, 1066, -1, -1, 1069, -1, 1071, -1, 1073, -1, 1075, -1, 1077, -1, 1079, -1, -1, 1082, -1, -1, 1085, 1086, 1087, 1088, -1, 1090, 1091, -1, -1, -1, -1, -1, 1097, 1098, 1099, 1100, 1101, -1, -1, -1, 1105, 1106, -1, -1, -1, -1, 1111, 1112, 1113, -1, 1115, -1, 1117, 1118, -1, 1120, -1, -1, -1, 1124, -1, -1, 1127, 1128, 1129, 1130, -1, -1, -1, 1134, 1135, 1136, -1, 1138, -1, -1, 1141, -1, -1, 1144, -1, -1, -1, 1148, 1149, 1150, 1151, 1152, -1, 1154, -1, -1, 1157, 1158, 1159, 1160, 1161, -1, 1163, -1, 1165, 1166, -1, 1168, -1, -1, 1171, -1, -1, 1174, 1175, 1176, 1177, 1178, -1, 1180, 1181, -1, -1, 1184, 1185, 1186, -1, 1188, -1, 1190, 1191, -1, -1, -1, -1, 1196, -1, -1, -1, -1, 1201, 1202, 1203, 1204, 1205, 1206, -1, 1208, -1, 1210, 1211, 1212, 1213, 1214, -1, -1, -1, -1, -1, 1220, -1, 1222, 1223, -1, -1, 1226, 1227, 1228, -1, 1230, 1231, -1, -1, -1, -1, 1236, -1, -1, 1239, -1, -1, -1, 1243, -1, 1245, -1, 1247, 1248, 1249, 1250, 1251, -1, 1253, 1254, 1255, -1, -1, -1, 1259, -1, -1, -1, -1, 1264, -1, 1266, 1267, -1, 1269, -1, -1, -1, -1, 1274, 1275, 1276, -1, 1278, 1279, 1280, -1, 1282, -1, 1284, -1, -1, -1, -1, -1, -1, -1, 1292, 1293, -1, 1295, -1, 1297, -1, 1299, -1, 1301, -1, 1303, -1, -1, 1306, -1, 1308, -1, -1, 1311, 1312, -1, -1, -1, 1316, 1317, -1, 1319, -1, 1321, 1322, 1323, 1324, -1, -1, -1, 1328, -1, 1330, -1, 1332, -1, -1, -1, 1336, -1, 1338, 1339, -1, 1341, -1, -1, 1344, -1, -1, 1347, 1348, -1, 1350, 1351, 1352, -1, -1, -1, -1, 1357, 1358, -1, -1, -1, 1362, 1363, 1364, -1, 1366, 1367, 1368, -1, -1, -1, 1372, 1373, -1, 1375, -1, -1, 1378, -1, -1, 1381, 1382, -1, -1, -1, -1, 1387, 1388, -1, 1390, 1391, -1, 1393, -1, -1, -1, 1397, 1398, 1399, -1, -1, 1402, 1403, -1, 1405, -1, -1, 1408, -1, -1, 1411, 1412, 1413, -1, -1, -1, -1, 1418, 1419, 1420, 1421, -1, 1423, 1424, 1425, -1, -1, -1, -1, -1, -1, 1432, 1433, 1434, 1435, 1436, 1437, 1438, 1439, -1, -1, -1, -1, 1444, 1445, -1, 1447, -1, -1, 1450, 1451, 1452, -1, 1454, -1, 1456, -1, 1458, -1, -1, -1, 1462, 1463, -1, 1465, -1, 1467, -1, 1469, -1, -1, 1472, 1473, -1, -1, -1, 1477, 1478, -1, 1480, -1, 1482, -1, -1, 1485, -1, 1487, 1488, -1, -1, 1491, -1, 1493, -1, -1, 1496, -1, 1498, 1499, -1, -1, -1, 1503, 1504, -1, 1506, -1, 1508, -1, -1, 1511, 1512, 1513, -1, -1, -1, 1517, 1518, -1, -1, -1, 1522, -1, -1, 1525, 1526, 1527, -1, 1529, -1, -1, 1532, 1533, 1534, 1535, 1536, 1537, 1538, 1539, 1540, -1, -1, 1543, -1, 1545, -1, -1, -1, -1, 1550, 1551, -1, 1553, -1, 1555, -1, -1, -1, 1559, 1560, 1561, 1562, -1, -1, -1, 1566, -1, -1, -1, 1570, 1571, -1, 1573, -1, -1, 1576, -1, -1, 1579, 1580, 1581, 1582, 1583, 1584, -1, 1586, 1587, -1, -1, 1590, -1, 1592, 1593, -1, -1, -1, 1597, 1598, 1599, -1, 1601, 1602, -1, 1604, -1, -1, -1, 1608, -1, 1610, -1, -1, -1, 1614, -1, 1616, 1617, 1618, -1, -1, -1, -1, -1, 1624, 1625, -1, -1, -1, 1629, 1630, 1631, 1632, 1633, 1634, 1635, 1636, -1, -1, 1639, 1640, -1, -1, 1643, 1644, -1, 1646, 1647, -1, -1, 1650, -1, 1652, -1, -1, -1, 1656, 1657, -1, 1659, -1, -1, -1, 1663, -1, -1, 1666, 1667, 1668, -1, -1, -1, -1, -1, 1674, -1, -1, 1677, 1678, -1, -1, 1681, -1, 1683, 1684, -1, 1686, 1687, -1, 1689, -1, 1691, 1692, 1693, -1, -1, 1696, -1, 1698, -1, 1700, -1, -1, -1, -1, -1, 1706, -1, 1708, 1709, -1, 1711, -1, 1713, -1, 1715, 1716, -1, 1718, 1719, -1, 1721, 1722, -1, -1, 1725, -1, 1727, 1728, -1, -1, -1, -1, 1733, 1734, 1735, 1736, 1737, 1738, 1739, -1, -1, -1, 1743, -1, -1, 1746, -1, 1748, -1, -1, -1, -1, 1753, 1754, -1, -1, 1757, -1, 1759, -1, 1761, -1, -1, 1764, 1765, 1766, 1767, 1768, -1, -1, 1771, 1772, -1, 1774, -1, 1776, -1, -1, 1779, 1780, -1, -1, -1, 1784, 1785, 1786, -1, -1, -1, 1790, -1, -1, 1793, -1, 1795, 1796, 1797, -1, 1799, -1, -1, -1, -1, 1804, 1805, 1806, 1807, -1, -1, -1, 1811, 1812, -1, 1814, -1, -1, 1817, 1818, 1819, 1820, 1821, 1822, 1823, -1, 1825, 1826, 1827, 1828, -1, 1830, -1, 1832, 1833, 1834, -1, -1, -1, -1, 1839, -1, -1, -1, -1, 1844, -1, -1, -1, -1, -1, -1, 1851, -1, -1, 1854, 1855, -1, 1857, 1858, 1859, -1, -1, 1862, 1863, -1, 1865, -1, -1, -1, 1869, -1, 1871, -1, -1, -1, 1875, 1876, -1, 1878, 1879, 1880, 1881, 1882, 1883, 1884, 1885, -1, 1887, -1, -1, -1, 1891, -1, -1, -1, -1, 1896, -1, 1898, 1899, 1900, 1901, -1, 1903, -1, 1905, -1, -1, -1, 1909, 1910, 1911, 1912, -1, 1914, -1, 1916, -1, 1918, -1, -1, 1921, -1, 1923, 1924, -1, -1, -1, 1928, 1929, 1930, 1931, 1932, -1, -1, -1, 1936, -1, 1938, -1, -1, -1, 1942, -1, -1, 1945, 1946, 1947, -1, 1949, -1, -1, -1, 1953, 1954, -1, 1956, 1957, 1958, -1, -1, -1, 1962, 1963, -1, 1965, -1, 1967, -1, 1969, -1, -1, 1972, -1, -1, -1, 1976, 1977, -1, 1979, 1980, -1, -1, 1983, 1984, -1, -1, -1, -1, 1989, 1990, -1, -1, -1, -1, 1995, 1996, 1997, -1, 1999, -1, 2001, 2002, 2003, -1, -1, -1, 2007, -1, -1, 2010, -1, 2012, -1, 2014, -1, -1, 2017, 2018, -1, 2020, 2021, 2022, 2023, 2024, 2025, 2026, 2027, 2028, -1, 2030, 2031, -1, -1, -1, -1, -1, -1, -1, 2039, -1, 2041, 2042, 2043, -1, 2045, -1, 2047, -1, -1, -1, 2051, -1, -1, -1, 2055, -1, -1, 2058, -1, 2060, -1, -1, 2063, 2064, -1, 2066, 2067, -1, 2069, -1, 2071, -1, 2073, -1, -1, 2076, -1, -1, 2079, -1, -1], "children_right": [1524, 255, 78, 17, 8, 7, -1, -1, 10, -1, 16, 15, 14, -1, -1, -1, -1, 55, 46, 37, 36, 23, -1, 31, 26, -1, 30, 29, -1, -1, -1, 35, 34, -1, -1, -1, -1, 39, -1, 41, -1, 45, 44, -1, -1, -1, 52, 51, 50, -1, -1, -1, 54, -1, -1, 75, 58, -1, 70, 65, 64, 63, -1, -1, -1, 67, -1, 69, -1, -1, 74, 73, -1, -1, -1, 77, -1, -1, 206, 187, 92, 83, -1, 85, -1, 87, -1, 89, -1, 91, -1, -1, 98, 95, -1, 97, -1, -1, 110, 107, 106, 105, 104, -1, -1, -1, -1, 109, -1, -1, 114, 113, -1, -1, 186, 185, 118, -1, 124, 121, -1, 123, -1, -1, 184, 181, 176, 135, 130, -1, 134, 133, -1, -1, -1, 137, -1, 175, 170, 169, 164, 143, -1, 145, -1, 159, 156, 149, -1, 151, -1, 155, 154, -1, -1, -1, 158, -1, -1, 161, -1, 163, -1, -1, 168, 167, -1, -1, -1, -1, 174, 173, -1, -1, -1, -1, 178, -1, 180, -1, -1, 183, -1, -1, -1, -1, -1, 203, 194, 191, -1, 193, -1, -1, 196, -1, 198, -1, 200, -1, 202, -1, -1, 205, -1, -1, 254, 209, -1, 211, -1, 247, 246, 241, 240, 233, 224, 223, 222, 221, -1, -1, -1, -1, 226, -1, 228, -1, 230, -1, 232, -1, -1, 235, -1, 239, 238, -1, -1, -1, -1, 243, -1, 245, -1, -1, -1, 253, 252, 251, -1, -1, -1, -1, -1, 1147, 976, 963, 498, 455, 298, 283, 282, 269, 268, 267, -1, -1, -1, 281, 280, 279, 278, 277, 276, -1, -1, -1, -1, -1, -1, -1, -1, 285, -1, 287, -1, 297, 294, 293, 292, -1, -1, -1, 296, -1, -1, -1, 388, 387, 382, 377, 356, 305, -1, 319, 308, -1, 310, -1, 314, 313, -1, -1, 318, 317, -1, -1, -1, 355, 352, 349, 330, 329, 328, 327, -1, -1, -1, -1, 332, -1, 346, 345, 344, 341, 340, 339, -1, -1, -1, 343, -1, -1, -1, -1, 348, -1, -1, 351, -1, -1, 354, -1, -1, -1, 376, 359, -1, 375, 362, -1, 364, -1, 374, 373, 368, -1, 370, -1, 372, -1, -1, -1, -1, -1, -1, 379, -1, 381, -1, -1, 386, 385, -1, -1, -1, -1, 454, 449, 436, 423, 398, 395, -1, 397, -1, -1, 422, 401, -1, 403, -1, 405, -1, 421, 408, -1, 420, 417, 412, -1, 414, -1, 416, -1, -1, 419, -1, -1, -1, -1, -1, 429, 426, -1, 428, -1, -1, 435, 432, -1, 434, -1, -1, -1, 448, 447, 446, 445, 444, 443, -1, -1, -1, -1, -1, -1, -1, 451, -1, 453, -1, -1, -1, 477, 476, 467, 466, 465, 462, -1, 464, -1, -1, -1, -1, 469, -1, 475, 474, 473, -1, -1, -1, -1, -1, 491, 484, 483, 482, -1, -1, -1, 486, -1, 488, -1, 490, -1, -1, 497, 496, 495, -1, -1, -1, -1, 672, 621, 612, 543, 534, 511, 506, -1, 508, -1, 510, -1, -1, 513, -1, 529, 520, 519, 518, -1, -1, -1, 528, 527, 526, 525, -1, -1, -1, -1, -1, 531, -1, 533, -1, -1, 538, 537, -1, -1, 540, -1, 542, -1, -1, 583, 558, 555, 548, -1, 550, -1, 554, 553, -1, -1, -1, 557, -1, -1, 562, 561, -1, -1, 578, 571, 570, 569, 568, -1, -1, -1, -1, 573, -1, 575, -1, 577, -1, -1, 580, -1, 582, -1, -1, 597, 586, -1, 592, 591, 590, -1, -1, -1, 596, 595, -1, -1, -1, 605, 604, 601, -1, 603, -1, -1, -1, 607, -1, 611, 610, -1, -1, -1, 618, 615, -1, 617, -1, -1, 620, -1, -1, 631, 630, 625, -1, 629, 628, -1, -1, -1, -1, 633, -1, 641, 640, 639, 638, -1, -1, -1, -1, 647, 644, -1, 646, -1, -1, 653, 652, 651, -1, -1, -1, 671, 662, 657, -1, 661, 660, -1, -1, -1, 666, 665, -1, -1, 668, -1, 670, -1, -1, -1, 940, 879, 872, 871, 770, 759, 728, 727, 726, 725, 712, 701, 700, 687, -1, 689, -1, 699, 698, 693, -1, 697, 696, -1, -1, -1, -1, -1, -1, 711, 710, 705, -1, 709, 708, -1, -1, -1, -1, -1, 714, -1, 724, 717, -1, 723, 722, 721, -1, -1, -1, -1, -1, -1, -1, -1, 744, 731, -1, 733, -1, 741, 740, 737, -1, 739, -1, -1, -1, 743, -1, -1, 750, 749, 748, -1, -1, -1, 758, 753, -1, 757, 756, -1, -1, -1, -1, 769, 766, 765, 764, -1, -1, -1, 768, -1, -1, -1, 774, 773, -1, -1, 778, 777, -1, -1, 870, 869, 792, 791, 788, 787, 786, -1, -1, -1, 790, -1, -1, -1, 840, 839, 838, 837, 836, 833, 800, -1, 822, 803, -1, 805, -1, 821, 814, 809, -1, 811, -1, 813, -1, -1, 820, 819, 818, -1, -1, -1, -1, -1, 824, -1, 832, 831, 830, 829, -1, -1, -1, -1, -1, 835, -1, -1, -1, -1, -1, -1, 868, 843, -1, 845, -1, 847, -1, 849, -1, 867, 852, -1, 866, 863, 856, -1, 858, -1, 862, 861, -1, -1, -1, 865, -1, -1, -1, -1, -1, -1, -1, -1, 874, -1, 876, -1, 878, -1, -1, 915, 892, 891, 890, 885, -1, 889, 888, -1, -1, -1, -1, -1, 912, 911, 896, -1, 902, 899, -1, 901, -1, -1, 910, 909, 908, 907, -1, -1, -1, -1, -1, -1, 914, -1, -1, 923, 918, -1, 920, -1, 922, -1, -1, 925, -1, 927, -1, 939, 934, 931, -1, 933, -1, -1, 938, 937, -1, -1, -1, -1, 956, 943, -1, 949, 948, 947, -1, -1, -1, 955, 952, -1, 954, -1, -1, -1, 960, 959, -1, -1, 962, -1, -1, 965, -1, 971, 970, 969, -1, -1, -1, 975, 974, -1, -1, -1, 978, -1, 1084, 991, 984, 983, -1, -1, 990, 987, -1, 989, -1, -1, -1, 1043, 1024, 999, 998, 997, -1, -1, -1, 1019, 1018, 1017, 1016, 1009, 1006, -1, 1008, -1, -1, 1011, -1, 1015, 1014, -1, -1, -1, -1, -1, -1, 1021, -1, 1023, -1, -1, 1042, 1027, -1, 1029, -1, 1041, 1040, 1033, -1, 1035, -1, 1039, 1038, -1, -1, -1, -1, -1, -1, 1049, 1048, 1047, -1, -1, -1, 1081, 1068, 1063, 1062, 1055, -1, 1061, 1058, -1, 1060, -1, -1, -1, -1, 1065, -1, 1067, -1, -1, 1070, -1, 1072, -1, 1074, -1, 1076, -1, 1078, -1, 1080, -1, -1, 1083, -1, -1, 1096, 1095, 1094, 1089, -1, 1093, 1092, -1, -1, -1, -1, -1, 1110, 1109, 1104, 1103, 1102, -1, -1, -1, 1108, 1107, -1, -1, -1, -1, 1126, 1123, 1114, -1, 1116, -1, 1122, 1119, -1, 1121, -1, -1, -1, 1125, -1, -1, 1146, 1133, 1132, 1131, -1, -1, -1, 1143, 1140, 1137, -1, 1139, -1, -1, 1142, -1, -1, 1145, -1, -1, -1, 1417, 1386, 1361, 1156, 1153, -1, 1155, -1, -1, 1346, 1315, 1310, 1173, 1162, -1, 1164, -1, 1170, 1167, -1, 1169, -1, -1, 1172, -1, -1, 1291, 1200, 1199, 1198, 1179, -1, 1183, 1182, -1, -1, 1195, 1194, 1187, -1, 1189, -1, 1193, 1192, -1, -1, -1, -1, 1197, -1, -1, -1, -1, 1290, 1273, 1242, 1241, 1238, 1207, -1, 1209, -1, 1219, 1218, 1217, 1216, 1215, -1, -1, -1, -1, -1, 1221, -1, 1225, 1224, -1, -1, 1235, 1234, 1229, -1, 1233, 1232, -1, -1, -1, -1, 1237, -1, -1, 1240, -1, -1, -1, 1244, -1, 1246, -1, 1272, 1263, 1262, 1261, 1252, -1, 1258, 1257, 1256, -1, -1, -1, 1260, -1, -1, -1, -1, 1265, -1, 1271, 1268, -1, 1270, -1, -1, -1, -1, 1289, 1288, 1277, -1, 1287, 1286, 1281, -1, 1283, -1, 1285, -1, -1, -1, -1, -1, -1, -1, 1305, 1294, -1, 1296, -1, 1298, -1, 1300, -1, 1302, -1, 1304, -1, -1, 1307, -1, 1309, -1, -1, 1314, 1313, -1, -1, -1, 1335, 1318, -1, 1320, -1, 1334, 1327, 1326, 1325, -1, -1, -1, 1329, -1, 1331, -1, 1333, -1, -1, -1, 1337, -1, 1343, 1340, -1, 1342, -1, -1, 1345, -1, -1, 1356, 1349, -1, 1355, 1354, 1353, -1, -1, -1, -1, 1360, 1359, -1, -1, -1, 1385, 1380, 1365, -1, 1371, 1370, 1369, -1, -1, -1, 1377, 1374, -1, 1376, -1, -1, 1379, -1, -1, 1384, 1383, -1, -1, -1, -1, 1396, 1389, -1, 1395, 1392, -1, 1394, -1, -1, -1, 1410, 1401, 1400, -1, -1, 1407, 1404, -1, 1406, -1, -1, 1409, -1, -1, 1416, 1415, 1414, -1, -1, -1, -1, 1431, 1430, 1429, 1422, -1, 1428, 1427, 1426, -1, -1, -1, -1, -1, -1, 1521, 1502, 1495, 1476, 1443, 1442, 1441, 1440, -1, -1, -1, -1, 1449, 1446, -1, 1448, -1, -1, 1461, 1460, 1453, -1, 1455, -1, 1457, -1, 1459, -1, -1, -1, 1471, 1464, -1, 1466, -1, 1468, -1, 1470, -1, -1, 1475, 1474, -1, -1, -1, 1484, 1479, -1, 1481, -1, 1483, -1, -1, 1486, -1, 1490, 1489, -1, -1, 1492, -1, 1494, -1, -1, 1497, -1, 1501, 1500, -1, -1, -1, 1510, 1505, -1, 1507, -1, 1509, -1, -1, 1516, 1515, 1514, -1, -1, -1, 1520, 1519, -1, -1, -1, 1523, -1, -1, 1874, 1531, 1528, -1, 1530, -1, -1, 1705, 1578, 1569, 1558, 1549, 1548, 1547, 1542, 1541, -1, -1, 1544, -1, 1546, -1, -1, -1, -1, 1557, 1552, -1, 1554, -1, 1556, -1, -1, -1, 1568, 1565, 1564, 1563, -1, -1, -1, 1567, -1, -1, -1, 1575, 1572, -1, 1574, -1, -1, 1577, -1, -1, 1628, 1623, 1622, 1613, 1596, 1585, -1, 1589, 1588, -1, -1, 1591, -1, 1595, 1594, -1, -1, -1, 1612, 1607, 1600, -1, 1606, 1603, -1, 1605, -1, -1, -1, 1609, -1, 1611, -1, -1, -1, 1615, -1, 1621, 1620, 1619, -1, -1, -1, -1, -1, 1627, 1626, -1, -1, -1, 1676, 1673, 1672, 1665, 1662, 1655, 1638, 1637, -1, -1, 1642, 1641, -1, -1, 1654, 1645, -1, 1649, 1648, -1, -1, 1651, -1, 1653, -1, -1, -1, 1661, 1658, -1, 1660, -1, -1, -1, 1664, -1, -1, 1671, 1670, 1669, -1, -1, -1, -1, -1, 1675, -1, -1, 1680, 1679, -1, -1, 1682, -1, 1704, 1685, -1, 1703, 1688, -1, 1690, -1, 1702, 1695, 1694, -1, -1, 1697, -1, 1699, -1, 1701, -1, -1, -1, -1, -1, 1707, -1, 1763, 1710, -1, 1712, -1, 1714, -1, 1732, 1717, -1, 1731, 1720, -1, 1724, 1723, -1, -1, 1726, -1, 1730, 1729, -1, -1, -1, -1, 1752, 1751, 1750, 1745, 1742, 1741, 1740, -1, -1, -1, 1744, -1, -1, 1747, -1, 1749, -1, -1, -1, -1, 1756, 1755, -1, -1, 1758, -1, 1760, -1, 1762, -1, -1, 1803, 1792, 1783, 1770, 1769, -1, -1, 1778, 1773, -1, 1775, -1, 1777, -1, -1, 1782, 1781, -1, -1, -1, 1789, 1788, 1787, -1, -1, -1, 1791, -1, -1, 1794, -1, 1802, 1801, 1798, -1, 1800, -1, -1, -1, -1, 1853, 1810, 1809, 1808, -1, -1, -1, 1816, 1813, -1, 1815, -1, -1, 1850, 1849, 1848, 1847, 1846, 1843, 1824, -1, 1842, 1841, 1838, 1829, -1, 1831, -1, 1837, 1836, 1835, -1, -1, -1, -1, 1840, -1, -1, -1, -1, 1845, -1, -1, -1, -1, -1, -1, 1852, -1, -1, 1873, 1856, -1, 1868, 1861, 1860, -1, -1, 1867, 1864, -1, 1866, -1, -1, -1, 1870, -1, 1872, -1, -1, -1, 1994, 1877, -1, 1993, 1988, 1895, 1894, 1893, 1890, 1889, 1886, -1, 1888, -1, -1, -1, 1892, -1, -1, -1, -1, 1897, -1, 1975, 1908, 1907, 1902, -1, 1904, -1, 1906, -1, -1, -1, 1944, 1927, 1920, 1913, -1, 1915, -1, 1917, -1, 1919, -1, -1, 1922, -1, 1926, 1925, -1, -1, -1, 1941, 1940, 1935, 1934, 1933, -1, -1, -1, 1937, -1, 1939, -1, -1, -1, 1943, -1, -1, 1952, 1951, 1948, -1, 1950, -1, -1, -1, 1974, 1955, -1, 1961, 1960, 1959, -1, -1, -1, 1971, 1964, -1, 1966, -1, 1968, -1, 1970, -1, -1, 1973, -1, -1, -1, 1987, 1978, -1, 1982, 1981, -1, -1, 1986, 1985, -1, -1, -1, -1, 1992, 1991, -1, -1, -1, -1, 2016, 2009, 1998, -1, 2000, -1, 2006, 2005, 2004, -1, -1, -1, 2008, -1, -1, 2011, -1, 2013, -1, 2015, -1, -1, 2062, 2019, -1, 2057, 2054, 2053, 2038, 2037, 2036, 2035, 2034, 2029, -1, 2033, 2032, -1, -1, -1, -1, -1, -1, -1, 2040, -1, 2050, 2049, 2044, -1, 2046, -1, 2048, -1, -1, -1, 2052, -1, -1, -1, 2056, -1, -1, 2059, -1, 2061, -1, -1, 2078, 2065, -1, 2075, 2068, -1, 2070, -1, 2072, -1, 2074, -1, -1, 2077, -1, -1, 2080, -1, -1], "feature": [0, 7, 5, 6, 5, 3, -2, -2, 5, -2, 2, 6, 7, -2, -2, -2, -2, 5, 0, 4, 1, 7, -2, 3, 2, -2, 5, 3, -2, -2, -2, 2, 3, -2, -2, -2, -2, 2, -2, 6, -2, 4, 4, -2, -2, -2, 0, 6, 7, -2, -2, -2, 4, -2, -2, 3, 2, -2, 4, 4, 4, 5, -2, -2, -2, 4, -2, 2, -2, -2, 2, 5, -2, -2, -2, 3, -2, -2, 4, 2, 7, 2, -2, 6, -2, 5, -2, 6, -2, 2, -2, -2, 2, 1, -2, 0, -2, -2, 5, 5, 2, 6, 7, -2, -2, -2, -2, 6, -2, -2, 2, 2, -2, -2, 7, 7, 4, -2, 0, 4, -2, 7, -2, -2, 3, 3, 0, 3, 4, -2, 3, 3, -2, -2, -2, 3, -2, 0, 0, 0, 0, 0, -2, 0, -2, 7, 7, 0, -2, 3, -2, 7, 7, -2, -2, -2, 3, -2, -2, 0, -2, 0, -2, -2, 2, 0, -2, -2, -2, -2, 2, 1, -2, -2, -2, -2, 2, -2, 2, -2, -2, 0, -2, -2, -2, -2, -2, 3, 6, 0, -2, 4, -2, -2, 0, -2, 0, -2, 5, -2, 5, -2, -2, 0, -2, -2, 3, 3, -2, 0, -2, 1, 7, 4, 5, 3, 0, 6, 3, 4, -2, -2, -2, -2, 0, -2, 7, -2, 7, -2, 6, -2, -2, 0, -2, 2, 0, -2, -2, -2, -2, 6, -2, 1, -2, -2, -2, 1, 0, 4, -2, -2, -2, -2, -2, 5, 5, 6, 6, 2, 1, 3, 7, 0, 0, 0, -2, -2, -2, 1, 2, 7, 0, 7, 4, -2, -2, -2, -2, -2, -2, -2, -2, 7, -2, 2, -2, 6, 3, 3, 0, -2, -2, -2, 5, -2, -2, -2, 7, 3, 0, 0, 6, 0, -2, 7, 3, -2, 6, -2, 7, 5, -2, -2, 6, 6, -2, -2, -2, 3, 0, 6, 7, 0, 0, 7, -2, -2, -2, -2, 5, -2, 7, 0, 7, 6, 6, 6, -2, -2, -2, 4, -2, -2, -2, -2, 7, -2, -2, 7, -2, -2, 7, -2, -2, -2, 4, 7, -2, 6, 2, -2, 1, -2, 7, 2, 3, -2, 3, -2, 5, -2, -2, -2, -2, -2, -2, 4, -2, 2, -2, -2, 2, 0, -2, -2, -2, -2, 0, 0, 1, 5, 4, 0, -2, 6, -2, -2, 3, 5, -2, 7, -2, 2, -2, 4, 7, -2, 4, 4, 4, -2, 7, -2, 5, -2, -2, 7, -2, -2, -2, -2, -2, 0, 7, -2, 6, -2, -2, 7, 6, -2, 7, -2, -2, -2, 3, 3, 0, 3, 6, 5, -2, -2, -2, -2, -2, -2, -2, 6, -2, 4, -2, -2, -2, 6, 2, 6, 2, 2, 5, -2, 6, -2, -2, -2, -2, 7, -2, 2, 2, 4, -2, -2, -2, -2, -2, 2, 1, 2, 7, -2, -2, -2, 7, -2, 7, -2, 1, -2, -2, 0, 7, 0, -2, -2, -2, -2, 6, 2, 0, 0, 6, 7, 6, -2, 3, -2, 0, -2, -2, 6, -2, 7, 7, 7, 6, -2, -2, -2, 1, 7, 6, 4, -2, -2, -2, -2, -2, 7, -2, 0, -2, -2, 6, 0, -2, -2, 6, -2, 2, -2, -2, 3, 6, 0, 7, -2, 6, -2, 7, 7, -2, -2, -2, 3, -2, -2, 3, 7, -2, -2, 0, 6, 4, 2, 1, -2, -2, -2, -2, 1, -2, 2, -2, 6, -2, -2, 0, -2, 5, -2, -2, 6, 0, -2, 0, 7, 0, -2, -2, -2, 0, 0, -2, -2, -2, 7, 3, 7, -2, 6, -2, -2, -2, 5, -2, 6, 2, -2, -2, -2, 4, 7, -2, 0, -2, -2, 6, -2, -2, 6, 7, 2, -2, 3, 5, -2, -2, -2, -2, 5, -2, 5, 6, 2, 2, -2, -2, -2, -2, 0, 7, -2, 3, -2, -2, 1, 4, 3, -2, -2, -2, 2, 1, 0, -2, 0, 2, -2, -2, -2, 7, 7, -2, -2, 2, -2, 3, -2, -2, -2, 3, 0, 4, 3, 7, 2, 0, 3, 6, 5, 3, 3, 3, 2, -2, 2, -2, 6, 1, 3, -2, 1, 5, -2, -2, -2, -2, -2, -2, 2, 6, 7, -2, 7, 1, -2, -2, -2, -2, -2, 3, -2, 4, 2, -2, 6, 6, 5, -2, -2, -2, -2, -2, -2, -2, -2, 6, 7, -2, 4, -2, 4, 0, 0, -2, 6, -2, -2, -2, 7, -2, -2, 6, 6, 6, -2, -2, -2, 7, 3, -2, 5, 3, -2, -2, -2, -2, 6, 6, 6, 6, -2, -2, -2, 0, -2, -2, -2, 1, 0, -2, -2, 6, 0, -2, -2, 2, 7, 6, 6, 7, 3, 4, -2, -2, -2, 0, -2, -2, -2, 3, 6, 4, 5, 4, 3, 6, -2, 7, 3, -2, 1, -2, 7, 6, 1, -2, 6, -2, 2, -2, -2, 7, 4, 0, -2, -2, -2, -2, -2, 5, -2, 0, 6, 1, 0, -2, -2, -2, -2, -2, 1, -2, -2, -2, -2, -2, -2, 4, 0, -2, 0, -2, 6, -2, 1, -2, 7, 1, -2, 6, 6, 7, -2, 0, -2, 1, 4, -2, -2, -2, 1, -2, -2, -2, -2, -2, -2, -2, -2, 7, -2, 7, -2, 1, -2, -2, 0, 6, 4, 6, 6, -2, 3, 0, -2, -2, -2, -2, -2, 4, 6, 2, -2, 1, 0, -2, 4, -2, -2, 5, 6, 7, 1, -2, -2, -2, -2, -2, -2, 7, -2, -2, 5, 0, -2, 0, -2, 0, -2, -2, 4, -2, 7, -2, 2, 4, 6, -2, 3, -2, -2, 2, 5, -2, -2, -2, -2, 2, 7, -2, 5, 7, 1, -2, -2, -2, 5, 6, -2, 7, -2, -2, -2, 0, 4, -2, -2, 2, -2, -2, 3, -2, 4, 0, 2, -2, -2, -2, 3, 6, -2, -2, -2, 6, -2, 7, 2, 3, 1, -2, -2, 5, 3, -2, 5, -2, -2, -2, 7, 2, 6, 5, 1, -2, -2, -2, 0, 7, 7, 3, 0, 5, -2, 0, -2, -2, 7, -2, 5, 5, -2, -2, -2, -2, -2, -2, 1, -2, 6, -2, -2, 2, 2, -2, 2, -2, 7, 0, 3, -2, 6, -2, 2, 3, -2, -2, -2, -2, -2, -2, 3, 3, 5, -2, -2, -2, 5, 0, 0, 5, 1, -2, 3, 7, -2, 5, -2, -2, -2, -2, 0, -2, 0, -2, -2, 2, -2, 0, -2, 6, -2, 4, -2, 2, -2, 0, -2, -2, 6, -2, -2, 6, 4, 7, 0, -2, 7, 5, -2, -2, -2, -2, -2, 4, 0, 2, 5, 4, -2, -2, -2, 4, 7, -2, -2, -2, -2, 5, 4, 2, -2, 5, -2, 1, 4, -2, 4, -2, -2, -2, 0, -2, -2, 6, 5, 4, 5, -2, -2, -2, 4, 0, 1, -2, 4, -2, -2, 1, -2, -2, 3, -2, -2, -2, 2, 7, 0, 6, 0, -2, 0, -2, -2, 0, 4, 5, 5, 0, -2, 6, -2, 6, 0, -2, 5, -2, -2, 3, -2, -2, 6, 0, 2, 2, 5, -2, 3, 1, -2, -2, 3, 6, 1, -2, 0, -2, 7, 1, -2, -2, -2, -2, 1, -2, -2, -2, -2, 4, 5, 5, 4, 1, 3, -2, 4, -2, 4, 7, 7, 6, 3, -2, -2, -2, -2, -2, 7, -2, 5, 2, -2, -2, 1, 0, 5, -2, 4, 5, -2, -2, -2, -2, 1, -2, -2, 4, -2, -2, -2, 6, -2, 0, -2, 0, 0, 6, 1, 0, -2, 4, 5, 4, -2, -2, -2, 0, -2, -2, -2, -2, 1, -2, 1, 4, -2, 0, -2, -2, -2, -2, 0, 1, 3, -2, 1, 0, 7, -2, 7, -2, 0, -2, -2, -2, -2, -2, -2, -2, 1, 6, -2, 6, -2, 1, -2, 1, -2, 1, -2, 1, -2, -2, 4, -2, 0, -2, -2, 0, 1, -2, -2, -2, 6, 0, -2, 3, -2, 5, 2, 6, 6, -2, -2, -2, 7, -2, 1, -2, 7, -2, -2, -2, 3, -2, 2, 0, -2, 6, -2, -2, 1, -2, -2, 0, 1, -2, 6, 7, 3, -2, -2, -2, -2, 6, 3, -2, -2, -2, 1, 4, 6, -2, 0, 0, 7, -2, -2, -2, 2, 0, -2, 4, -2, -2, 3, -2, -2, 2, 7, -2, -2, -2, -2, 0, 3, -2, 0, 5, -2, 7, -2, -2, -2, 4, 7, 3, -2, -2, 0, 6, -2, 0, -2, -2, 2, -2, -2, 6, 6, 6, -2, -2, -2, -2, 6, 7, 3, 2, -2, 0, 3, 3, -2, -2, -2, -2, -2, -2, 7, 2, 6, 1, 2, 4, 2, 2, -2, -2, -2, -2, 0, 2, -2, 0, -2, -2, 0, 3, 1, -2, 7, -2, 1, -2, 5, -2, -2, -2, 7, 3, -2, 7, -2, 7, -2, 7, -2, -2, 0, 7, -2, -2, -2, 6, 6, -2, 0, -2, 4, -2, -2, 7, -2, 7, 1, -2, -2, 6, -2, 0, -2, -2, 5, -2, 2, 2, -2, -2, -2, 4, 3, -2, 5, -2, 2, -2, -2, 5, 4, 5, -2, -2, -2, 3, 1, -2, -2, -2, 0, -2, -2, 0, 7, 1, -2, 4, -2, -2, 0, 2, 6, 6, 7, 0, 0, 2, 2, -2, -2, 1, -2, 5, -2, -2, -2, -2, 2, 2, -2, 5, -2, 2, -2, -2, -2, 5, 3, 0, 0, -2, -2, -2, 6, -2, -2, -2, 4, 4, -2, 7, -2, -2, 3, -2, -2, 6, 1, 4, 3, 6, 7, -2, 3, 3, -2, -2, 3, -2, 5, 4, -2, -2, -2, 1, 3, 7, -2, 6, 1, -2, 4, -2, -2, -2, 7, -2, 4, -2, -2, -2, 3, -2, 0, 5, 6, -2, -2, -2, -2, -2, 5, 7, -2, -2, -2, 6, 6, 6, 3, 6, 6, 7, 7, -2, -2, 0, 4, -2, -2, 7, 0, -2, 6, 5, -2, -2, 6, -2, 0, -2, -2, -2, 0, 3, -2, 2, -2, -2, -2, 3, -2, -2, 6, 3, 6, -2, -2, -2, -2, -2, 3, -2, -2, 7, 4, -2, -2, 2, -2, 2, 4, -2, 6, 2, -2, 5, -2, 4, 1, 6, -2, -2, 2, -2, 1, -2, 7, -2, -2, -2, -2, -2, 7, -2, 6, 3, -2, 6, -2, 5, -2, 6, 2, -2, 1, 0, -2, 2, 4, -2, -2, 0, -2, 3, 2, -2, -2, -2, -2, 3, 7, 6, 6, 6, 1, 6, -2, -2, -2, 7, -2, -2, 0, -2, 3, -2, -2, -2, -2, 2, 5, -2, -2, 0, -2, 6, -2, 1, -2, -2, 6, 3, 0, 6, 1, -2, -2, 6, 3, -2, 3, -2, 1, -2, -2, 6, 5, -2, -2, -2, 6, 7, 7, -2, -2, -2, 2, -2, -2, 6, -2, 3, 0, 3, -2, 1, -2, -2, -2, -2, 1, 7, 3, 6, -2, -2, -2, 7, 6, -2, 2, -2, -2, 3, 3, 3, 4, 6, 6, 7, -2, 4, 6, 6, 7, -2, 0, -2, 6, 3, 0, -2, -2, -2, -2, 0, -2, -2, -2, -2, 4, -2, -2, -2, -2, -2, -2, 5, -2, -2, 7, 1, -2, 0, 0, 6, -2, -2, 7, 7, -2, 0, -2, -2, -2, 0, -2, 0, -2, -2, -2, 3, 1, -2, 7, 4, 1, 3, 0, 5, 0, 1, -2, 3, -2, -2, -2, 0, -2, -2, -2, -2, 7, -2, 1, 6, 5, 7, -2, 0, -2, 7, -2, -2, -2, 6, 1, 7, 4, -2, 1, -2, 6, -2, 3, -2, -2, 3, -2, 6, 3, -2, -2, -2, 1, 5, 3, 6, 6, -2, -2, -2, 1, -2, 2, -2, -2, -2, 1, -2, -2, 1, 0, 3, -2, 4, -2, -2, -2, 7, 1, -2, 1, 2, 5, -2, -2, -2, 3, 6, -2, 6, -2, 1, -2, 6, -2, -2, 2, -2, -2, -2, 7, 3, -2, 4, 1, -2, -2, 6, 7, -2, -2, -2, -2, 1, 0, -2, -2, -2, -2, 7, 2, 0, -2, 2, -2, 3, 3, 4, -2, -2, -2, 7, -2, -2, 7, -2, 0, -2, 4, -2, -2, 7, 4, -2, 7, 1, 3, 6, 3, 3, 3, 7, 1, -2, 4, 7, -2, -2, -2, -2, -2, -2, -2, 6, -2, 0, 0, 6, -2, 2, -2, 3, -2, -2, -2, 6, -2, -2, -2, 2, -2, -2, 0, -2, 3, -2, -2, 3, 2, -2, 4, 3, -2, 3, -2, 2, -2, 4, -2, -2, 0, -2, -2, 3, -2, -2], "threshold": [0.6107489466667175, -0.946732223033905, 0.9773636758327484, 0.050836607813835144, 0.9328510165214539, -0.5844878554344177, -2.0, -2.0, 0.9328834116458893, -2.0, -0.1731252819299698, -0.01528763584792614, -1.2827274799346924, -2.0, -2.0, -2.0, -2.0, 0.9571747779846191, 0.24725983291864395, -0.5906528234481812, 1.4422501921653748, -1.144045352935791, -2.0, -0.9039346873760223, 1.4255819916725159, -2.0, 0.809883326292038, -1.165830135345459, -2.0, -2.0, -2.0, 1.0810416340827942, -0.3936823208932765, -2.0, -2.0, -2.0, -2.0, -0.2586086690425873, -2.0, 0.6914248764514923, -2.0, 0.17194414883852005, -0.0017364509403705597, -2.0, -2.0, -2.0, 0.6090953946113586, 0.08326949179172516, -1.224243402481079, -2.0, -2.0, -2.0, 0.17316408455371857, -2.0, -2.0, 0.8275868892669678, -0.688544511795044, -2.0, 0.5739529430866241, 0.5050762295722961, 0.44182078540325165, 0.9577032923698425, -2.0, -2.0, -2.0, 0.5301910638809204, -2.0, -0.5890729129314423, -2.0, -2.0, -0.6635311543941498, 0.9751230478286743, -2.0, -2.0, -2.0, 0.9399889409542084, -2.0, -2.0, 1.699138879776001, -0.9649897217750549, -1.1221257448196411, -1.1376218795776367, -2.0, 0.3008261024951935, -2.0, 0.9988097548484802, -2.0, 0.364391565322876, -2.0, -1.0308438539505005, -2.0, -2.0, -1.6789371371269226, -1.1958864331245422, -2.0, -1.2907631993293762, -2.0, -2.0, 1.0014354586601257, 1.0007033944129944, -0.9811181426048279, 0.4881367087364197, -1.0927981734275818, -2.0, -2.0, -2.0, -2.0, 0.5666624009609222, -2.0, -2.0, -1.6533137559890747, -1.675278902053833, -2.0, -2.0, -0.961349755525589, -0.9614047110080719, 1.042985737323761, -2.0, -2.293281316757202, 1.4964054822921753, -2.0, -0.9615278840065002, -2.0, -2.0, 1.3858821988105774, 1.3520294427871704, -0.121731948107481, 0.9108825623989105, 1.0520318746566772, -2.0, 0.7134486436843872, 0.6960169970989227, -2.0, -2.0, -2.0, 0.917430967092514, -2.0, -0.9301092028617859, -1.1435548663139343, -1.3585076928138733, -1.378825306892395, -1.8352304100990295, -2.0, -1.8321661949157715, -2.0, -0.9906747341156006, -1.0049855709075928, -1.778138816356659, -2.0, 0.9697626829147339, -2.0, -1.0272542238235474, -1.0563458800315857, -2.0, -2.0, -2.0, 1.0230126976966858, -2.0, -2.0, -1.4954386353492737, -2.0, -1.4674026370048523, -2.0, -2.0, -1.242365837097168, -1.3609406352043152, -2.0, -2.0, -2.0, -2.0, -1.2578179836273193, -1.0754601955413818, -2.0, -2.0, -2.0, -2.0, -1.1916213035583496, -2.0, -1.1172201037406921, -2.0, -2.0, -2.1786597967147827, -2.0, -2.0, -2.0, -2.0, -2.0, 2.324688196182251, 0.3006230294704437, -0.6938753128051758, -2.0, 0.8141390085220337, -2.0, -2.0, -0.23050078004598618, -2.0, -0.20400790870189667, -2.0, 0.9938527345657349, -2.0, 0.9939574003219604, -2.0, -2.0, -2.6128679513931274, -2.0, -2.0, 4.914242506027222, 1.0946570038795471, -2.0, -2.9309123754501343, -2.0, -1.2377732992172241, -0.954079806804657, 2.0828897953033447, 1.083841323852539, 1.6194614171981812, -1.7910654544830322, 0.7308767437934875, 1.4001576900482178, 1.989504873752594, -2.0, -2.0, -2.0, -2.0, -1.7537963390350342, -2.0, -1.0489701628684998, -2.0, -1.0271371006965637, -2.0, 0.7585746645927429, -2.0, -2.0, -2.6461390256881714, -2.0, -1.7651109099388123, -2.5155924558639526, -2.0, -2.0, -2.0, -2.0, 0.7963422238826752, -2.0, -1.4407804608345032, -2.0, -2.0, -2.0, -1.2176037430763245, -2.428696036338806, 1.7410237789154053, -2.0, -2.0, -2.0, -2.0, -2.0, 0.3201896697282791, -0.42238566279411316, 1.5213064551353455, -0.9631073772907257, -0.22573364526033401, -1.2806416749954224, 0.8060015738010406, 0.7193901240825653, -0.6594412922859192, -0.8018721342086792, -2.1070716977119446, -2.0, -2.0, -2.0, -1.3063824772834778, -2.0581384897232056, 0.7119078934192657, -0.16026996076107025, 0.6463162899017334, 2.0671207904815674, -2.0, -2.0, -2.0, -2.0, -2.0, -2.0, -2.0, -2.0, 0.6095283627510071, -2.0, -2.087929606437683, -2.0, -1.3142316937446594, 0.8883172273635864, 0.8491638898849487, 0.41987344622612, -2.0, -2.0, -2.0, -0.9863065779209137, -2.0, -2.0, -2.0, 0.7631034851074219, 1.4060356616973877, 0.6041899025440216, 0.5843646228313446, -1.3430548906326294, -0.66840660572052, -2.0, 0.6899931132793427, 0.5770963728427887, -2.0, -1.4503464102745056, -2.0, 0.6459246277809143, -1.0488553047180176, -2.0, -2.0, -1.4311243891716003, -1.435680329799652, -2.0, -2.0, -2.0, 0.6295279860496521, 0.3807879239320755, -1.4639504551887512, 0.7336794435977936, 0.3429032266139984, -0.4382403939962387, 0.7118297219276428, -2.0, -2.0, -2.0, -2.0, -0.8490687310695648, -2.0, 0.7558887004852295, 0.15431255474686623, 0.7486263811588287, -1.4929636716842651, -1.5339308381080627, -1.5430594682693481, -2.0, -2.0, -2.0, 1.9836408495903015, -2.0, -2.0, -2.0, -2.0, 0.763066977262497, -2.0, -2.0, 0.7336568236351013, -2.0, -2.0, 0.6901765167713165, -2.0, -2.0, -2.0, 1.5827196836471558, 0.5511639714241028, -2.0, -1.2306325435638428, -1.358940303325653, -2.0, -0.9994303286075592, -2.0, 0.6313050389289856, -0.38249336183071136, 0.5024692416191101, -2.0, 0.5875959694385529, -2.0, -1.1665209531784058, -2.0, -2.0, -2.0, -2.0, -2.0, -2.0, 1.7566297054290771, -2.0, -1.7856537103652954, -2.0, -2.0, -1.2733660340309143, 0.607798844575882, -2.0, -2.0, -2.0, -2.0, 0.6026991903781891, 0.5210535526275635, -0.014655288774520159, -0.5210042595863342, 1.1719528436660767, 0.37879757583141327, -2.0, -1.5635612607002258, -2.0, -2.0, 0.46738551557064056, -0.6754811704158783, -2.0, 0.7775082588195801, -2.0, -1.635159194469452, -2.0, 1.6452578902244568, 0.7776602506637573, -2.0, 1.617316722869873, 1.4464173316955566, 1.2037339210510254, -2.0, 0.7996378839015961, -2.0, -0.579563170671463, -2.0, -2.0, 0.777726024389267, -2.0, -2.0, -2.0, -2.0, -2.0, -0.10922211036086082, 0.8289793431758881, -2.0, -1.5744532346725464, -2.0, -2.0, 0.8362810909748077, -1.5767332315444946, -2.0, 0.8361188769340515, -2.0, -2.0, -2.0, 0.014818619703873992, -0.08915179595351219, -0.6656433045864105, -0.09347106143832207, -1.604848563671112, -0.43739965558052063, -2.0, -2.0, -2.0, -2.0, -2.0, -2.0, -2.0, -1.5769524574279785, -2.0, 1.8552610874176025, -2.0, -2.0, -2.0, -1.0633414387702942, 0.7607114613056183, -1.1797848343849182, -0.050348278135061264, -0.06580071896314621, -1.0711864829063416, -2.0, -1.472403883934021, -2.0, -2.0, -2.0, -2.0, 0.5510836243629456, -2.0, 0.5767252147197723, 0.32423824071884155, 0.676165834069252, -2.0, -2.0, -2.0, -2.0, -2.0, 1.338851511478424, 1.0038262605667114, 0.5920972228050232, 0.5439316630363464, -2.0, -2.0, -2.0, 0.5002292394638062, -2.0, 0.514549970626831, -2.0, 3.204454720020294, -2.0, -2.0, -2.548884868621826, 0.5290972292423248, -2.610016942024231, -2.0, -2.0, -2.0, -2.0, -0.16265513747930527, 1.4338370561599731, 0.5708508789539337, -1.0997037291526794, -0.555316150188446, 0.45605626702308655, -0.6704984605312347, -2.0, -0.8952693939208984, -2.0, -1.263106346130371, -2.0, -2.0, -0.9578418433666229, -2.0, 0.4856724888086319, 0.4563814103603363, 0.45627985894680023, -0.7703634798526764, -2.0, -2.0, -2.0, 1.0959227085113525, 0.4781237542629242, -0.9198700487613678, -1.1444986462593079, -2.0, -2.0, -2.0, -2.0, -2.0, 0.5000282824039459, -2.0, -1.121396005153656, -2.0, -2.0, -0.4851781278848648, -1.3762708902359009, -2.0, -2.0, -0.3712865561246872, -2.0, 0.4890575706958771, -2.0, -2.0, -0.7851508557796478, -0.4992249608039856, 0.38627494871616364, 0.3977686017751694, -2.0, -0.7162832915782928, -2.0, 0.42697490751743317, 0.3979315459728241, -2.0, -2.0, -2.0, -0.9153002202510834, -2.0, -2.0, -0.901871532201767, 0.34666433930397034, -2.0, -2.0, 0.24021033942699432, -0.37105628848075867, -1.1684582233428955, 1.2277427315711975, 0.9060850441455841, -2.0, -2.0, -2.0, -2.0, 0.8939710259437561, -2.0, 1.148779273033142, -2.0, -0.2902339696884155, -2.0, -2.0, 0.4968666732311249, -2.0, -1.4065648913383484, -2.0, -2.0, -0.5866375863552094, -0.4627944529056549, -2.0, -0.27472275495529175, 0.4635348469018936, -0.2916724383831024, -2.0, -2.0, -2.0, -0.17180348932743073, -0.19758230447769165, -2.0, -2.0, -2.0, 0.3541100472211838, -0.6900223791599274, 0.28816916048526764, -2.0, -0.5539376139640808, -2.0, -2.0, -2.0, -1.3866528868675232, -2.0, -0.5263719260692596, 0.7406666576862335, -2.0, -2.0, -2.0, -0.6557463109493256, 0.2662806957960129, -2.0, 0.6047779023647308, -2.0, -2.0, -0.4662259519100189, -2.0, -2.0, -0.8938246071338654, 0.4929267317056656, 1.4390521049499512, -2.0, -1.1087726354599, -1.4506590962409973, -2.0, -2.0, -2.0, -2.0, -1.4513245224952698, -2.0, -1.446158528327942, -0.40974558889865875, 1.657829463481903, 1.6561904549598694, -2.0, -2.0, -2.0, -2.0, -2.016705334186554, 0.4563032388687134, -2.0, -1.0661852955818176, -2.0, -2.0, 0.8873999118804932, -1.5119267702102661, -1.0344638228416443, -2.0, -2.0, -2.0, 1.629142701625824, 1.0736650228500366, -0.593552827835083, -2.0, -0.415707066655159, 1.5796425938606262, -2.0, -2.0, -2.0, 0.3829919099807739, 0.30273541808128357, -2.0, -2.0, 1.5920706987380981, -2.0, -1.0860496759414673, -2.0, -2.0, -2.0, 0.8991433382034302, 0.5389418601989746, 1.9776172041893005, 0.8052882850170135, -0.09916453063488007, -0.4978538602590561, 0.0448765829205513, 0.6652433276176453, 1.4890187978744507, -1.01597398519516, 0.496382012963295, 0.28928300738334656, 0.2607092708349228, -1.201613187789917, -2.0, -1.115313172340393, -2.0, 1.4253707528114319, 0.08365372940897942, -0.00033880388946272433, -2.0, -0.2212788313627243, -1.2361656427383423, -2.0, -2.0, -2.0, -2.0, -2.0, -2.0, -1.5008785128593445, 1.2338403463363647, -0.16472764313220978, -2.0, -0.14296485483646393, -0.9218787848949432, -2.0, -2.0, -2.0, -2.0, -2.0, 0.5331211984157562, -2.0, 1.9027974605560303, -1.8616296648979187, -2.0, 1.3937368392944336, 1.332626760005951, -1.1391462087631226, -2.0, -2.0, -2.0, -2.0, -2.0, -2.0, -2.0, -2.0, 1.2894046902656555, -0.17226175218820572, -2.0, 1.307793378829956, -2.0, 1.79240483045578, 0.5089016854763031, 0.31678304076194763, -2.0, 1.0843618512153625, -2.0, -2.0, -2.0, -0.17219526320695877, -2.0, -2.0, 1.3702539205551147, 1.3063098788261414, 1.305988609790802, -2.0, -2.0, -2.0, -0.2308548390865326, 0.5945766270160675, -2.0, -1.0374199748039246, 0.6325396299362183, -2.0, -2.0, -2.0, -2.0, 1.4747150540351868, 1.4507916569709778, 0.9742103815078735, 0.9616087675094604, -2.0, -2.0, -2.0, 0.3331272602081299, -2.0, -2.0, -2.0, -0.5448079109191895, 0.5237193405628204, -2.0, -2.0, -0.08118579536676407, -0.5627626925706863, -2.0, -2.0, 1.7182639241218567, 0.20789804309606552, 0.34834806621074677, 0.19810456037521362, 0.18569976836442947, -0.9214442670345306, -1.3643381595611572, -2.0, -2.0, -2.0, -1.4941108226776123, -2.0, -2.0, -2.0, -0.23213468492031097, 0.9679161906242371, 0.11708499863743782, -1.3186616897583008, -0.009071384090930223, -0.395300030708313, 0.43034952878952026, -2.0, 0.04691447876393795, -1.129972755908966, -2.0, 0.4691932201385498, -2.0, 0.0029534067725762725, 0.7389893233776093, 0.5733797550201416, -2.0, 0.6883013546466827, -2.0, 0.5896054804325104, -2.0, -2.0, -0.05500982701778412, -0.17197255790233612, -0.280170202255249, -2.0, -2.0, -2.0, -2.0, -2.0, -1.4065279960632324, -2.0, 0.12348839081823826, 0.6334034204483032, 0.6406005322933197, -0.17008367739617825, -2.0, -2.0, -2.0, -2.0, -2.0, 0.2926676273345947, -2.0, -2.0, -2.0, -2.0, -2.0, -2.0, 1.39385586977005, -1.67512845993042, -2.0, -0.6099743247032166, -2.0, 0.7618474960327148, -2.0, -0.2912752777338028, -2.0, -0.047960154712200165, -0.2372911050915718, -2.0, 0.9643056988716125, 0.9015680849552155, -0.06974121183156967, -2.0, -0.041023045778274536, -2.0, -0.007507607340812683, 0.8142197728157043, -2.0, -2.0, -2.0, 0.3282105624675751, -2.0, -2.0, -2.0, -2.0, -2.0, -2.0, -2.0, -2.0, -0.20137599855661392, -2.0, -0.15020962059497833, -2.0, -0.8972257971763611, -2.0, -2.0, 0.6049536764621735, 0.3235328495502472, 0.19079186767339706, 0.09761887043714523, -0.11665230989456177, -2.0, -0.40580663084983826, 0.5902970433235168, -2.0, -2.0, -2.0, -2.0, -2.0, 1.980701744556427, 1.119248628616333, -1.800635814666748, -2.0, -0.14004243910312653, 0.6032918095588684, -2.0, 1.575044333934784, -2.0, -2.0, -1.2774865627288818, 0.6510767936706543, 0.0030462039867416024, -0.026909050531685352, -2.0, -2.0, -2.0, -2.0, -2.0, -2.0, -0.1430203840136528, -2.0, -2.0, -1.3304113149642944, 0.6051579415798187, -2.0, 0.6099999248981476, -2.0, 0.6101130843162537, -2.0, -2.0, 0.4334234893321991, -2.0, -0.23065244406461716, -2.0, -0.50999516248703, 1.2648396492004395, 1.272252082824707, -2.0, 0.5652896016836166, -2.0, -2.0, -1.6265292167663574, -1.136215090751648, -2.0, -2.0, -2.0, -2.0, -1.047104001045227, -0.28150901198387146, -2.0, -1.0459543466567993, -0.15015188604593277, -1.3173965811729431, -2.0, -2.0, -2.0, -1.0164801478385925, 1.375852644443512, -2.0, -0.23819752037525177, -2.0, -2.0, -2.0, 0.6051367819309235, 1.5875280499458313, -2.0, -2.0, -0.7146660834550858, -2.0, -2.0, 0.33063317835330963, -2.0, 0.7593611180782318, -0.0929800346493721, -0.3368047848343849, -2.0, -2.0, -2.0, 0.7609001994132996, 1.5335987210273743, -2.0, -2.0, -2.0, -1.6640126705169678, -2.0, -0.5085415244102478, -0.13252203911542892, -0.5836039334535599, -0.7666906118392944, -2.0, -2.0, -0.14489468932151794, 0.7418030500411987, -2.0, -0.18616361171007156, -2.0, -2.0, -2.0, -0.5961905419826508, 1.0686466097831726, 1.5778700113296509, 0.21853728592395782, 0.033291904255747795, -2.0, -2.0, -2.0, 0.06872118171304464, -0.6103583574295044, -0.6104458272457123, 0.5497249066829681, -0.8685832619667053, 0.22031597048044205, -2.0, -0.9596184194087982, -2.0, -2.0, -0.6471975445747375, -2.0, 0.14731109142303467, 0.12618736922740936, -2.0, -2.0, -2.0, -2.0, -2.0, -2.0, 0.037584004923701286, -2.0, 1.584382712841034, -2.0, -2.0, 1.4493952989578247, 1.1210087537765503, -2.0, 1.1652550101280212, -2.0, -0.6251890957355499, -0.009062469005584717, -0.44322681427001953, -2.0, 1.557632327079773, -2.0, 1.228575348854065, -0.20997493714094162, -2.0, -2.0, -2.0, -2.0, -2.0, -2.0, 0.11949408054351807, -0.3966291546821594, -0.012600313872098923, -2.0, -2.0, -2.0, 0.051157863810658455, -0.4715048670768738, -0.9063934087753296, 0.00536825112067163, -0.4646313190460205, -2.0, 0.5894308984279633, -0.5230624079704285, -2.0, -0.1593923196196556, -2.0, -2.0, -2.0, -2.0, -0.5268481075763702, -2.0, -0.49995772540569305, -2.0, -2.0, 0.05396640673279762, -2.0, -0.4306958466768265, -2.0, 1.6094922423362732, -2.0, -0.13467825949192047, -2.0, 0.15900113433599472, -2.0, -0.34770582616329193, -2.0, -2.0, 1.6218681931495667, -2.0, -2.0, -1.6338367462158203, 0.022002868354320526, 0.9092299938201904, -1.4282075762748718, -2.0, 0.8655779957771301, -0.26472288370132446, -2.0, -2.0, -2.0, -2.0, -2.0, -0.07300939783453941, 0.24280524253845215, 0.19529559463262558, -0.2724907547235489, -0.5255196392536163, -2.0, -2.0, -2.0, -0.12576019018888474, -0.5083493590354919, -2.0, -2.0, -2.0, -2.0, -0.3630469888448715, 0.7616669535636902, -0.6856372356414795, -2.0, -0.41446539759635925, -2.0, 0.6192326843738556, 0.4694029688835144, -2.0, 0.6387102603912354, -2.0, -2.0, -2.0, -0.898610532283783, -2.0, -2.0, 1.675661563873291, -0.24059192836284637, 0.1965959370136261, -0.29975780844688416, -2.0, -2.0, -2.0, 0.548459529876709, -0.07264867797493935, 0.47606945037841797, -2.0, 0.27212823927402496, -2.0, -2.0, -0.3894370496273041, -2.0, -2.0, -0.04189051128923893, -2.0, -2.0, -2.0, 1.4839404225349426, 1.4353212118148804, 0.6061452925205231, -1.5412641167640686, 0.5406791567802429, -2.0, 0.5419167876243591, -2.0, -2.0, 0.5237993896007538, 1.3737148642539978, 1.008362352848053, 0.48765528202056885, -0.8381842374801636, -2.0, 1.5296391248703003, -2.0, 1.5378005504608154, -0.03643595241010189, -2.0, 0.3534608632326126, -2.0, -2.0, -0.2324662283062935, -2.0, -2.0, 1.3643037676811218, -0.4708000123500824, 1.2054961919784546, 1.1926383972167969, 0.7679728269577026, -2.0, -0.5123287439346313, 0.265137255191803, -2.0, -2.0, 4.757393836975098, 1.3612297177314758, -0.9173213839530945, -2.0, -0.6232810318470001, -2.0, -0.8444667458534241, -0.32669132947921753, -2.0, -2.0, -2.0, -2.0, -0.7571371495723724, -2.0, -2.0, -2.0, -2.0, 0.5534688234329224, 0.8594402372837067, 0.7199956774711609, 0.18472640216350555, 0.7236173748970032, -0.8869496583938599, -2.0, -1.1072962284088135, -2.0, -0.7699826657772064, 1.157601535320282, 1.1575350761413574, -1.4592657685279846, -0.758355587720871, -2.0, -2.0, -2.0, -2.0, -2.0, 1.1065608859062195, -2.0, 0.5818272531032562, 0.3029301315546036, -2.0, -2.0, 0.418018639087677, 0.21861466020345688, 0.6356261074542999, -2.0, -0.4199437350034714, 0.645541250705719, -2.0, -2.0, -2.0, -2.0, 0.6353988945484161, -2.0, -2.0, -0.6068785488605499, -2.0, -2.0, -2.0, -1.2029515504837036, -2.0, -0.4634440988302231, -2.0, 0.4484661668539047, 0.2020081877708435, -0.9973115026950836, 0.35891763865947723, -0.35517123341560364, -2.0, -1.046474277973175, 0.8151526153087616, -1.275457739830017, -2.0, -2.0, -2.0, 0.10041122511029243, -2.0, -2.0, -2.0, -2.0, 0.2925969213247299, -2.0, 0.6990973055362701, 0.03650253266096115, -2.0, 0.35223110020160675, -2.0, -2.0, -2.0, -2.0, 0.37290291488170624, 0.4565948396921158, -0.17478984594345093, -2.0, -0.04496314935386181, 0.038893578574061394, 1.30373615026474, -2.0, 1.3622181415557861, -2.0, -0.08387210220098495, -2.0, -2.0, -2.0, -2.0, -2.0, -2.0, -2.0, 0.6332383751869202, 1.4020000100135803, -2.0, 1.4045880436897278, -2.0, 0.2839982807636261, -2.0, 0.3183884471654892, -2.0, 0.5726357400417328, -2.0, 0.5789005160331726, -2.0, -2.0, -1.121464490890503, -2.0, 0.18944130092859268, -2.0, -2.0, -2.3802921772003174, -1.0272988080978394, -2.0, -2.0, -2.0, 1.0370568633079529, -2.7399638891220093, -2.0, 5.1869447231292725, -2.0, 1.0765227675437927, -1.6534355282783508, 0.9911457002162933, 0.9883404970169067, -2.0, -2.0, -2.0, -0.9321959316730499, -2.0, -1.1048763394355774, -2.0, -0.9320666193962097, -2.0, -2.0, -2.0, 4.503335952758789, -2.0, -1.476631999015808, -2.1681597232818604, -2.0, 1.1111204028129578, -2.0, -2.0, -1.0686389207839966, -2.0, -2.0, 0.6016879379749298, 0.5115026235580444, -2.0, 1.486755609512329, -0.8371343314647675, -0.4880344122648239, -2.0, -2.0, -2.0, -2.0, -0.9050129950046539, -0.5975272953510284, -2.0, -2.0, -2.0, 0.7337096035480499, -0.5628501176834106, -1.19059157371521, -2.0, 0.6087254583835602, 0.6065243780612946, 1.3038281798362732, -2.0, -2.0, -2.0, 0.9487600028514862, 0.6090990602970123, -2.0, -0.6156960427761078, -2.0, -2.0, -1.0397493541240692, -2.0, -2.0, 0.18620623648166656, 1.4059300422668457, -2.0, -2.0, -2.0, -2.0, 0.5418974757194519, 0.1389087438583374, -2.0, -0.6300029456615448, 0.974687397480011, -2.0, 1.7785111665725708, -2.0, -2.0, -2.0, -0.03639566712081432, 1.4938185811042786, -0.6801978051662445, -2.0, -2.0, 0.6070553362369537, -0.023276692256331444, -2.0, 0.5891008079051971, -2.0, -2.0, 0.02728515211492777, -2.0, -2.0, 0.5717806220054626, -0.3866647034883499, -0.4356207996606827, -2.0, -2.0, -2.0, -2.0, -1.353596270084381, 1.1574393510818481, -1.007462590932846, 1.5942617058753967, -2.0, 0.5729360282421112, -1.2355396747589111, -1.2365846633911133, -2.0, -2.0, -2.0, -2.0, -2.0, -2.0, 1.376942217350006, 1.8424301743507385, 1.5055067539215088, 0.753948837518692, 1.5502163171768188, -1.465210735797882, 1.4891358613967896, 1.4866582751274109, -2.0, -2.0, -2.0, -2.0, -0.4855329990386963, 1.7820457816123962, -2.0, -0.9545749127864838, -2.0, -2.0, -0.0765419565141201, -1.0215789079666138, 0.557683140039444, -2.0, 1.1868911981582642, -2.0, 0.5647156834602356, -2.0, 0.7361754775047302, -2.0, -2.0, -2.0, 1.215950608253479, -1.1842731833457947, -2.0, -0.7127717733383179, -2.0, -0.6981628239154816, -2.0, 1.2016627192497253, -2.0, -2.0, 0.15510758757591248, 1.2455675601959229, -2.0, -2.0, -2.0, -0.8075594305992126, -1.2923001646995544, -2.0, 0.6071317195892334, -2.0, -1.5214619636535645, -2.0, -2.0, -0.7641170918941498, -2.0, -0.7419323325157166, 0.873449832201004, -2.0, -2.0, -0.7310223281383514, -2.0, 0.2506893426179886, -2.0, -2.0, 0.33015376329421997, -2.0, 1.514869213104248, 1.505281686782837, -2.0, -2.0, -2.0, -1.8986242413520813, -1.233375072479248, -2.0, 0.6804413497447968, -2.0, 1.8649649620056152, -2.0, -2.0, 0.7262669503688812, -1.8825567364692688, 0.696271538734436, -2.0, -2.0, -2.0, -1.2187187671661377, 1.0475976467132568, -2.0, -2.0, -2.0, 0.6069467663764954, -2.0, -2.0, 0.6183643639087677, -1.1515972018241882, -0.15839146822690964, -2.0, 0.0810641385614872, -2.0, -2.0, 0.6161062121391296, -0.2981022298336029, 1.3487743139266968, 0.37363238632678986, 0.5876428186893463, 0.6149836182594299, 0.6135858595371246, -0.8139671683311462, -0.8556940257549286, -2.0, -2.0, -0.4079154282808304, -2.0, -1.2787140011787415, -2.0, -2.0, -2.0, -2.0, -1.159902036190033, -1.5593846440315247, -2.0, -0.9101584553718567, -2.0, -1.5096728205680847, -2.0, -2.0, -2.0, 1.0059161484241486, 0.9665590524673462, 0.6111565828323364, 0.6110894083976746, -2.0, -2.0, -2.0, 1.2796952724456787, -2.0, -2.0, -2.0, -0.08682501316070557, -1.3310507535934448, -2.0, -0.5303686857223511, -2.0, -2.0, 0.8051857650279999, -2.0, -2.0, -0.5191828310489655, 0.7403288185596466, -0.14957308396697044, -0.305714949965477, -1.0005863308906555, 1.2452905774116516, -2.0, -0.8963843286037445, -1.1128318905830383, -2.0, -2.0, -0.7404124140739441, -2.0, 0.8309104144573212, -1.326550304889679, -2.0, -2.0, -2.0, 0.24958663433790207, -0.4365767538547516, 1.3256231546401978, -2.0, -0.5577125251293182, 0.22500962764024734, -2.0, -1.1189500093460083, -2.0, -2.0, -2.0, 1.4280165433883667, -2.0, -0.5825609862804413, -2.0, -2.0, -2.0, -0.2707592248916626, -2.0, 0.6151326894760132, 0.8996788859367371, -0.8118347227573395, -2.0, -2.0, -2.0, -2.0, -2.0, 0.5575225353240967, 1.143002450466156, -2.0, -2.0, -2.0, 0.3606157898902893, 0.3272813409566879, 0.14972924441099167, -0.19343389570713043, 0.06846508011221886, -0.05175377428531647, 0.23707585781812668, 0.2078629732131958, -2.0, -2.0, 0.613536149263382, -1.370296835899353, -2.0, -2.0, 1.4571453332901, 0.6137017905712128, -2.0, -0.506828173995018, -0.25725045800209045, -2.0, -2.0, -0.3411566913127899, -2.0, 0.6146974265575409, -2.0, -2.0, -2.0, 0.6158283352851868, -0.4354989528656006, -2.0, 0.4202784597873688, -2.0, -2.0, -2.0, -0.5244872570037842, -2.0, -2.0, -0.2952216565608978, -0.04579067975282669, -0.33171236515045166, -2.0, -2.0, -2.0, -2.0, -2.0, -0.19142764806747437, -2.0, -2.0, -0.7566900253295898, -1.063439518213272, -2.0, -2.0, -0.2481810599565506, -2.0, 1.6478387713432312, -1.0165857374668121, -2.0, 1.4917263388633728, -0.08558409661054611, -2.0, -1.3647006154060364, -2.0, 0.06426979787647724, 0.30660147964954376, 0.39255499839782715, -2.0, -2.0, 0.40304434299468994, -2.0, 0.5204878449440002, -2.0, -0.7350108325481415, -2.0, -2.0, -2.0, -2.0, -2.0, -0.7277358770370483, -2.0, -0.4527028352022171, -1.0085760951042175, -2.0, -1.4751210808753967, -2.0, -0.9563583731651306, -2.0, -0.9964024424552917, -1.923594057559967, -2.0, 0.7979148626327515, 0.6165331900119781, -2.0, -1.3876027464866638, 1.8640949726104736, -2.0, -2.0, 0.6172564327716827, -2.0, -0.8816334307193756, 1.6340871453285217, -2.0, -2.0, -2.0, -2.0, -0.08945458754897118, 1.3915252685546875, -0.620547890663147, -0.864833652973175, -0.8974097371101379, 0.22764769941568375, -0.9553440511226654, -2.0, -2.0, -2.0, 1.2818286418914795, -2.0, -2.0, 0.6183247864246368, -2.0, -0.38947591185569763, -2.0, -2.0, -2.0, -2.0, 0.024567329324781895, 0.960509717464447, -2.0, -2.0, 0.6169932782649994, -2.0, -0.6867259442806244, -2.0, -0.12520375102758408, -2.0, -2.0, 0.11201880499720573, -0.038281938061118126, 0.6169012784957886, -0.39077064394950867, 0.3702816888689995, -2.0, -2.0, -0.12973357737064362, -0.9091615974903107, -2.0, -0.7902427315711975, -2.0, 0.10855051130056381, -2.0, -2.0, -0.10222013294696808, -1.365979254245758, -2.0, -2.0, -2.0, 0.041954539716243744, 0.24428774416446686, 0.23712553828954697, -2.0, -2.0, -2.0, 0.04556421563029289, -2.0, -2.0, -0.32686570286750793, -2.0, 0.02801424451172352, 0.6180873513221741, -0.006666302680969238, -2.0, -0.22737231850624084, -2.0, -2.0, -2.0, -2.0, 0.2764498293399811, -0.17211489379405975, -0.8343554139137268, 1.5429553985595703, -2.0, -2.0, -2.0, -0.15741053223609924, 1.1813757419586182, -2.0, -1.402397096157074, -2.0, -2.0, 0.6139370203018188, 0.6016906499862671, 0.41080042719841003, 1.5494092106819153, 0.7265927791595459, 0.7062777280807495, -0.033275531604886055, -2.0, 0.7868236601352692, 0.6240077614784241, 0.5948861539363861, 0.08374477177858353, -2.0, 0.61766317486763, -2.0, 0.36524444818496704, 0.2529965937137604, 0.617716521024704, -2.0, -2.0, -2.0, -2.0, 0.6175141036510468, -2.0, -2.0, -2.0, -2.0, 0.5282878279685974, -2.0, -2.0, -2.0, -2.0, -2.0, -2.0, -1.1987075209617615, -2.0, -2.0, 0.10549221932888031, 0.34105251729488373, -2.0, 0.6177818775177002, 0.6166113913059235, 0.29004862904548645, -2.0, -2.0, -0.004087496432475746, -0.7274628281593323, -2.0, 0.6169812977313995, -2.0, -2.0, -2.0, 0.6179971992969513, -2.0, 0.6181490421295166, -2.0, -2.0, -2.0, -0.0449408832937479, -0.15781155973672867, -2.0, 1.4498428702354431, 0.34106265008449554, -0.15580642968416214, -0.045067962259054184, 0.6367964446544647, 0.932863175868988, 0.6362112164497375, -0.15732339769601822, -2.0, -0.045521778985857964, -2.0, -2.0, -2.0, 0.6292896270751953, -2.0, -2.0, -2.0, -2.0, -1.2318689823150635, -2.0, 0.8278916776180267, -0.8245287239551544, 0.8569230735301971, 1.2598021030426025, -2.0, 0.6188041865825653, -2.0, 1.296340823173523, -2.0, -2.0, -2.0, 0.03319850564002991, 0.13119801878929138, 1.4062018394470215, -0.09004703536629677, -2.0, -0.08424021303653717, -2.0, -0.45239849388599396, -2.0, -0.1494348831474781, -2.0, -2.0, -0.3170181065797806, -2.0, -0.600462406873703, -0.1775197610259056, -2.0, -2.0, -2.0, 0.7884369194507599, -1.3624627590179443, -0.4765598177909851, -0.2640277296304703, -0.27435968816280365, -2.0, -2.0, -2.0, 0.2654319554567337, -2.0, 0.6133251786231995, -2.0, -2.0, -2.0, 0.7920295894145966, -2.0, -2.0, 0.23092800378799438, 0.6194703876972198, -0.1470491737127304, -2.0, 0.049935382790863514, -2.0, -2.0, -2.0, 0.20770514011383057, 0.23469278216362, -2.0, 0.45480990409851074, 0.11089226230978966, -1.3287902474403381, -2.0, -2.0, -2.0, -0.5360972881317139, 0.1946677267551422, -2.0, 0.20830240100622177, -2.0, 0.6134277284145355, -2.0, 0.3502913862466812, -2.0, -2.0, 0.5451112687587738, -2.0, -2.0, -2.0, 1.4206804037094116, -1.0478498339653015, -2.0, -1.42432701587677, 0.907155841588974, -2.0, -2.0, -0.0933281872421503, 0.22214718163013458, -2.0, -2.0, -2.0, -2.0, -0.039582833647727966, 0.618598073720932, -2.0, -2.0, -2.0, -2.0, -1.195206344127655, -0.18239913135766983, 0.6224867403507233, -2.0, -0.2560073733329773, -2.0, 0.17867174744606018, 0.07792428135871887, 0.15144989639520645, -2.0, -2.0, -2.0, -1.290392279624939, -2.0, -2.0, -1.238917589187622, -2.0, 0.6339733600616455, -2.0, 0.08591710031032562, -2.0, -2.0, 0.4999983310699463, 0.15500017255544662, -2.0, 0.20051518082618713, -0.1261204406619072, 0.8854911625385284, 0.6106765866279602, 0.6169010996818542, 0.22621124237775803, 0.22037992626428604, 0.05432657152414322, -0.29798491299152374, -2.0, 0.3716201037168503, -1.1730300784111023, -2.0, -2.0, -2.0, -2.0, -2.0, -2.0, -2.0, 0.6297926306724548, -2.0, 0.6190130710601807, 0.6186588108539581, 0.6683787107467651, -2.0, -0.9314252734184265, -2.0, 0.12475381791591644, -2.0, -2.0, -2.0, 0.9112534821033478, -2.0, -2.0, -2.0, -0.48729006946086884, -2.0, -2.0, 0.6185529828071594, -2.0, 0.021456333342939615, -2.0, -2.0, 0.6756239235401154, -0.3422175198793411, -2.0, 0.31097766757011414, 0.07045454904437065, -2.0, 0.07274570316076279, -2.0, -0.185481458902359, -2.0, 0.14237821102142334, -2.0, -2.0, 0.6188750565052032, -2.0, -2.0, 0.7853450179100037, -2.0, -2.0], "values": [[[5034.0, 3045.0, 361.0]], [[1820.0, 2860.0, 233.0]], [[431.0, 123.0, 99.0]], [[113.0, 22.0, 92.0]], [[68.0, 6.0, 9.0]], [[1.0, 6.0, 0.0]], [[1.0, 0.0, 0.0]], [[0.0, 6.0, 0.0]], [[67.0, 0.0, 9.0]], [[60.0, 0.0, 0.0]], [[7.0, 0.0, 9.0]], [[7.0, 0.0, 2.0]], [[1.0, 0.0, 2.0]], [[1.0, 0.0, 0.0]], [[0.0, 0.0, 2.0]], [[6.0, 0.0, 0.0]], [[0.0, 0.0, 7.0]], [[45.0, 16.0, 83.0]], [[13.0, 15.0, 70.0]], [[11.0, 14.0, 30.0]], [[8.0, 0.0, 22.0]], [[8.0, 0.0, 12.0]], [[3.0, 0.0, 0.0]], [[5.0, 0.0, 12.0]], [[4.0, 0.0, 3.0]], [[2.0, 0.0, 0.0]], [[2.0, 0.0, 3.0]], [[2.0, 0.0, 1.0]], [[0.0, 0.0, 1.0]], [[2.0, 0.0, 0.0]], [[0.0, 0.0, 2.0]], [[1.0, 0.0, 9.0]], [[1.0, 0.0, 1.0]], [[0.0, 0.0, 1.0]], [[1.0, 0.0, 0.0]], [[0.0, 0.0, 8.0]], [[0.0, 0.0, 10.0]], [[3.0, 14.0, 8.0]], [[0.0, 0.0, 7.0]], [[3.0, 14.0, 1.0]], [[0.0, 11.0, 0.0]], [[3.0, 3.0, 1.0]], [[3.0, 0.0, 1.0]], [[0.0, 0.0, 1.0]], [[3.0, 0.0, 0.0]], [[0.0, 3.0, 0.0]], [[2.0, 1.0, 40.0]], [[0.0, 1.0, 37.0]], [[0.0, 1.0, 4.0]], [[0.0, 0.0, 4.0]], [[0.0, 1.0, 0.0]], [[0.0, 0.0, 33.0]], [[2.0, 0.0, 3.0]], [[0.0, 0.0, 3.0]], [[2.0, 0.0, 0.0]], [[32.0, 1.0, 13.0]], [[32.0, 0.0, 10.0]], [[0.0, 0.0, 2.0]], [[32.0, 0.0, 8.0]], [[14.0, 0.0, 7.0]], [[9.0, 0.0, 1.0]], [[1.0, 0.0, 1.0]], [[1.0, 0.0, 0.0]], [[0.0, 0.0, 1.0]], [[8.0, 0.0, 0.0]], [[5.0, 0.0, 6.0]], [[0.0, 0.0, 4.0]], [[5.0, 0.0, 2.0]], [[0.0, 0.0, 2.0]], [[5.0, 0.0, 0.0]], [[18.0, 0.0, 1.0]], [[2.0, 0.0, 1.0]], [[0.0, 0.0, 1.0]], [[2.0, 0.0, 0.0]], [[16.0, 0.0, 0.0]], [[0.0, 1.0, 3.0]], [[0.0, 1.0, 0.0]], [[0.0, 0.0, 3.0]], [[318.0, 101.0, 7.0]], [[279.0, 61.0, 7.0]], [[203.0, 57.0, 4.0]], [[7.0, 14.0, 0.0]], [[0.0, 9.0, 0.0]], [[7.0, 5.0, 0.0]], [[5.0, 0.0, 0.0]], [[2.0, 5.0, 0.0]], [[1.0, 0.0, 0.0]], [[1.0, 5.0, 0.0]], [[0.0, 4.0, 0.0]], [[1.0, 1.0, 0.0]], [[0.0, 1.0, 0.0]], [[1.0, 0.0, 0.0]], [[196.0, 43.0, 4.0]], [[7.0, 0.0, 3.0]], [[6.0, 0.0, 0.0]], [[1.0, 0.0, 3.0]], [[0.0, 0.0, 3.0]], [[1.0, 0.0, 0.0]], [[189.0, 43.0, 1.0]], [[10.0, 6.0, 1.0]], [[10.0, 3.0, 0.0]], [[10.0, 1.0, 0.0]], [[2.0, 1.0, 0.0]], [[2.0, 0.0, 0.0]], [[0.0, 1.0, 0.0]], [[8.0, 0.0, 0.0]], [[0.0, 2.0, 0.0]], [[0.0, 3.0, 1.0]], [[0.0, 0.0, 1.0]], [[0.0, 3.0, 0.0]], [[179.0, 37.0, 0.0]], [[2.0, 4.0, 0.0]], [[2.0, 0.0, 0.0]], [[0.0, 4.0, 0.0]], [[177.0, 33.0, 0.0]], [[158.0, 33.0, 0.0]], [[158.0, 31.0, 0.0]], [[12.0, 0.0, 0.0]], [[146.0, 31.0, 0.0]], [[5.0, 4.0, 0.0]], [[0.0, 3.0, 0.0]], [[5.0, 1.0, 0.0]], [[5.0, 0.0, 0.0]], [[0.0, 1.0, 0.0]], [[141.0, 27.0, 0.0]], [[125.0, 27.0, 0.0]], [[124.0, 24.0, 0.0]], [[119.0, 20.0, 0.0]], [[42.0, 2.0, 0.0]], [[0.0, 1.0, 0.0]], [[42.0, 1.0, 0.0]], [[4.0, 1.0, 0.0]], [[4.0, 0.0, 0.0]], [[0.0, 1.0, 0.0]], [[38.0, 0.0, 0.0]], [[77.0, 18.0, 0.0]], [[0.0, 2.0, 0.0]], [[77.0, 16.0, 0.0]], [[66.0, 16.0, 0.0]], [[62.0, 12.0, 0.0]], [[47.0, 12.0, 0.0]], [[46.0, 9.0, 0.0]], [[9.0, 0.0, 0.0]], [[37.0, 9.0, 0.0]], [[0.0, 1.0, 0.0]], [[37.0, 8.0, 0.0]], [[20.0, 7.0, 0.0]], [[19.0, 4.0, 0.0]], [[0.0, 1.0, 0.0]], [[19.0, 3.0, 0.0]], [[0.0, 1.0, 0.0]], [[19.0, 2.0, 0.0]], [[5.0, 2.0, 0.0]], [[5.0, 0.0, 0.0]], [[0.0, 2.0, 0.0]], [[14.0, 0.0, 0.0]], [[1.0, 3.0, 0.0]], [[1.0, 0.0, 0.0]], [[0.0, 3.0, 0.0]], [[17.0, 1.0, 0.0]], [[15.0, 0.0, 0.0]], [[2.0, 1.0, 0.0]], [[0.0, 1.0, 0.0]], [[2.0, 0.0, 0.0]], [[1.0, 3.0, 0.0]], [[1.0, 1.0, 0.0]], [[1.0, 0.0, 0.0]], [[0.0, 1.0, 0.0]], [[0.0, 2.0, 0.0]], [[15.0, 0.0, 0.0]], [[4.0, 4.0, 0.0]], [[1.0, 4.0, 0.0]], [[1.0, 0.0, 0.0]], [[0.0, 4.0, 0.0]], [[3.0, 0.0, 0.0]], [[11.0, 0.0, 0.0]], [[5.0, 4.0, 0.0]], [[3.0, 0.0, 0.0]], [[2.0, 4.0, 0.0]], [[0.0, 4.0, 0.0]], [[2.0, 0.0, 0.0]], [[1.0, 3.0, 0.0]], [[1.0, 0.0, 0.0]], [[0.0, 3.0, 0.0]], [[16.0, 0.0, 0.0]], [[0.0, 2.0, 0.0]], [[19.0, 0.0, 0.0]], [[76.0, 4.0, 3.0]], [[76.0, 3.0, 2.0]], [[12.0, 3.0, 0.0]], [[10.0, 0.0, 0.0]], [[2.0, 3.0, 0.0]], [[0.0, 3.0, 0.0]], [[2.0, 0.0, 0.0]], [[64.0, 0.0, 2.0]], [[34.0, 0.0, 0.0]], [[30.0, 0.0, 2.0]], [[0.0, 0.0, 1.0]], [[30.0, 0.0, 1.0]], [[25.0, 0.0, 0.0]], [[5.0, 0.0, 1.0]], [[0.0, 0.0, 1.0]], [[5.0, 0.0, 0.0]], [[0.0, 1.0, 1.0]], [[0.0, 0.0, 1.0]], [[0.0, 1.0, 0.0]], [[39.0, 40.0, 0.0]], [[39.0, 33.0, 0.0]], [[0.0, 5.0, 0.0]], [[39.0, 28.0, 0.0]], [[0.0, 4.0, 0.0]], [[39.0, 24.0, 0.0]], [[36.0, 17.0, 0.0]], [[30.0, 17.0, 0.0]], [[21.0, 16.0, 0.0]], [[21.0, 14.0, 0.0]], [[19.0, 9.0, 0.0]], [[13.0, 2.0, 0.0]], [[5.0, 2.0, 0.0]], [[1.0, 2.0, 0.0]], [[0.0, 2.0, 0.0]], [[1.0, 0.0, 0.0]], [[4.0, 0.0, 0.0]], [[8.0, 0.0, 0.0]], [[6.0, 7.0, 0.0]], [[0.0, 3.0, 0.0]], [[6.0, 4.0, 0.0]], [[0.0, 2.0, 0.0]], [[6.0, 2.0, 0.0]], [[3.0, 0.0, 0.0]], [[3.0, 2.0, 0.0]], [[0.0, 2.0, 0.0]], [[3.0, 0.0, 0.0]], [[2.0, 5.0, 0.0]], [[0.0, 2.0, 0.0]], [[2.0, 3.0, 0.0]], [[1.0, 3.0, 0.0]], [[1.0, 0.0, 0.0]], [[0.0, 3.0, 0.0]], [[1.0, 0.0, 0.0]], [[0.0, 2.0, 0.0]], [[9.0, 1.0, 0.0]], [[8.0, 0.0, 0.0]], [[1.0, 1.0, 0.0]], [[1.0, 0.0, 0.0]], [[0.0, 1.0, 0.0]], [[6.0, 0.0, 0.0]], [[3.0, 7.0, 0.0]], [[1.0, 7.0, 0.0]], [[1.0, 1.0, 0.0]], [[1.0, 0.0, 0.0]], [[0.0, 1.0, 0.0]], [[0.0, 6.0, 0.0]], [[2.0, 0.0, 0.0]], [[0.0, 7.0, 0.0]], [[1389.0, 2737.0, 134.0]], [[1127.0, 1545.0, 100.0]], [[807.0, 1401.0, 76.0]], [[800.0, 1140.0, 76.0]], [[207.0, 603.0, 17.0]], [[175.0, 282.0, 17.0]], [[47.0, 18.0, 10.0]], [[34.0, 17.0, 1.0]], [[20.0, 17.0, 1.0]], [[6.0, 0.0, 1.0]], [[1.0, 0.0, 1.0]], [[1.0, 0.0, 0.0]], [[0.0, 0.0, 1.0]], [[5.0, 0.0, 0.0]], [[14.0, 17.0, 0.0]], [[11.0, 17.0, 0.0]], [[11.0, 9.0, 0.0]], [[8.0, 9.0, 0.0]], [[8.0, 3.0, 0.0]], [[1.0, 3.0, 0.0]], [[0.0, 3.0, 0.0]], [[1.0, 0.0, 0.0]], [[7.0, 0.0, 0.0]], [[0.0, 6.0, 0.0]], [[3.0, 0.0, 0.0]], [[0.0, 8.0, 0.0]], [[3.0, 0.0, 0.0]], [[14.0, 0.0, 0.0]], [[13.0, 1.0, 9.0]], [[0.0, 0.0, 4.0]], [[13.0, 1.0, 5.0]], [[5.0, 0.0, 0.0]], [[8.0, 1.0, 5.0]], [[4.0, 1.0, 5.0]], [[4.0, 0.0, 2.0]], [[1.0, 0.0, 2.0]], [[0.0, 0.0, 2.0]], [[1.0, 0.0, 0.0]], [[3.0, 0.0, 0.0]], [[0.0, 1.0, 3.0]], [[0.0, 0.0, 3.0]], [[0.0, 1.0, 0.0]], [[4.0, 0.0, 0.0]], [[128.0, 264.0, 7.0]], [[59.0, 196.0, 4.0]], [[59.0, 196.0, 1.0]], [[47.0, 192.0, 1.0]], [[47.0, 174.0, 0.0]], [[31.0, 153.0, 0.0]], [[0.0, 31.0, 0.0]], [[31.0, 122.0, 0.0]], [[6.0, 60.0, 0.0]], [[0.0, 28.0, 0.0]], [[6.0, 32.0, 0.0]], [[2.0, 0.0, 0.0]], [[4.0, 32.0, 0.0]], [[3.0, 3.0, 0.0]], [[3.0, 0.0, 0.0]], [[0.0, 3.0, 0.0]], [[1.0, 29.0, 0.0]], [[1.0, 4.0, 0.0]], [[0.0, 4.0, 0.0]], [[1.0, 0.0, 0.0]], [[0.0, 25.0, 0.0]], [[25.0, 62.0, 0.0]], [[21.0, 62.0, 0.0]], [[20.0, 41.0, 0.0]], [[16.0, 40.0, 0.0]], [[2.0, 21.0, 0.0]], [[1.0, 21.0, 0.0]], [[1.0, 1.0, 0.0]], [[1.0, 0.0, 0.0]], [[0.0, 1.0, 0.0]], [[0.0, 20.0, 0.0]], [[1.0, 0.0, 0.0]], [[14.0, 19.0, 0.0]], [[0.0, 4.0, 0.0]], [[14.0, 15.0, 0.0]], [[9.0, 14.0, 0.0]], [[9.0, 9.0, 0.0]], [[9.0, 6.0, 0.0]], [[8.0, 2.0, 0.0]], [[2.0, 2.0, 0.0]], [[2.0, 0.0, 0.0]], [[0.0, 2.0, 0.0]], [[6.0, 0.0, 0.0]], [[1.0, 4.0, 0.0]], [[0.0, 4.0, 0.0]], [[1.0, 0.0, 0.0]], [[0.0, 3.0, 0.0]], [[0.0, 5.0, 0.0]], [[5.0, 1.0, 0.0]], [[5.0, 0.0, 0.0]], [[0.0, 1.0, 0.0]], [[4.0, 1.0, 0.0]], [[4.0, 0.0, 0.0]], [[0.0, 1.0, 0.0]], [[1.0, 21.0, 0.0]], [[1.0, 0.0, 0.0]], [[0.0, 21.0, 0.0]], [[4.0, 0.0, 0.0]], [[16.0, 21.0, 0.0]], [[12.0, 21.0, 0.0]], [[2.0, 0.0, 0.0]], [[10.0, 21.0, 0.0]], [[10.0, 17.0, 0.0]], [[0.0, 3.0, 0.0]], [[10.0, 14.0, 0.0]], [[4.0, 0.0, 0.0]], [[6.0, 14.0, 0.0]], [[6.0, 7.0, 0.0]], [[4.0, 7.0, 0.0]], [[0.0, 4.0, 0.0]], [[4.0, 3.0, 0.0]], [[3.0, 0.0, 0.0]], [[1.0, 3.0, 0.0]], [[1.0, 0.0, 0.0]], [[0.0, 3.0, 0.0]], [[2.0, 0.0, 0.0]], [[0.0, 7.0, 0.0]], [[0.0, 4.0, 0.0]], [[4.0, 0.0, 0.0]], [[0.0, 18.0, 1.0]], [[0.0, 17.0, 0.0]], [[0.0, 1.0, 1.0]], [[0.0, 1.0, 0.0]], [[0.0, 0.0, 1.0]], [[12.0, 4.0, 0.0]], [[3.0, 4.0, 0.0]], [[0.0, 4.0, 0.0]], [[3.0, 0.0, 0.0]], [[9.0, 0.0, 0.0]], [[0.0, 0.0, 3.0]], [[69.0, 68.0, 3.0]], [[62.0, 68.0, 3.0]], [[60.0, 51.0, 3.0]], [[51.0, 30.0, 3.0]], [[37.0, 27.0, 0.0]], [[13.0, 1.0, 0.0]], [[12.0, 0.0, 0.0]], [[1.0, 1.0, 0.0]], [[0.0, 1.0, 0.0]], [[1.0, 0.0, 0.0]], [[24.0, 26.0, 0.0]], [[18.0, 26.0, 0.0]], [[0.0, 5.0, 0.0]], [[18.0, 21.0, 0.0]], [[4.0, 0.0, 0.0]], [[14.0, 21.0, 0.0]], [[2.0, 0.0, 0.0]], [[12.0, 21.0, 0.0]], [[12.0, 17.0, 0.0]], [[2.0, 0.0, 0.0]], [[10.0, 17.0, 0.0]], [[8.0, 17.0, 0.0]], [[7.0, 7.0, 0.0]], [[0.0, 3.0, 0.0]], [[7.0, 4.0, 0.0]], [[4.0, 0.0, 0.0]], [[3.0, 4.0, 0.0]], [[3.0, 0.0, 0.0]], [[0.0, 4.0, 0.0]], [[1.0, 10.0, 0.0]], [[1.0, 0.0, 0.0]], [[0.0, 10.0, 0.0]], [[2.0, 0.0, 0.0]], [[0.0, 4.0, 0.0]], [[6.0, 0.0, 0.0]], [[14.0, 3.0, 3.0]], [[1.0, 1.0, 3.0]], [[0.0, 0.0, 3.0]], [[1.0, 1.0, 0.0]], [[0.0, 1.0, 0.0]], [[1.0, 0.0, 0.0]], [[13.0, 2.0, 0.0]], [[7.0, 2.0, 0.0]], [[0.0, 1.0, 0.0]], [[7.0, 1.0, 0.0]], [[7.0, 0.0, 0.0]], [[0.0, 1.0, 0.0]], [[6.0, 0.0, 0.0]], [[9.0, 21.0, 0.0]], [[6.0, 21.0, 0.0]], [[6.0, 7.0, 0.0]], [[2.0, 7.0, 0.0]], [[1.0, 7.0, 0.0]], [[1.0, 1.0, 0.0]], [[1.0, 0.0, 0.0]], [[0.0, 1.0, 0.0]], [[0.0, 6.0, 0.0]], [[1.0, 0.0, 0.0]], [[4.0, 0.0, 0.0]], [[0.0, 14.0, 0.0]], [[3.0, 0.0, 0.0]], [[2.0, 17.0, 0.0]], [[1.0, 0.0, 0.0]], [[1.0, 17.0, 0.0]], [[0.0, 17.0, 0.0]], [[1.0, 0.0, 0.0]], [[7.0, 0.0, 0.0]], [[32.0, 321.0, 0.0]], [[7.0, 266.0, 0.0]], [[7.0, 95.0, 0.0]], [[2.0, 85.0, 0.0]], [[2.0, 16.0, 0.0]], [[1.0, 16.0, 0.0]], [[0.0, 12.0, 0.0]], [[1.0, 4.0, 0.0]], [[0.0, 4.0, 0.0]], [[1.0, 0.0, 0.0]], [[1.0, 0.0, 0.0]], [[0.0, 69.0, 0.0]], [[5.0, 10.0, 0.0]], [[0.0, 5.0, 0.0]], [[5.0, 5.0, 0.0]], [[2.0, 5.0, 0.0]], [[2.0, 1.0, 0.0]], [[2.0, 0.0, 0.0]], [[0.0, 1.0, 0.0]], [[0.0, 4.0, 0.0]], [[3.0, 0.0, 0.0]], [[0.0, 171.0, 0.0]], [[25.0, 55.0, 0.0]], [[23.0, 17.0, 0.0]], [[3.0, 12.0, 0.0]], [[3.0, 2.0, 0.0]], [[3.0, 0.0, 0.0]], [[0.0, 2.0, 0.0]], [[0.0, 10.0, 0.0]], [[20.0, 5.0, 0.0]], [[12.0, 0.0, 0.0]], [[8.0, 5.0, 0.0]], [[0.0, 4.0, 0.0]], [[8.0, 1.0, 0.0]], [[0.0, 1.0, 0.0]], [[8.0, 0.0, 0.0]], [[2.0, 38.0, 0.0]], [[2.0, 5.0, 0.0]], [[1.0, 5.0, 0.0]], [[0.0, 5.0, 0.0]], [[1.0, 0.0, 0.0]], [[1.0, 0.0, 0.0]], [[0.0, 33.0, 0.0]], [[593.0, 537.0, 59.0]], [[358.0, 90.0, 20.0]], [[289.0, 41.0, 20.0]], [[284.0, 38.0, 12.0]], [[93.0, 21.0, 0.0]], [[85.0, 14.0, 0.0]], [[47.0, 2.0, 0.0]], [[39.0, 0.0, 0.0]], [[8.0, 2.0, 0.0]], [[6.0, 0.0, 0.0]], [[2.0, 2.0, 0.0]], [[0.0, 2.0, 0.0]], [[2.0, 0.0, 0.0]], [[38.0, 12.0, 0.0]], [[7.0, 0.0, 0.0]], [[31.0, 12.0, 0.0]], [[26.0, 7.0, 0.0]], [[4.0, 4.0, 0.0]], [[4.0, 1.0, 0.0]], [[4.0, 0.0, 0.0]], [[0.0, 1.0, 0.0]], [[0.0, 3.0, 0.0]], [[22.0, 3.0, 0.0]], [[9.0, 3.0, 0.0]], [[9.0, 1.0, 0.0]], [[1.0, 1.0, 0.0]], [[0.0, 1.0, 0.0]], [[1.0, 0.0, 0.0]], [[8.0, 0.0, 0.0]], [[0.0, 2.0, 0.0]], [[13.0, 0.0, 0.0]], [[5.0, 5.0, 0.0]], [[0.0, 4.0, 0.0]], [[5.0, 1.0, 0.0]], [[5.0, 0.0, 0.0]], [[0.0, 1.0, 0.0]], [[8.0, 7.0, 0.0]], [[1.0, 4.0, 0.0]], [[0.0, 4.0, 0.0]], [[1.0, 0.0, 0.0]], [[7.0, 3.0, 0.0]], [[6.0, 0.0, 0.0]], [[1.0, 3.0, 0.0]], [[1.0, 0.0, 0.0]], [[0.0, 3.0, 0.0]], [[191.0, 17.0, 12.0]], [[93.0, 14.0, 3.0]], [[67.0, 6.0, 0.0]], [[66.0, 3.0, 0.0]], [[50.0, 0.0, 0.0]], [[16.0, 3.0, 0.0]], [[9.0, 0.0, 0.0]], [[7.0, 3.0, 0.0]], [[7.0, 1.0, 0.0]], [[0.0, 1.0, 0.0]], [[7.0, 0.0, 0.0]], [[0.0, 2.0, 0.0]], [[1.0, 3.0, 0.0]], [[1.0, 0.0, 0.0]], [[0.0, 3.0, 0.0]], [[26.0, 8.0, 3.0]], [[11.0, 0.0, 1.0]], [[11.0, 0.0, 0.0]], [[0.0, 0.0, 1.0]], [[15.0, 8.0, 2.0]], [[8.0, 8.0, 1.0]], [[4.0, 7.0, 0.0]], [[4.0, 3.0, 0.0]], [[4.0, 1.0, 0.0]], [[4.0, 0.0, 0.0]], [[0.0, 1.0, 0.0]], [[0.0, 2.0, 0.0]], [[0.0, 4.0, 0.0]], [[4.0, 1.0, 1.0]], [[3.0, 0.0, 0.0]], [[1.0, 1.0, 1.0]], [[0.0, 1.0, 0.0]], [[1.0, 0.0, 1.0]], [[0.0, 0.0, 1.0]], [[1.0, 0.0, 0.0]], [[7.0, 0.0, 1.0]], [[6.0, 0.0, 0.0]], [[1.0, 0.0, 1.0]], [[0.0, 0.0, 1.0]], [[1.0, 0.0, 0.0]], [[98.0, 3.0, 9.0]], [[44.0, 3.0, 1.0]], [[25.0, 0.0, 0.0]], [[19.0, 3.0, 1.0]], [[5.0, 3.0, 0.0]], [[5.0, 1.0, 0.0]], [[5.0, 0.0, 0.0]], [[0.0, 1.0, 0.0]], [[0.0, 2.0, 0.0]], [[14.0, 0.0, 1.0]], [[3.0, 0.0, 1.0]], [[3.0, 0.0, 0.0]], [[0.0, 0.0, 1.0]], [[11.0, 0.0, 0.0]], [[54.0, 0.0, 8.0]], [[41.0, 0.0, 3.0]], [[11.0, 0.0, 3.0]], [[0.0, 0.0, 2.0]], [[11.0, 0.0, 1.0]], [[0.0, 0.0, 1.0]], [[11.0, 0.0, 0.0]], [[30.0, 0.0, 0.0]], [[13.0, 0.0, 5.0]], [[8.0, 0.0, 0.0]], [[5.0, 0.0, 5.0]], [[5.0, 0.0, 1.0]], [[5.0, 0.0, 0.0]], [[0.0, 0.0, 1.0]], [[0.0, 0.0, 4.0]], [[5.0, 3.0, 8.0]], [[4.0, 3.0, 0.0]], [[3.0, 0.0, 0.0]], [[1.0, 3.0, 0.0]], [[0.0, 3.0, 0.0]], [[1.0, 0.0, 0.0]], [[1.0, 0.0, 8.0]], [[1.0, 0.0, 0.0]], [[0.0, 0.0, 8.0]], [[69.0, 49.0, 0.0]], [[5.0, 18.0, 0.0]], [[3.0, 18.0, 0.0]], [[1.0, 0.0, 0.0]], [[2.0, 18.0, 0.0]], [[2.0, 5.0, 0.0]], [[0.0, 5.0, 0.0]], [[2.0, 0.0, 0.0]], [[0.0, 13.0, 0.0]], [[2.0, 0.0, 0.0]], [[64.0, 31.0, 0.0]], [[0.0, 4.0, 0.0]], [[64.0, 27.0, 0.0]], [[23.0, 2.0, 0.0]], [[23.0, 1.0, 0.0]], [[7.0, 1.0, 0.0]], [[7.0, 0.0, 0.0]], [[0.0, 1.0, 0.0]], [[16.0, 0.0, 0.0]], [[0.0, 1.0, 0.0]], [[41.0, 25.0, 0.0]], [[2.0, 7.0, 0.0]], [[0.0, 6.0, 0.0]], [[2.0, 1.0, 0.0]], [[0.0, 1.0, 0.0]], [[2.0, 0.0, 0.0]], [[39.0, 18.0, 0.0]], [[2.0, 6.0, 0.0]], [[2.0, 2.0, 0.0]], [[0.0, 2.0, 0.0]], [[2.0, 0.0, 0.0]], [[0.0, 4.0, 0.0]], [[37.0, 12.0, 0.0]], [[37.0, 10.0, 0.0]], [[23.0, 2.0, 0.0]], [[13.0, 0.0, 0.0]], [[10.0, 2.0, 0.0]], [[1.0, 2.0, 0.0]], [[0.0, 2.0, 0.0]], [[1.0, 0.0, 0.0]], [[9.0, 0.0, 0.0]], [[14.0, 8.0, 0.0]], [[1.0, 6.0, 0.0]], [[1.0, 0.0, 0.0]], [[0.0, 6.0, 0.0]], [[13.0, 2.0, 0.0]], [[11.0, 0.0, 0.0]], [[2.0, 2.0, 0.0]], [[2.0, 0.0, 0.0]], [[0.0, 2.0, 0.0]], [[0.0, 2.0, 0.0]], [[235.0, 447.0, 39.0]], [[226.0, 427.0, 20.0]], [[191.0, 261.0, 8.0]], [[183.0, 261.0, 4.0]], [[173.0, 261.0, 4.0]], [[85.0, 170.0, 0.0]], [[82.0, 122.0, 0.0]], [[42.0, 92.0, 0.0]], [[42.0, 79.0, 0.0]], [[38.0, 79.0, 0.0]], [[38.0, 72.0, 0.0]], [[23.0, 60.0, 0.0]], [[17.0, 22.0, 0.0]], [[13.0, 22.0, 0.0]], [[0.0, 6.0, 0.0]], [[13.0, 16.0, 0.0]], [[4.0, 0.0, 0.0]], [[9.0, 16.0, 0.0]], [[7.0, 16.0, 0.0]], [[7.0, 9.0, 0.0]], [[4.0, 0.0, 0.0]], [[3.0, 9.0, 0.0]], [[3.0, 2.0, 0.0]], [[3.0, 0.0, 0.0]], [[0.0, 2.0, 0.0]], [[0.0, 7.0, 0.0]], [[0.0, 7.0, 0.0]], [[2.0, 0.0, 0.0]], [[4.0, 0.0, 0.0]], [[6.0, 38.0, 0.0]], [[6.0, 22.0, 0.0]], [[4.0, 22.0, 0.0]], [[0.0, 14.0, 0.0]], [[4.0, 8.0, 0.0]], [[4.0, 3.0, 0.0]], [[0.0, 3.0, 0.0]], [[4.0, 0.0, 0.0]], [[0.0, 5.0, 0.0]], [[2.0, 0.0, 0.0]], [[0.0, 16.0, 0.0]], [[15.0, 12.0, 0.0]], [[7.0, 0.0, 0.0]], [[8.0, 12.0, 0.0]], [[8.0, 8.0, 0.0]], [[4.0, 0.0, 0.0]], [[4.0, 8.0, 0.0]], [[4.0, 5.0, 0.0]], [[1.0, 5.0, 0.0]], [[1.0, 0.0, 0.0]], [[0.0, 5.0, 0.0]], [[3.0, 0.0, 0.0]], [[0.0, 3.0, 0.0]], [[0.0, 4.0, 0.0]], [[0.0, 7.0, 0.0]], [[4.0, 0.0, 0.0]], [[0.0, 13.0, 0.0]], [[40.0, 30.0, 0.0]], [[26.0, 11.0, 0.0]], [[10.0, 0.0, 0.0]], [[16.0, 11.0, 0.0]], [[7.0, 0.0, 0.0]], [[9.0, 11.0, 0.0]], [[3.0, 10.0, 0.0]], [[1.0, 10.0, 0.0]], [[0.0, 8.0, 0.0]], [[1.0, 2.0, 0.0]], [[0.0, 2.0, 0.0]], [[1.0, 0.0, 0.0]], [[2.0, 0.0, 0.0]], [[6.0, 1.0, 0.0]], [[0.0, 1.0, 0.0]], [[6.0, 0.0, 0.0]], [[14.0, 19.0, 0.0]], [[1.0, 13.0, 0.0]], [[1.0, 3.0, 0.0]], [[0.0, 3.0, 0.0]], [[1.0, 0.0, 0.0]], [[0.0, 10.0, 0.0]], [[13.0, 6.0, 0.0]], [[6.0, 6.0, 0.0]], [[0.0, 4.0, 0.0]], [[6.0, 2.0, 0.0]], [[1.0, 2.0, 0.0]], [[1.0, 0.0, 0.0]], [[0.0, 2.0, 0.0]], [[5.0, 0.0, 0.0]], [[7.0, 0.0, 0.0]], [[3.0, 48.0, 0.0]], [[3.0, 33.0, 0.0]], [[1.0, 31.0, 0.0]], [[1.0, 5.0, 0.0]], [[0.0, 5.0, 0.0]], [[1.0, 0.0, 0.0]], [[0.0, 26.0, 0.0]], [[2.0, 2.0, 0.0]], [[2.0, 0.0, 0.0]], [[0.0, 2.0, 0.0]], [[0.0, 15.0, 0.0]], [[88.0, 91.0, 4.0]], [[1.0, 0.0, 3.0]], [[0.0, 0.0, 3.0]], [[1.0, 0.0, 0.0]], [[87.0, 91.0, 1.0]], [[4.0, 0.0, 1.0]], [[0.0, 0.0, 1.0]], [[4.0, 0.0, 0.0]], [[83.0, 91.0, 0.0]], [[78.0, 91.0, 0.0]], [[78.0, 86.0, 0.0]], [[20.0, 6.0, 0.0]], [[9.0, 6.0, 0.0]], [[1.0, 5.0, 0.0]], [[1.0, 1.0, 0.0]], [[0.0, 1.0, 0.0]], [[1.0, 0.0, 0.0]], [[0.0, 4.0, 0.0]], [[8.0, 1.0, 0.0]], [[0.0, 1.0, 0.0]], [[8.0, 0.0, 0.0]], [[11.0, 0.0, 0.0]], [[58.0, 80.0, 0.0]], [[27.0, 58.0, 0.0]], [[23.0, 58.0, 0.0]], [[23.0, 45.0, 0.0]], [[20.0, 45.0, 0.0]], [[20.0, 38.0, 0.0]], [[15.0, 37.0, 0.0]], [[0.0, 5.0, 0.0]], [[15.0, 32.0, 0.0]], [[8.0, 27.0, 0.0]], [[1.0, 0.0, 0.0]], [[7.0, 27.0, 0.0]], [[1.0, 0.0, 0.0]], [[6.0, 27.0, 0.0]], [[6.0, 16.0, 0.0]], [[4.0, 4.0, 0.0]], [[0.0, 2.0, 0.0]], [[4.0, 2.0, 0.0]], [[3.0, 0.0, 0.0]], [[1.0, 2.0, 0.0]], [[1.0, 0.0, 0.0]], [[0.0, 2.0, 0.0]], [[2.0, 12.0, 0.0]], [[2.0, 3.0, 0.0]], [[2.0, 1.0, 0.0]], [[2.0, 0.0, 0.0]], [[0.0, 1.0, 0.0]], [[0.0, 2.0, 0.0]], [[0.0, 9.0, 0.0]], [[0.0, 11.0, 0.0]], [[7.0, 5.0, 0.0]], [[0.0, 2.0, 0.0]], [[7.0, 3.0, 0.0]], [[7.0, 2.0, 0.0]], [[7.0, 1.0, 0.0]], [[1.0, 1.0, 0.0]], [[0.0, 1.0, 0.0]], [[1.0, 0.0, 0.0]], [[6.0, 0.0, 0.0]], [[0.0, 1.0, 0.0]], [[0.0, 1.0, 0.0]], [[5.0, 1.0, 0.0]], [[0.0, 1.0, 0.0]], [[5.0, 0.0, 0.0]], [[0.0, 7.0, 0.0]], [[3.0, 0.0, 0.0]], [[0.0, 13.0, 0.0]], [[4.0, 0.0, 0.0]], [[31.0, 22.0, 0.0]], [[31.0, 19.0, 0.0]], [[0.0, 2.0, 0.0]], [[31.0, 17.0, 0.0]], [[8.0, 0.0, 0.0]], [[23.0, 17.0, 0.0]], [[6.0, 0.0, 0.0]], [[17.0, 17.0, 0.0]], [[4.0, 0.0, 0.0]], [[13.0, 17.0, 0.0]], [[13.0, 14.0, 0.0]], [[0.0, 3.0, 0.0]], [[13.0, 11.0, 0.0]], [[9.0, 11.0, 0.0]], [[8.0, 4.0, 0.0]], [[5.0, 0.0, 0.0]], [[3.0, 4.0, 0.0]], [[2.0, 0.0, 0.0]], [[1.0, 4.0, 0.0]], [[1.0, 1.0, 0.0]], [[1.0, 0.0, 0.0]], [[0.0, 1.0, 0.0]], [[0.0, 3.0, 0.0]], [[1.0, 7.0, 0.0]], [[0.0, 7.0, 0.0]], [[1.0, 0.0, 0.0]], [[4.0, 0.0, 0.0]], [[0.0, 3.0, 0.0]], [[0.0, 3.0, 0.0]], [[0.0, 5.0, 0.0]], [[5.0, 0.0, 0.0]], [[10.0, 0.0, 0.0]], [[8.0, 0.0, 4.0]], [[0.0, 0.0, 2.0]], [[8.0, 0.0, 2.0]], [[7.0, 0.0, 0.0]], [[1.0, 0.0, 2.0]], [[0.0, 0.0, 2.0]], [[1.0, 0.0, 0.0]], [[35.0, 166.0, 12.0]], [[11.0, 126.0, 12.0]], [[2.0, 10.0, 11.0]], [[2.0, 10.0, 3.0]], [[2.0, 3.0, 3.0]], [[0.0, 3.0, 0.0]], [[2.0, 0.0, 3.0]], [[2.0, 0.0, 1.0]], [[0.0, 0.0, 1.0]], [[2.0, 0.0, 0.0]], [[0.0, 0.0, 2.0]], [[0.0, 7.0, 0.0]], [[0.0, 0.0, 8.0]], [[9.0, 116.0, 1.0]], [[7.0, 116.0, 0.0]], [[7.0, 65.0, 0.0]], [[1.0, 0.0, 0.0]], [[6.0, 65.0, 0.0]], [[1.0, 38.0, 0.0]], [[0.0, 35.0, 0.0]], [[1.0, 3.0, 0.0]], [[0.0, 3.0, 0.0]], [[1.0, 0.0, 0.0]], [[5.0, 27.0, 0.0]], [[3.0, 27.0, 0.0]], [[3.0, 11.0, 0.0]], [[3.0, 1.0, 0.0]], [[0.0, 1.0, 0.0]], [[3.0, 0.0, 0.0]], [[0.0, 10.0, 0.0]], [[0.0, 16.0, 0.0]], [[2.0, 0.0, 0.0]], [[0.0, 51.0, 0.0]], [[2.0, 0.0, 1.0]], [[2.0, 0.0, 0.0]], [[0.0, 0.0, 1.0]], [[24.0, 40.0, 0.0]], [[2.0, 29.0, 0.0]], [[1.0, 0.0, 0.0]], [[1.0, 29.0, 0.0]], [[0.0, 26.0, 0.0]], [[1.0, 3.0, 0.0]], [[1.0, 0.0, 0.0]], [[0.0, 3.0, 0.0]], [[22.0, 11.0, 0.0]], [[11.0, 0.0, 0.0]], [[11.0, 11.0, 0.0]], [[0.0, 3.0, 0.0]], [[11.0, 8.0, 0.0]], [[11.0, 6.0, 0.0]], [[8.0, 1.0, 0.0]], [[7.0, 0.0, 0.0]], [[1.0, 1.0, 0.0]], [[0.0, 1.0, 0.0]], [[1.0, 0.0, 0.0]], [[3.0, 5.0, 0.0]], [[3.0, 1.0, 0.0]], [[3.0, 0.0, 0.0]], [[0.0, 1.0, 0.0]], [[0.0, 4.0, 0.0]], [[0.0, 2.0, 0.0]], [[9.0, 20.0, 19.0]], [[7.0, 3.0, 18.0]], [[4.0, 0.0, 0.0]], [[3.0, 3.0, 18.0]], [[3.0, 0.0, 11.0]], [[3.0, 0.0, 2.0]], [[0.0, 0.0, 2.0]], [[3.0, 0.0, 0.0]], [[0.0, 0.0, 9.0]], [[0.0, 3.0, 7.0]], [[0.0, 3.0, 2.0]], [[0.0, 2.0, 0.0]], [[0.0, 1.0, 2.0]], [[0.0, 1.0, 0.0]], [[0.0, 0.0, 2.0]], [[0.0, 0.0, 5.0]], [[2.0, 17.0, 1.0]], [[1.0, 17.0, 0.0]], [[0.0, 17.0, 0.0]], [[1.0, 0.0, 0.0]], [[1.0, 0.0, 1.0]], [[1.0, 0.0, 0.0]], [[0.0, 0.0, 1.0]], [[7.0, 261.0, 0.0]], [[0.0, 228.0, 0.0]], [[7.0, 33.0, 0.0]], [[2.0, 28.0, 0.0]], [[2.0, 2.0, 0.0]], [[0.0, 2.0, 0.0]], [[2.0, 0.0, 0.0]], [[0.0, 26.0, 0.0]], [[5.0, 5.0, 0.0]], [[5.0, 2.0, 0.0]], [[0.0, 2.0, 0.0]], [[5.0, 0.0, 0.0]], [[0.0, 3.0, 0.0]], [[320.0, 144.0, 24.0]], [[0.0, 25.0, 0.0]], [[320.0, 119.0, 24.0]], [[159.0, 93.0, 6.0]], [[5.0, 21.0, 5.0]], [[1.0, 0.0, 5.0]], [[1.0, 0.0, 0.0]], [[0.0, 0.0, 5.0]], [[4.0, 21.0, 0.0]], [[4.0, 2.0, 0.0]], [[3.0, 0.0, 0.0]], [[1.0, 2.0, 0.0]], [[0.0, 2.0, 0.0]], [[1.0, 0.0, 0.0]], [[0.0, 19.0, 0.0]], [[154.0, 72.0, 1.0]], [[57.0, 48.0, 1.0]], [[22.0, 34.0, 1.0]], [[0.0, 6.0, 1.0]], [[0.0, 1.0, 1.0]], [[0.0, 0.0, 1.0]], [[0.0, 1.0, 0.0]], [[0.0, 5.0, 0.0]], [[22.0, 28.0, 0.0]], [[14.0, 26.0, 0.0]], [[14.0, 21.0, 0.0]], [[10.0, 21.0, 0.0]], [[10.0, 16.0, 0.0]], [[7.0, 2.0, 0.0]], [[5.0, 0.0, 0.0]], [[2.0, 2.0, 0.0]], [[0.0, 2.0, 0.0]], [[2.0, 0.0, 0.0]], [[3.0, 14.0, 0.0]], [[1.0, 0.0, 0.0]], [[2.0, 14.0, 0.0]], [[2.0, 2.0, 0.0]], [[0.0, 2.0, 0.0]], [[2.0, 0.0, 0.0]], [[0.0, 12.0, 0.0]], [[0.0, 5.0, 0.0]], [[4.0, 0.0, 0.0]], [[0.0, 5.0, 0.0]], [[8.0, 2.0, 0.0]], [[7.0, 0.0, 0.0]], [[1.0, 2.0, 0.0]], [[1.0, 0.0, 0.0]], [[0.0, 2.0, 0.0]], [[35.0, 14.0, 0.0]], [[26.0, 14.0, 0.0]], [[7.0, 0.0, 0.0]], [[19.0, 14.0, 0.0]], [[0.0, 4.0, 0.0]], [[19.0, 10.0, 0.0]], [[13.0, 10.0, 0.0]], [[13.0, 5.0, 0.0]], [[7.0, 0.0, 0.0]], [[6.0, 5.0, 0.0]], [[0.0, 3.0, 0.0]], [[6.0, 2.0, 0.0]], [[1.0, 2.0, 0.0]], [[1.0, 0.0, 0.0]], [[0.0, 2.0, 0.0]], [[5.0, 0.0, 0.0]], [[0.0, 5.0, 0.0]], [[6.0, 0.0, 0.0]], [[9.0, 0.0, 0.0]], [[97.0, 24.0, 0.0]], [[41.0, 2.0, 0.0]], [[1.0, 2.0, 0.0]], [[1.0, 0.0, 0.0]], [[0.0, 2.0, 0.0]], [[40.0, 0.0, 0.0]], [[56.0, 22.0, 0.0]], [[55.0, 18.0, 0.0]], [[42.0, 8.0, 0.0]], [[15.0, 7.0, 0.0]], [[10.0, 7.0, 0.0]], [[4.0, 0.0, 0.0]], [[6.0, 7.0, 0.0]], [[6.0, 2.0, 0.0]], [[5.0, 0.0, 0.0]], [[1.0, 2.0, 0.0]], [[0.0, 2.0, 0.0]], [[1.0, 0.0, 0.0]], [[0.0, 5.0, 0.0]], [[5.0, 0.0, 0.0]], [[27.0, 1.0, 0.0]], [[23.0, 0.0, 0.0]], [[4.0, 1.0, 0.0]], [[0.0, 1.0, 0.0]], [[4.0, 0.0, 0.0]], [[13.0, 10.0, 0.0]], [[0.0, 4.0, 0.0]], [[13.0, 6.0, 0.0]], [[0.0, 2.0, 0.0]], [[13.0, 4.0, 0.0]], [[0.0, 1.0, 0.0]], [[13.0, 3.0, 0.0]], [[9.0, 0.0, 0.0]], [[4.0, 3.0, 0.0]], [[3.0, 0.0, 0.0]], [[1.0, 3.0, 0.0]], [[1.0, 0.0, 0.0]], [[0.0, 3.0, 0.0]], [[1.0, 4.0, 0.0]], [[1.0, 0.0, 0.0]], [[0.0, 4.0, 0.0]], [[161.0, 26.0, 18.0]], [[17.0, 13.0, 0.0]], [[17.0, 6.0, 0.0]], [[6.0, 6.0, 0.0]], [[4.0, 0.0, 0.0]], [[2.0, 6.0, 0.0]], [[2.0, 2.0, 0.0]], [[0.0, 2.0, 0.0]], [[2.0, 0.0, 0.0]], [[0.0, 4.0, 0.0]], [[11.0, 0.0, 0.0]], [[0.0, 7.0, 0.0]], [[144.0, 13.0, 18.0]], [[11.0, 1.0, 11.0]], [[11.0, 1.0, 6.0]], [[10.0, 0.0, 1.0]], [[2.0, 0.0, 1.0]], [[0.0, 0.0, 1.0]], [[2.0, 0.0, 0.0]], [[8.0, 0.0, 0.0]], [[1.0, 1.0, 5.0]], [[1.0, 0.0, 5.0]], [[1.0, 0.0, 0.0]], [[0.0, 0.0, 5.0]], [[0.0, 1.0, 0.0]], [[0.0, 0.0, 5.0]], [[133.0, 12.0, 7.0]], [[23.0, 9.0, 2.0]], [[13.0, 9.0, 0.0]], [[5.0, 0.0, 0.0]], [[8.0, 9.0, 0.0]], [[3.0, 0.0, 0.0]], [[5.0, 9.0, 0.0]], [[3.0, 9.0, 0.0]], [[0.0, 7.0, 0.0]], [[3.0, 2.0, 0.0]], [[3.0, 0.0, 0.0]], [[0.0, 2.0, 0.0]], [[2.0, 0.0, 0.0]], [[10.0, 0.0, 2.0]], [[0.0, 0.0, 2.0]], [[10.0, 0.0, 0.0]], [[110.0, 3.0, 5.0]], [[110.0, 1.0, 5.0]], [[59.0, 1.0, 0.0]], [[4.0, 1.0, 0.0]], [[0.0, 1.0, 0.0]], [[4.0, 0.0, 0.0]], [[55.0, 0.0, 0.0]], [[51.0, 0.0, 5.0]], [[50.0, 0.0, 3.0]], [[47.0, 0.0, 1.0]], [[40.0, 0.0, 0.0]], [[7.0, 0.0, 1.0]], [[7.0, 0.0, 0.0]], [[0.0, 0.0, 1.0]], [[3.0, 0.0, 2.0]], [[3.0, 0.0, 0.0]], [[0.0, 0.0, 2.0]], [[1.0, 0.0, 2.0]], [[0.0, 0.0, 2.0]], [[1.0, 0.0, 0.0]], [[0.0, 2.0, 0.0]], [[262.0, 1192.0, 34.0]], [[186.0, 1087.0, 9.0]], [[166.0, 1057.0, 0.0]], [[136.0, 1041.0, 0.0]], [[1.0, 180.0, 0.0]], [[0.0, 174.0, 0.0]], [[1.0, 6.0, 0.0]], [[1.0, 0.0, 0.0]], [[0.0, 6.0, 0.0]], [[135.0, 861.0, 0.0]], [[130.0, 633.0, 0.0]], [[117.0, 416.0, 0.0]], [[103.0, 414.0, 0.0]], [[20.0, 13.0, 0.0]], [[0.0, 8.0, 0.0]], [[20.0, 5.0, 0.0]], [[15.0, 0.0, 0.0]], [[5.0, 5.0, 0.0]], [[1.0, 4.0, 0.0]], [[0.0, 3.0, 0.0]], [[1.0, 1.0, 0.0]], [[0.0, 1.0, 0.0]], [[1.0, 0.0, 0.0]], [[4.0, 1.0, 0.0]], [[4.0, 0.0, 0.0]], [[0.0, 1.0, 0.0]], [[83.0, 401.0, 0.0]], [[77.0, 301.0, 0.0]], [[10.0, 110.0, 0.0]], [[10.0, 77.0, 0.0]], [[8.0, 77.0, 0.0]], [[0.0, 27.0, 0.0]], [[8.0, 50.0, 0.0]], [[2.0, 1.0, 0.0]], [[2.0, 0.0, 0.0]], [[0.0, 1.0, 0.0]], [[6.0, 49.0, 0.0]], [[4.0, 48.0, 0.0]], [[3.0, 48.0, 0.0]], [[1.0, 0.0, 0.0]], [[2.0, 48.0, 0.0]], [[0.0, 33.0, 0.0]], [[2.0, 15.0, 0.0]], [[2.0, 3.0, 0.0]], [[0.0, 3.0, 0.0]], [[2.0, 0.0, 0.0]], [[0.0, 12.0, 0.0]], [[1.0, 0.0, 0.0]], [[2.0, 1.0, 0.0]], [[2.0, 0.0, 0.0]], [[0.0, 1.0, 0.0]], [[2.0, 0.0, 0.0]], [[0.0, 33.0, 0.0]], [[67.0, 191.0, 0.0]], [[67.0, 151.0, 0.0]], [[51.0, 140.0, 0.0]], [[34.0, 54.0, 0.0]], [[34.0, 47.0, 0.0]], [[26.0, 45.0, 0.0]], [[0.0, 12.0, 0.0]], [[26.0, 33.0, 0.0]], [[4.0, 0.0, 0.0]], [[22.0, 33.0, 0.0]], [[3.0, 16.0, 0.0]], [[3.0, 8.0, 0.0]], [[1.0, 8.0, 0.0]], [[1.0, 1.0, 0.0]], [[0.0, 1.0, 0.0]], [[1.0, 0.0, 0.0]], [[0.0, 7.0, 0.0]], [[2.0, 0.0, 0.0]], [[0.0, 8.0, 0.0]], [[19.0, 17.0, 0.0]], [[4.0, 0.0, 0.0]], [[15.0, 17.0, 0.0]], [[1.0, 9.0, 0.0]], [[1.0, 0.0, 0.0]], [[0.0, 9.0, 0.0]], [[14.0, 8.0, 0.0]], [[6.0, 7.0, 0.0]], [[6.0, 5.0, 0.0]], [[3.0, 0.0, 0.0]], [[3.0, 5.0, 0.0]], [[3.0, 2.0, 0.0]], [[0.0, 2.0, 0.0]], [[3.0, 0.0, 0.0]], [[0.0, 3.0, 0.0]], [[0.0, 2.0, 0.0]], [[8.0, 1.0, 0.0]], [[8.0, 0.0, 0.0]], [[0.0, 1.0, 0.0]], [[8.0, 2.0, 0.0]], [[8.0, 0.0, 0.0]], [[0.0, 2.0, 0.0]], [[0.0, 7.0, 0.0]], [[17.0, 86.0, 0.0]], [[0.0, 23.0, 0.0]], [[17.0, 63.0, 0.0]], [[2.0, 0.0, 0.0]], [[15.0, 63.0, 0.0]], [[15.0, 52.0, 0.0]], [[6.0, 45.0, 0.0]], [[6.0, 18.0, 0.0]], [[5.0, 18.0, 0.0]], [[0.0, 6.0, 0.0]], [[5.0, 12.0, 0.0]], [[2.0, 10.0, 0.0]], [[2.0, 2.0, 0.0]], [[0.0, 2.0, 0.0]], [[2.0, 0.0, 0.0]], [[0.0, 8.0, 0.0]], [[3.0, 2.0, 0.0]], [[3.0, 0.0, 0.0]], [[0.0, 2.0, 0.0]], [[1.0, 0.0, 0.0]], [[0.0, 27.0, 0.0]], [[9.0, 7.0, 0.0]], [[0.0, 5.0, 0.0]], [[9.0, 2.0, 0.0]], [[9.0, 1.0, 0.0]], [[8.0, 0.0, 0.0]], [[1.0, 1.0, 0.0]], [[1.0, 0.0, 0.0]], [[0.0, 1.0, 0.0]], [[0.0, 1.0, 0.0]], [[0.0, 11.0, 0.0]], [[16.0, 11.0, 0.0]], [[10.0, 11.0, 0.0]], [[10.0, 9.0, 0.0]], [[4.0, 0.0, 0.0]], [[6.0, 9.0, 0.0]], [[6.0, 6.0, 0.0]], [[6.0, 3.0, 0.0]], [[4.0, 0.0, 0.0]], [[2.0, 3.0, 0.0]], [[0.0, 2.0, 0.0]], [[2.0, 1.0, 0.0]], [[0.0, 1.0, 0.0]], [[2.0, 0.0, 0.0]], [[0.0, 3.0, 0.0]], [[0.0, 3.0, 0.0]], [[0.0, 2.0, 0.0]], [[6.0, 0.0, 0.0]], [[0.0, 40.0, 0.0]], [[6.0, 100.0, 0.0]], [[4.0, 95.0, 0.0]], [[0.0, 31.0, 0.0]], [[4.0, 64.0, 0.0]], [[1.0, 0.0, 0.0]], [[3.0, 64.0, 0.0]], [[0.0, 32.0, 0.0]], [[3.0, 32.0, 0.0]], [[2.0, 0.0, 0.0]], [[1.0, 32.0, 0.0]], [[0.0, 26.0, 0.0]], [[1.0, 6.0, 0.0]], [[1.0, 0.0, 0.0]], [[0.0, 6.0, 0.0]], [[2.0, 5.0, 0.0]], [[0.0, 4.0, 0.0]], [[2.0, 1.0, 0.0]], [[0.0, 1.0, 0.0]], [[2.0, 0.0, 0.0]], [[14.0, 2.0, 0.0]], [[2.0, 2.0, 0.0]], [[2.0, 0.0, 0.0]], [[0.0, 2.0, 0.0]], [[12.0, 0.0, 0.0]], [[13.0, 217.0, 0.0]], [[10.0, 31.0, 0.0]], [[3.0, 0.0, 0.0]], [[7.0, 31.0, 0.0]], [[0.0, 12.0, 0.0]], [[7.0, 19.0, 0.0]], [[5.0, 19.0, 0.0]], [[1.0, 16.0, 0.0]], [[1.0, 5.0, 0.0]], [[0.0, 5.0, 0.0]], [[1.0, 0.0, 0.0]], [[0.0, 11.0, 0.0]], [[4.0, 3.0, 0.0]], [[3.0, 0.0, 0.0]], [[1.0, 3.0, 0.0]], [[0.0, 2.0, 0.0]], [[1.0, 1.0, 0.0]], [[0.0, 1.0, 0.0]], [[1.0, 0.0, 0.0]], [[2.0, 0.0, 0.0]], [[3.0, 186.0, 0.0]], [[0.0, 103.0, 0.0]], [[3.0, 83.0, 0.0]], [[1.0, 81.0, 0.0]], [[0.0, 74.0, 0.0]], [[1.0, 7.0, 0.0]], [[1.0, 0.0, 0.0]], [[0.0, 7.0, 0.0]], [[2.0, 2.0, 0.0]], [[2.0, 0.0, 0.0]], [[0.0, 2.0, 0.0]], [[5.0, 228.0, 0.0]], [[2.0, 202.0, 0.0]], [[0.0, 133.0, 0.0]], [[2.0, 69.0, 0.0]], [[1.0, 69.0, 0.0]], [[1.0, 3.0, 0.0]], [[1.0, 0.0, 0.0]], [[0.0, 3.0, 0.0]], [[0.0, 66.0, 0.0]], [[1.0, 0.0, 0.0]], [[3.0, 26.0, 0.0]], [[3.0, 8.0, 0.0]], [[0.0, 8.0, 0.0]], [[3.0, 0.0, 0.0]], [[0.0, 18.0, 0.0]], [[30.0, 16.0, 0.0]], [[19.0, 16.0, 0.0]], [[17.0, 9.0, 0.0]], [[0.0, 3.0, 0.0]], [[17.0, 6.0, 0.0]], [[10.0, 1.0, 0.0]], [[1.0, 1.0, 0.0]], [[1.0, 0.0, 0.0]], [[0.0, 1.0, 0.0]], [[9.0, 0.0, 0.0]], [[7.0, 5.0, 0.0]], [[6.0, 2.0, 0.0]], [[0.0, 1.0, 0.0]], [[6.0, 1.0, 0.0]], [[6.0, 0.0, 0.0]], [[0.0, 1.0, 0.0]], [[1.0, 3.0, 0.0]], [[1.0, 0.0, 0.0]], [[0.0, 3.0, 0.0]], [[2.0, 7.0, 0.0]], [[2.0, 2.0, 0.0]], [[2.0, 0.0, 0.0]], [[0.0, 2.0, 0.0]], [[0.0, 5.0, 0.0]], [[11.0, 0.0, 0.0]], [[20.0, 30.0, 9.0]], [[15.0, 4.0, 1.0]], [[0.0, 0.0, 1.0]], [[15.0, 4.0, 0.0]], [[6.0, 4.0, 0.0]], [[0.0, 2.0, 0.0]], [[6.0, 2.0, 0.0]], [[6.0, 0.0, 0.0]], [[0.0, 2.0, 0.0]], [[9.0, 0.0, 0.0]], [[5.0, 26.0, 8.0]], [[4.0, 6.0, 7.0]], [[0.0, 5.0, 1.0]], [[0.0, 0.0, 1.0]], [[0.0, 5.0, 0.0]], [[4.0, 1.0, 6.0]], [[0.0, 1.0, 5.0]], [[0.0, 0.0, 4.0]], [[0.0, 1.0, 1.0]], [[0.0, 0.0, 1.0]], [[0.0, 1.0, 0.0]], [[4.0, 0.0, 1.0]], [[0.0, 0.0, 1.0]], [[4.0, 0.0, 0.0]], [[1.0, 20.0, 1.0]], [[1.0, 20.0, 0.0]], [[1.0, 4.0, 0.0]], [[0.0, 4.0, 0.0]], [[1.0, 0.0, 0.0]], [[0.0, 16.0, 0.0]], [[0.0, 0.0, 1.0]], [[76.0, 105.0, 25.0]], [[8.0, 1.0, 10.0]], [[8.0, 1.0, 4.0]], [[8.0, 0.0, 4.0]], [[0.0, 0.0, 2.0]], [[8.0, 0.0, 2.0]], [[8.0, 0.0, 1.0]], [[1.0, 0.0, 1.0]], [[1.0, 0.0, 0.0]], [[0.0, 0.0, 1.0]], [[7.0, 0.0, 0.0]], [[0.0, 0.0, 1.0]], [[0.0, 1.0, 0.0]], [[0.0, 0.0, 6.0]], [[68.0, 104.0, 15.0]], [[67.0, 104.0, 8.0]], [[51.0, 97.0, 3.0]], [[39.0, 94.0, 3.0]], [[27.0, 83.0, 0.0]], [[2.0, 28.0, 0.0]], [[1.0, 28.0, 0.0]], [[1.0, 2.0, 0.0]], [[0.0, 2.0, 0.0]], [[1.0, 0.0, 0.0]], [[0.0, 26.0, 0.0]], [[1.0, 0.0, 0.0]], [[25.0, 55.0, 0.0]], [[2.0, 18.0, 0.0]], [[0.0, 15.0, 0.0]], [[2.0, 3.0, 0.0]], [[2.0, 0.0, 0.0]], [[0.0, 3.0, 0.0]], [[23.0, 37.0, 0.0]], [[11.0, 4.0, 0.0]], [[6.0, 4.0, 0.0]], [[0.0, 2.0, 0.0]], [[6.0, 2.0, 0.0]], [[4.0, 0.0, 0.0]], [[2.0, 2.0, 0.0]], [[1.0, 0.0, 0.0]], [[1.0, 2.0, 0.0]], [[0.0, 2.0, 0.0]], [[1.0, 0.0, 0.0]], [[5.0, 0.0, 0.0]], [[12.0, 33.0, 0.0]], [[10.0, 15.0, 0.0]], [[3.0, 0.0, 0.0]], [[7.0, 15.0, 0.0]], [[0.0, 8.0, 0.0]], [[7.0, 7.0, 0.0]], [[4.0, 0.0, 0.0]], [[3.0, 7.0, 0.0]], [[0.0, 7.0, 0.0]], [[3.0, 0.0, 0.0]], [[2.0, 18.0, 0.0]], [[2.0, 3.0, 0.0]], [[0.0, 3.0, 0.0]], [[2.0, 0.0, 0.0]], [[0.0, 15.0, 0.0]], [[12.0, 11.0, 3.0]], [[6.0, 9.0, 0.0]], [[3.0, 0.0, 0.0]], [[3.0, 9.0, 0.0]], [[0.0, 8.0, 0.0]], [[3.0, 1.0, 0.0]], [[3.0, 0.0, 0.0]], [[0.0, 1.0, 0.0]], [[6.0, 2.0, 3.0]], [[4.0, 0.0, 0.0]], [[2.0, 2.0, 3.0]], [[0.0, 2.0, 1.0]], [[0.0, 2.0, 0.0]], [[0.0, 0.0, 1.0]], [[2.0, 0.0, 2.0]], [[1.0, 0.0, 0.0]], [[1.0, 0.0, 2.0]], [[1.0, 0.0, 0.0]], [[0.0, 0.0, 2.0]], [[12.0, 3.0, 0.0]], [[0.0, 2.0, 0.0]], [[12.0, 1.0, 0.0]], [[1.0, 1.0, 0.0]], [[1.0, 0.0, 0.0]], [[0.0, 1.0, 0.0]], [[11.0, 0.0, 0.0]], [[16.0, 7.0, 5.0]], [[7.0, 6.0, 0.0]], [[0.0, 3.0, 0.0]], [[7.0, 3.0, 0.0]], [[0.0, 2.0, 0.0]], [[7.0, 1.0, 0.0]], [[0.0, 1.0, 0.0]], [[7.0, 0.0, 0.0]], [[9.0, 1.0, 5.0]], [[2.0, 0.0, 5.0]], [[2.0, 0.0, 1.0]], [[2.0, 0.0, 0.0]], [[0.0, 0.0, 1.0]], [[0.0, 0.0, 4.0]], [[7.0, 1.0, 0.0]], [[1.0, 1.0, 0.0]], [[0.0, 1.0, 0.0]], [[1.0, 0.0, 0.0]], [[6.0, 0.0, 0.0]], [[1.0, 0.0, 7.0]], [[0.0, 0.0, 7.0]], [[1.0, 0.0, 0.0]], [[3214.0, 185.0, 128.0]], [[765.0, 141.0, 54.0]], [[5.0, 1.0, 10.0]], [[0.0, 0.0, 10.0]], [[5.0, 1.0, 0.0]], [[0.0, 1.0, 0.0]], [[5.0, 0.0, 0.0]], [[760.0, 140.0, 44.0]], [[318.0, 73.0, 35.0]], [[133.0, 10.0, 15.0]], [[119.0, 3.0, 12.0]], [[55.0, 1.0, 11.0]], [[16.0, 1.0, 8.0]], [[16.0, 1.0, 4.0]], [[5.0, 1.0, 4.0]], [[0.0, 1.0, 2.0]], [[0.0, 0.0, 2.0]], [[0.0, 1.0, 0.0]], [[5.0, 0.0, 2.0]], [[4.0, 0.0, 0.0]], [[1.0, 0.0, 2.0]], [[1.0, 0.0, 0.0]], [[0.0, 0.0, 2.0]], [[11.0, 0.0, 0.0]], [[0.0, 0.0, 4.0]], [[39.0, 0.0, 3.0]], [[18.0, 0.0, 3.0]], [[12.0, 0.0, 0.0]], [[6.0, 0.0, 3.0]], [[0.0, 0.0, 2.0]], [[6.0, 0.0, 1.0]], [[0.0, 0.0, 1.0]], [[6.0, 0.0, 0.0]], [[21.0, 0.0, 0.0]], [[64.0, 2.0, 1.0]], [[64.0, 1.0, 1.0]], [[62.0, 1.0, 0.0]], [[3.0, 1.0, 0.0]], [[3.0, 0.0, 0.0]], [[0.0, 1.0, 0.0]], [[59.0, 0.0, 0.0]], [[2.0, 0.0, 1.0]], [[0.0, 0.0, 1.0]], [[2.0, 0.0, 0.0]], [[0.0, 1.0, 0.0]], [[14.0, 7.0, 3.0]], [[6.0, 0.0, 3.0]], [[0.0, 0.0, 2.0]], [[6.0, 0.0, 1.0]], [[6.0, 0.0, 0.0]], [[0.0, 0.0, 1.0]], [[8.0, 7.0, 0.0]], [[0.0, 7.0, 0.0]], [[8.0, 0.0, 0.0]], [[185.0, 63.0, 20.0]], [[86.0, 21.0, 1.0]], [[62.0, 21.0, 0.0]], [[50.0, 21.0, 0.0]], [[44.0, 14.0, 0.0]], [[11.0, 9.0, 0.0]], [[4.0, 0.0, 0.0]], [[7.0, 9.0, 0.0]], [[4.0, 1.0, 0.0]], [[0.0, 1.0, 0.0]], [[4.0, 0.0, 0.0]], [[3.0, 8.0, 0.0]], [[0.0, 4.0, 0.0]], [[3.0, 4.0, 0.0]], [[3.0, 1.0, 0.0]], [[0.0, 1.0, 0.0]], [[3.0, 0.0, 0.0]], [[0.0, 3.0, 0.0]], [[33.0, 5.0, 0.0]], [[18.0, 5.0, 0.0]], [[4.0, 4.0, 0.0]], [[2.0, 0.0, 0.0]], [[2.0, 4.0, 0.0]], [[1.0, 4.0, 0.0]], [[0.0, 3.0, 0.0]], [[1.0, 1.0, 0.0]], [[0.0, 1.0, 0.0]], [[1.0, 0.0, 0.0]], [[1.0, 0.0, 0.0]], [[14.0, 1.0, 0.0]], [[13.0, 0.0, 0.0]], [[1.0, 1.0, 0.0]], [[0.0, 1.0, 0.0]], [[1.0, 0.0, 0.0]], [[15.0, 0.0, 0.0]], [[6.0, 7.0, 0.0]], [[0.0, 3.0, 0.0]], [[6.0, 4.0, 0.0]], [[6.0, 2.0, 0.0]], [[2.0, 2.0, 0.0]], [[2.0, 0.0, 0.0]], [[0.0, 2.0, 0.0]], [[4.0, 0.0, 0.0]], [[0.0, 2.0, 0.0]], [[12.0, 0.0, 0.0]], [[24.0, 0.0, 1.0]], [[3.0, 0.0, 1.0]], [[3.0, 0.0, 0.0]], [[0.0, 0.0, 1.0]], [[21.0, 0.0, 0.0]], [[99.0, 42.0, 19.0]], [[51.0, 17.0, 17.0]], [[51.0, 15.0, 13.0]], [[36.0, 15.0, 13.0]], [[25.0, 11.0, 13.0]], [[25.0, 9.0, 11.0]], [[15.0, 6.0, 11.0]], [[2.0, 0.0, 6.0]], [[2.0, 0.0, 0.0]], [[0.0, 0.0, 6.0]], [[13.0, 6.0, 5.0]], [[8.0, 1.0, 0.0]], [[0.0, 1.0, 0.0]], [[8.0, 0.0, 0.0]], [[5.0, 5.0, 5.0]], [[5.0, 5.0, 2.0]], [[0.0, 0.0, 1.0]], [[5.0, 5.0, 1.0]], [[0.0, 1.0, 1.0]], [[0.0, 0.0, 1.0]], [[0.0, 1.0, 0.0]], [[5.0, 4.0, 0.0]], [[3.0, 0.0, 0.0]], [[2.0, 4.0, 0.0]], [[0.0, 4.0, 0.0]], [[2.0, 0.0, 0.0]], [[0.0, 0.0, 3.0]], [[10.0, 3.0, 0.0]], [[10.0, 1.0, 0.0]], [[8.0, 0.0, 0.0]], [[2.0, 1.0, 0.0]], [[2.0, 0.0, 0.0]], [[0.0, 1.0, 0.0]], [[0.0, 2.0, 0.0]], [[0.0, 2.0, 2.0]], [[0.0, 2.0, 0.0]], [[0.0, 0.0, 2.0]], [[11.0, 4.0, 0.0]], [[4.0, 4.0, 0.0]], [[4.0, 1.0, 0.0]], [[4.0, 0.0, 0.0]], [[0.0, 1.0, 0.0]], [[0.0, 3.0, 0.0]], [[7.0, 0.0, 0.0]], [[15.0, 0.0, 0.0]], [[0.0, 2.0, 4.0]], [[0.0, 2.0, 0.0]], [[0.0, 0.0, 4.0]], [[48.0, 25.0, 2.0]], [[11.0, 0.0, 2.0]], [[0.0, 0.0, 2.0]], [[11.0, 0.0, 0.0]], [[37.0, 25.0, 0.0]], [[0.0, 5.0, 0.0]], [[37.0, 20.0, 0.0]], [[37.0, 17.0, 0.0]], [[14.0, 0.0, 0.0]], [[23.0, 17.0, 0.0]], [[23.0, 11.0, 0.0]], [[8.0, 0.0, 0.0]], [[15.0, 11.0, 0.0]], [[4.0, 0.0, 0.0]], [[11.0, 11.0, 0.0]], [[11.0, 9.0, 0.0]], [[6.0, 1.0, 0.0]], [[0.0, 1.0, 0.0]], [[6.0, 0.0, 0.0]], [[5.0, 8.0, 0.0]], [[0.0, 6.0, 0.0]], [[5.0, 2.0, 0.0]], [[4.0, 0.0, 0.0]], [[1.0, 2.0, 0.0]], [[1.0, 0.0, 0.0]], [[0.0, 2.0, 0.0]], [[0.0, 2.0, 0.0]], [[0.0, 6.0, 0.0]], [[0.0, 3.0, 0.0]], [[442.0, 67.0, 9.0]], [[25.0, 0.0, 0.0]], [[417.0, 67.0, 9.0]], [[160.0, 25.0, 0.0]], [[26.0, 0.0, 0.0]], [[134.0, 25.0, 0.0]], [[23.0, 0.0, 0.0]], [[111.0, 25.0, 0.0]], [[16.0, 0.0, 0.0]], [[95.0, 25.0, 0.0]], [[14.0, 10.0, 0.0]], [[5.0, 0.0, 0.0]], [[9.0, 10.0, 0.0]], [[6.0, 10.0, 0.0]], [[1.0, 0.0, 0.0]], [[5.0, 10.0, 0.0]], [[3.0, 2.0, 0.0]], [[3.0, 0.0, 0.0]], [[0.0, 2.0, 0.0]], [[2.0, 8.0, 0.0]], [[0.0, 5.0, 0.0]], [[2.0, 3.0, 0.0]], [[2.0, 1.0, 0.0]], [[2.0, 0.0, 0.0]], [[0.0, 1.0, 0.0]], [[0.0, 2.0, 0.0]], [[3.0, 0.0, 0.0]], [[81.0, 15.0, 0.0]], [[68.0, 7.0, 0.0]], [[41.0, 7.0, 0.0]], [[41.0, 5.0, 0.0]], [[12.0, 4.0, 0.0]], [[11.0, 1.0, 0.0]], [[3.0, 1.0, 0.0]], [[0.0, 1.0, 0.0]], [[3.0, 0.0, 0.0]], [[8.0, 0.0, 0.0]], [[1.0, 3.0, 0.0]], [[1.0, 0.0, 0.0]], [[0.0, 3.0, 0.0]], [[29.0, 1.0, 0.0]], [[28.0, 0.0, 0.0]], [[1.0, 1.0, 0.0]], [[1.0, 0.0, 0.0]], [[0.0, 1.0, 0.0]], [[0.0, 2.0, 0.0]], [[27.0, 0.0, 0.0]], [[13.0, 8.0, 0.0]], [[10.0, 1.0, 0.0]], [[10.0, 0.0, 0.0]], [[0.0, 1.0, 0.0]], [[3.0, 7.0, 0.0]], [[0.0, 4.0, 0.0]], [[3.0, 3.0, 0.0]], [[2.0, 0.0, 0.0]], [[1.0, 3.0, 0.0]], [[0.0, 3.0, 0.0]], [[1.0, 0.0, 0.0]], [[257.0, 42.0, 9.0]], [[79.0, 11.0, 7.0]], [[65.0, 4.0, 7.0]], [[14.0, 2.0, 5.0]], [[0.0, 1.0, 1.0]], [[0.0, 1.0, 0.0]], [[0.0, 0.0, 1.0]], [[14.0, 1.0, 4.0]], [[8.0, 0.0, 4.0]], [[3.0, 0.0, 0.0]], [[5.0, 0.0, 4.0]], [[0.0, 0.0, 3.0]], [[5.0, 0.0, 1.0]], [[0.0, 0.0, 1.0]], [[5.0, 0.0, 0.0]], [[6.0, 1.0, 0.0]], [[1.0, 1.0, 0.0]], [[0.0, 1.0, 0.0]], [[1.0, 0.0, 0.0]], [[5.0, 0.0, 0.0]], [[51.0, 2.0, 2.0]], [[47.0, 2.0, 0.0]], [[11.0, 2.0, 0.0]], [[11.0, 0.0, 0.0]], [[0.0, 2.0, 0.0]], [[36.0, 0.0, 0.0]], [[4.0, 0.0, 2.0]], [[0.0, 0.0, 2.0]], [[4.0, 0.0, 0.0]], [[14.0, 7.0, 0.0]], [[0.0, 5.0, 0.0]], [[14.0, 2.0, 0.0]], [[3.0, 2.0, 0.0]], [[1.0, 2.0, 0.0]], [[0.0, 1.0, 0.0]], [[1.0, 1.0, 0.0]], [[0.0, 1.0, 0.0]], [[1.0, 0.0, 0.0]], [[2.0, 0.0, 0.0]], [[11.0, 0.0, 0.0]], [[178.0, 31.0, 2.0]], [[138.0, 15.0, 2.0]], [[42.0, 0.0, 1.0]], [[11.0, 0.0, 1.0]], [[11.0, 0.0, 0.0]], [[0.0, 0.0, 1.0]], [[31.0, 0.0, 0.0]], [[96.0, 15.0, 1.0]], [[2.0, 3.0, 0.0]], [[0.0, 2.0, 0.0]], [[2.0, 1.0, 0.0]], [[2.0, 0.0, 0.0]], [[0.0, 1.0, 0.0]], [[94.0, 12.0, 1.0]], [[84.0, 12.0, 0.0]], [[84.0, 11.0, 0.0]], [[72.0, 11.0, 0.0]], [[72.0, 10.0, 0.0]], [[57.0, 10.0, 0.0]], [[56.0, 7.0, 0.0]], [[0.0, 1.0, 0.0]], [[56.0, 6.0, 0.0]], [[56.0, 5.0, 0.0]], [[44.0, 5.0, 0.0]], [[43.0, 3.0, 0.0]], [[27.0, 0.0, 0.0]], [[16.0, 3.0, 0.0]], [[9.0, 0.0, 0.0]], [[7.0, 3.0, 0.0]], [[7.0, 2.0, 0.0]], [[7.0, 1.0, 0.0]], [[0.0, 1.0, 0.0]], [[7.0, 0.0, 0.0]], [[0.0, 1.0, 0.0]], [[0.0, 1.0, 0.0]], [[1.0, 2.0, 0.0]], [[0.0, 2.0, 0.0]], [[1.0, 0.0, 0.0]], [[12.0, 0.0, 0.0]], [[0.0, 1.0, 0.0]], [[1.0, 3.0, 0.0]], [[0.0, 3.0, 0.0]], [[1.0, 0.0, 0.0]], [[15.0, 0.0, 0.0]], [[0.0, 1.0, 0.0]], [[12.0, 0.0, 0.0]], [[0.0, 1.0, 0.0]], [[10.0, 0.0, 1.0]], [[0.0, 0.0, 1.0]], [[10.0, 0.0, 0.0]], [[40.0, 16.0, 0.0]], [[25.0, 16.0, 0.0]], [[0.0, 5.0, 0.0]], [[25.0, 11.0, 0.0]], [[10.0, 9.0, 0.0]], [[6.0, 1.0, 0.0]], [[0.0, 1.0, 0.0]], [[6.0, 0.0, 0.0]], [[4.0, 8.0, 0.0]], [[4.0, 4.0, 0.0]], [[0.0, 2.0, 0.0]], [[4.0, 2.0, 0.0]], [[0.0, 2.0, 0.0]], [[4.0, 0.0, 0.0]], [[0.0, 4.0, 0.0]], [[15.0, 2.0, 0.0]], [[11.0, 0.0, 0.0]], [[4.0, 2.0, 0.0]], [[0.0, 2.0, 0.0]], [[4.0, 0.0, 0.0]], [[15.0, 0.0, 0.0]], [[2449.0, 44.0, 74.0]], [[2017.0, 30.0, 15.0]], [[974.0, 0.0, 0.0]], [[1043.0, 30.0, 15.0]], [[710.0, 30.0, 15.0]], [[708.0, 26.0, 15.0]], [[173.0, 0.0, 5.0]], [[173.0, 0.0, 4.0]], [[65.0, 0.0, 4.0]], [[63.0, 0.0, 2.0]], [[63.0, 0.0, 1.0]], [[46.0, 0.0, 0.0]], [[17.0, 0.0, 1.0]], [[17.0, 0.0, 0.0]], [[0.0, 0.0, 1.0]], [[0.0, 0.0, 1.0]], [[2.0, 0.0, 2.0]], [[2.0, 0.0, 0.0]], [[0.0, 0.0, 2.0]], [[108.0, 0.0, 0.0]], [[0.0, 0.0, 1.0]], [[535.0, 26.0, 10.0]], [[0.0, 5.0, 0.0]], [[535.0, 21.0, 10.0]], [[496.0, 18.0, 6.0]], [[15.0, 4.0, 0.0]], [[15.0, 2.0, 0.0]], [[0.0, 1.0, 0.0]], [[15.0, 1.0, 0.0]], [[13.0, 0.0, 0.0]], [[2.0, 1.0, 0.0]], [[0.0, 1.0, 0.0]], [[2.0, 0.0, 0.0]], [[0.0, 2.0, 0.0]], [[481.0, 14.0, 6.0]], [[284.0, 4.0, 5.0]], [[41.0, 3.0, 2.0]], [[30.0, 0.0, 2.0]], [[26.0, 0.0, 0.0]], [[4.0, 0.0, 2.0]], [[3.0, 0.0, 0.0]], [[1.0, 0.0, 2.0]], [[0.0, 0.0, 1.0]], [[1.0, 0.0, 1.0]], [[1.0, 0.0, 0.0]], [[0.0, 0.0, 1.0]], [[11.0, 3.0, 0.0]], [[0.0, 2.0, 0.0]], [[11.0, 1.0, 0.0]], [[1.0, 1.0, 0.0]], [[1.0, 0.0, 0.0]], [[0.0, 1.0, 0.0]], [[10.0, 0.0, 0.0]], [[243.0, 1.0, 3.0]], [[232.0, 0.0, 3.0]], [[119.0, 0.0, 3.0]], [[114.0, 0.0, 1.0]], [[39.0, 0.0, 1.0]], [[39.0, 0.0, 0.0]], [[0.0, 0.0, 1.0]], [[75.0, 0.0, 0.0]], [[5.0, 0.0, 2.0]], [[4.0, 0.0, 0.0]], [[1.0, 0.0, 2.0]], [[0.0, 0.0, 2.0]], [[1.0, 0.0, 0.0]], [[113.0, 0.0, 0.0]], [[11.0, 1.0, 0.0]], [[0.0, 1.0, 0.0]], [[11.0, 0.0, 0.0]], [[197.0, 10.0, 1.0]], [[87.0, 1.0, 1.0]], [[87.0, 0.0, 1.0]], [[74.0, 0.0, 0.0]], [[13.0, 0.0, 1.0]], [[0.0, 0.0, 1.0]], [[13.0, 0.0, 0.0]], [[0.0, 1.0, 0.0]], [[110.0, 9.0, 0.0]], [[110.0, 8.0, 0.0]], [[0.0, 1.0, 0.0]], [[110.0, 7.0, 0.0]], [[59.0, 1.0, 0.0]], [[3.0, 1.0, 0.0]], [[0.0, 1.0, 0.0]], [[3.0, 0.0, 0.0]], [[56.0, 0.0, 0.0]], [[51.0, 6.0, 0.0]], [[46.0, 3.0, 0.0]], [[26.0, 0.0, 0.0]], [[20.0, 3.0, 0.0]], [[0.0, 1.0, 0.0]], [[20.0, 2.0, 0.0]], [[15.0, 0.0, 0.0]], [[5.0, 2.0, 0.0]], [[0.0, 2.0, 0.0]], [[5.0, 0.0, 0.0]], [[5.0, 3.0, 0.0]], [[5.0, 0.0, 0.0]], [[0.0, 3.0, 0.0]], [[0.0, 1.0, 0.0]], [[39.0, 3.0, 4.0]], [[39.0, 3.0, 2.0]], [[29.0, 0.0, 0.0]], [[10.0, 3.0, 2.0]], [[0.0, 2.0, 2.0]], [[0.0, 0.0, 2.0]], [[0.0, 2.0, 0.0]], [[10.0, 1.0, 0.0]], [[1.0, 1.0, 0.0]], [[0.0, 1.0, 0.0]], [[1.0, 0.0, 0.0]], [[9.0, 0.0, 0.0]], [[0.0, 0.0, 2.0]], [[2.0, 4.0, 0.0]], [[2.0, 1.0, 0.0]], [[0.0, 1.0, 0.0]], [[2.0, 0.0, 0.0]], [[0.0, 3.0, 0.0]], [[333.0, 0.0, 0.0]], [[432.0, 14.0, 59.0]], [[37.0, 0.0, 47.0]], [[34.0, 0.0, 10.0]], [[0.0, 0.0, 3.0]], [[34.0, 0.0, 7.0]], [[24.0, 0.0, 0.0]], [[10.0, 0.0, 7.0]], [[9.0, 0.0, 1.0]], [[1.0, 0.0, 1.0]], [[1.0, 0.0, 0.0]], [[0.0, 0.0, 1.0]], [[8.0, 0.0, 0.0]], [[1.0, 0.0, 6.0]], [[1.0, 0.0, 0.0]], [[0.0, 0.0, 6.0]], [[3.0, 0.0, 37.0]], [[0.0, 0.0, 21.0]], [[3.0, 0.0, 16.0]], [[0.0, 0.0, 15.0]], [[3.0, 0.0, 1.0]], [[0.0, 0.0, 1.0]], [[3.0, 0.0, 0.0]], [[395.0, 14.0, 12.0]], [[177.0, 8.0, 12.0]], [[0.0, 0.0, 4.0]], [[177.0, 8.0, 8.0]], [[174.0, 8.0, 4.0]], [[173.0, 6.0, 4.0]], [[173.0, 6.0, 3.0]], [[100.0, 1.0, 3.0]], [[100.0, 0.0, 3.0]], [[38.0, 0.0, 3.0]], [[38.0, 0.0, 2.0]], [[14.0, 0.0, 2.0]], [[11.0, 0.0, 0.0]], [[3.0, 0.0, 2.0]], [[1.0, 0.0, 2.0]], [[1.0, 0.0, 0.0]], [[0.0, 0.0, 2.0]], [[2.0, 0.0, 0.0]], [[24.0, 0.0, 0.0]], [[0.0, 0.0, 1.0]], [[62.0, 0.0, 0.0]], [[0.0, 1.0, 0.0]], [[73.0, 5.0, 0.0]], [[0.0, 1.0, 0.0]], [[73.0, 4.0, 0.0]], [[70.0, 2.0, 0.0]], [[28.0, 2.0, 0.0]], [[0.0, 1.0, 0.0]], [[28.0, 1.0, 0.0]], [[24.0, 0.0, 0.0]], [[4.0, 1.0, 0.0]], [[4.0, 0.0, 0.0]], [[0.0, 1.0, 0.0]], [[42.0, 0.0, 0.0]], [[3.0, 2.0, 0.0]], [[3.0, 0.0, 0.0]], [[0.0, 2.0, 0.0]], [[0.0, 0.0, 1.0]], [[1.0, 2.0, 0.0]], [[0.0, 2.0, 0.0]], [[1.0, 0.0, 0.0]], [[3.0, 0.0, 4.0]], [[2.0, 0.0, 0.0]], [[1.0, 0.0, 4.0]], [[1.0, 0.0, 0.0]], [[0.0, 0.0, 4.0]], [[218.0, 6.0, 0.0]], [[216.0, 4.0, 0.0]], [[96.0, 0.0, 0.0]], [[120.0, 4.0, 0.0]], [[119.0, 2.0, 0.0]], [[70.0, 0.0, 0.0]], [[49.0, 2.0, 0.0]], [[0.0, 1.0, 0.0]], [[49.0, 1.0, 0.0]], [[33.0, 0.0, 0.0]], [[16.0, 1.0, 0.0]], [[16.0, 0.0, 0.0]], [[0.0, 1.0, 0.0]], [[1.0, 2.0, 0.0]], [[0.0, 2.0, 0.0]], [[1.0, 0.0, 0.0]], [[2.0, 2.0, 0.0]], [[0.0, 2.0, 0.0]], [[2.0, 0.0, 0.0]]]}