{"n_nodes": 2065, "children_left": [1, 2, 3, 4, 5, 6, 7, -1, 9, 10, -1, 12, -1, 14, -1, -1, 17, -1, 19, -1, -1, -1, -1, 24, 25, 26, 27, -1, 29, -1, 31, -1, -1, 34, 35, 36, -1, -1, -1, -1, 41, -1, 43, -1, -1, 46, 47, 48, 49, -1, -1, -1, 53, -1, 55, -1, 57, 58, 59, 60, 61, 62, -1, -1, -1, -1, -1, -1, -1, 70, 71, 72, 73, 74, 75, 76, -1, 78, -1, -1, -1, -1, 83, -1, -1, 86, -1, 88, 89, -1, 91, -1, 93, -1, 95, -1, -1, 98, -1, 100, 101, 102, 103, 104, 105, -1, -1, -1, -1, 110, -1, 112, -1, 114, -1, 116, -1, 118, -1, 120, 121, 122, -1, 124, -1, -1, 127, -1, -1, -1, 131, -1, 133, -1, 135, 136, -1, -1, -1, 140, -1, -1, 143, -1, 145, -1, -1, 148, 149, -1, -1, -1, 153, 154, 155, 156, 157, 158, -1, -1, 161, -1, 163, 164, 165, 166, 167, -1, 169, 170, -1, -1, -1, 174, -1, -1, -1, -1, 179, -1, 181, -1, -1, -1, 185, 186, -1, 188, 189, -1, 191, 192, -1, -1, -1, -1, -1, -1, 199, 200, -1, 202, 203, 204, 205, -1, -1, -1, 209, -1, -1, -1, 213, 214, 215, -1, 217, 218, -1, -1, -1, -1, 223, -1, -1, 226, 227, 228, 229, 230, 231, 232, 233, 234, 235, 236, 237, -1, 239, -1, -1, 242, 243, 244, -1, -1, -1, -1, 249, -1, 251, 252, 253, -1, 255, 256, 257, 258, -1, 260, -1, -1, -1, -1, 265, -1, -1, -1, 269, 270, -1, -1, -1, 274, -1, 276, -1, -1, 279, 280, -1, 282, 283, 284, -1, -1, -1, -1, 289, -1, 291, 292, -1, 294, 295, 296, -1, -1, -1, -1, 301, 302, -1, -1, -1, 306, 307, 308, 309, 310, 311, 312, 313, -1, 315, -1, -1, 318, -1, 320, -1, -1, 323, 324, -1, 326, 327, -1, 329, -1, 331, 332, 333, 334, 335, 336, -1, -1, -1, -1, 341, 342, -1, -1, -1, -1, 347, -1, 349, -1, -1, -1, -1, 354, -1, 356, 357, -1, -1, 360, 361, 362, -1, -1, -1, -1, 367, 368, 369, -1, -1, 372, 373, -1, -1, -1, -1, 378, -1, 380, -1, -1, 383, 384, 385, -1, -1, -1, -1, 390, -1, 392, -1, -1, 395, -1, 397, 398, -1, 400, -1, -1, 403, 404, 405, -1, -1, -1, 409, 410, 411, -1, 413, 414, 415, 416, 417, -1, -1, -1, -1, -1, -1, 424, -1, -1, 427, 428, -1, 430, -1, -1, 433, 434, 435, -1, 437, -1, -1, -1, -1, 442, 443, 444, 445, -1, 447, 448, -1, -1, -1, -1, -1, 454, 455, 456, 457, 458, -1, -1, 461, -1, -1, -1, 465, -1, -1, 468, 469, -1, -1, -1, 473, 474, 475, 476, 477, 478, -1, 480, 481, -1, -1, -1, 485, -1, 487, -1, -1, 490, 491, 492, 493, -1, -1, -1, -1, 498, -1, -1, 501, 502, 503, -1, 505, -1, -1, -1, 509, 510, -1, 512, -1, 514, -1, -1, 517, -1, -1, 520, 521, 522, -1, 524, 525, 526, 527, -1, -1, -1, 531, -1, 533, -1, 535, 536, 537, 538, -1, 540, -1, -1, -1, -1, -1, -1, 547, -1, 549, 550, -1, 552, 553, -1, 555, -1, 557, -1, -1, -1, -1, 562, 563, 564, 565, -1, 567, 568, 569, -1, 571, -1, 573, -1, -1, 576, 577, -1, 579, -1, -1, 582, 583, -1, -1, 586, -1, 588, -1, 590, -1, 592, -1, -1, -1, 596, 597, -1, 599, 600, 601, -1, 603, -1, 605, 606, 607, -1, 609, 610, 611, -1, -1, -1, -1, 616, -1, 618, -1, 620, -1, -1, 623, 624, -1, -1, -1, -1, -1, 630, 631, 632, 633, -1, -1, -1, 637, -1, -1, -1, 641, -1, 643, -1, 645, 646, -1, 648, -1, 650, 651, 652, -1, -1, -1, -1, -1, 658, -1, 660, -1, -1, 663, 664, 665, 666, 667, -1, -1, 670, 671, -1, -1, 674, 675, 676, 677, -1, -1, -1, 681, 682, -1, 684, -1, 686, -1, -1, -1, 690, -1, 692, -1, -1, 695, -1, 697, 698, -1, -1, 701, -1, -1, -1, 705, 706, -1, 708, 709, 710, 711, 712, 713, -1, -1, -1, 717, 718, 719, -1, -1, -1, -1, -1, 725, -1, -1, 728, 729, -1, 731, -1, 733, 734, -1, 736, -1, 738, -1, -1, -1, 742, 743, 744, -1, 746, -1, -1, -1, -1, 751, 752, 753, 754, -1, -1, -1, 758, 759, 760, 761, 762, 763, -1, 765, 766, -1, -1, -1, -1, 771, 772, 773, -1, -1, -1, -1, 778, 779, 780, -1, 782, 783, -1, -1, 786, 787, 788, -1, 790, -1, -1, -1, 794, -1, 796, 797, 798, -1, -1, -1, -1, 803, -1, 805, 806, 807, 808, -1, 810, -1, 812, -1, 814, -1, -1, -1, -1, -1, -1, 821, 822, 823, 824, -1, 826, -1, -1, -1, -1, 831, 832, -1, -1, 835, 836, -1, -1, 839, 840, -1, -1, -1, 844, 845, -1, 847, 848, -1, 850, -1, 852, 853, 854, -1, -1, -1, -1, -1, 860, 861, -1, 863, 864, -1, -1, -1, -1, 869, 870, 871, 872, -1, -1, -1, -1, 877, 878, 879, -1, -1, 882, -1, -1, 885, 886, 887, 888, 889, -1, -1, 892, 893, 894, 895, -1, -1, -1, 899, 900, 901, -1, -1, -1, 905, 906, -1, 908, 909, -1, -1, -1, -1, -1, 915, 916, -1, 918, 919, -1, -1, 922, 923, -1, 925, 926, 927, 928, -1, -1, -1, -1, 933, 934, 935, 936, -1, -1, 939, -1, -1, -1, -1, -1, -1, 946, 947, 948, 949, -1, -1, -1, -1, 954, -1, 956, 957, -1, 959, 960, -1, -1, -1, -1, -1, 966, -1, 968, -1, -1, 971, 972, 973, 974, -1, -1, 977, -1, -1, 980, 981, 982, 983, -1, 985, 986, 987, -1, -1, -1, 991, 992, -1, -1, 995, -1, 997, -1, 999, -1, 1001, -1, 1003, -1, -1, 1006, -1, -1, 1009, 1010, 1011, -1, 1013, 1014, 1015, -1, 1017, -1, -1, -1, 1021, -1, -1, -1, 1025, 1026, 1027, 1028, 1029, -1, 1031, -1, 1033, 1034, -1, -1, -1, 1038, 1039, -1, 1041, -1, -1, -1, -1, 1046, 1047, -1, 1049, -1, 1051, -1, -1, -1, 1055, -1, -1, 1058, 1059, 1060, -1, 1062, -1, -1, -1, 1066, 1067, 1068, -1, 1070, -1, -1, 1073, -1, -1, -1, 1077, -1, 1079, 1080, -1, 1082, 1083, -1, 1085, 1086, -1, 1088, 1089, -1, -1, -1, -1, 1094, -1, 1096, -1, -1, 1099, 1100, -1, 1102, -1, 1104, 1105, -1, 1107, 1108, -1, 1110, -1, -1, -1, -1, 1115, 1116, 1117, 1118, -1, -1, 1121, 1122, -1, 1124, -1, 1126, 1127, -1, -1, -1, -1, -1, 1133, 1134, -1, 1136, 1137, 1138, -1, -1, -1, -1, -1, 1144, 1145, 1146, 1147, -1, 1149, -1, -1, 1152, 1153, 1154, 1155, 1156, 1157, 1158, 1159, -1, 1161, -1, 1163, 1164, 1165, 1166, 1167, -1, 1169, -1, -1, -1, -1, -1, -1, -1, 1177, -1, -1, 1180, 1181, -1, -1, -1, -1, 1186, 1187, 1188, -1, 1190, 1191, 1192, -1, -1, 1195, -1, 1197, 1198, 1199, 1200, -1, -1, -1, -1, -1, -1, 1207, 1208, 1209, -1, -1, 1212, -1, -1, 1215, 1216, -1, -1, -1, 1220, 1221, 1222, 1223, 1224, -1, -1, -1, 1228, 1229, -1, -1, 1232, -1, -1, 1235, 1236, 1237, 1238, 1239, 1240, -1, 1242, 1243, 1244, 1245, -1, -1, -1, -1, -1, 1251, -1, 1253, 1254, -1, -1, 1257, -1, 1259, -1, 1261, -1, 1263, 1264, -1, -1, 1267, 1268, -1, 1270, -1, 1272, -1, 1274, -1, -1, -1, 1278, 1279, 1280, 1281, -1, 1283, -1, 1285, -1, -1, 1288, -1, 1290, 1291, 1292, 1293, -1, -1, 1296, 1297, 1298, 1299, -1, -1, 1302, 1303, -1, -1, 1306, -1, 1308, -1, 1310, -1, -1, -1, 1314, -1, 1316, -1, -1, -1, -1, -1, 1322, -1, 1324, -1, -1, 1327, -1, 1329, -1, 1331, 1332, -1, -1, -1, -1, 1337, -1, 1339, -1, -1, 1342, 1343, 1344, -1, 1346, 1347, 1348, -1, 1350, -1, -1, -1, -1, -1, 1356, 1357, 1358, -1, 1360, -1, -1, -1, 1364, -1, 1366, -1, -1, 1369, 1370, -1, 1372, 1373, 1374, 1375, 1376, -1, -1, -1, -1, -1, -1, 1383, 1384, -1, -1, 1387, 1388, -1, -1, -1, 1392, 1393, 1394, -1, 1396, 1397, 1398, -1, -1, -1, 1402, -1, 1404, 1405, -1, 1407, -1, 1409, 1410, -1, -1, -1, -1, -1, 1416, 1417, -1, -1, 1420, 1421, -1, 1423, -1, -1, -1, 1427, 1428, -1, 1430, 1431, -1, -1, -1, 1435, 1436, -1, 1438, -1, 1440, 1441, -1, -1, -1, 1445, -1, -1, 1448, 1449, 1450, 1451, 1452, 1453, -1, -1, 1456, 1457, 1458, -1, 1460, -1, 1462, -1, 1464, 1465, 1466, -1, 1468, 1469, -1, 1471, 1472, -1, -1, -1, -1, -1, -1, 1479, 1480, 1481, 1482, 1483, -1, -1, -1, -1, 1488, 1489, 1490, -1, 1492, -1, 1494, -1, 1496, -1, -1, 1499, -1, 1501, -1, 1503, 1504, -1, 1506, 1507, -1, -1, -1, -1, -1, 1513, -1, -1, 1516, -1, 1518, -1, -1, -1, 1522, 1523, 1524, -1, 1526, -1, -1, -1, -1, 1531, -1, 1533, -1, 1535, -1, 1537, -1, 1539, -1, -1, 1542, 1543, 1544, -1, 1546, -1, -1, 1549, -1, 1551, 1552, -1, -1, -1, 1556, -1, 1558, 1559, -1, -1, 1562, -1, -1, 1565, 1566, 1567, 1568, -1, -1, 1571, -1, 1573, 1574, -1, -1, -1, 1578, 1579, 1580, -1, 1582, 1583, 1584, 1585, -1, 1587, -1, -1, -1, -1, 1592, 1593, 1594, 1595, 1596, 1597, -1, -1, -1, -1, 1602, -1, 1604, -1, -1, 1607, 1608, 1609, -1, 1611, -1, -1, 1614, -1, -1, 1617, -1, -1, 1620, 1621, 1622, 1623, -1, 1625, 1626, -1, -1, -1, -1, -1, 1632, 1633, -1, 1635, -1, -1, -1, 1639, 1640, 1641, 1642, 1643, -1, 1645, 1646, -1, -1, 1649, -1, 1651, -1, -1, -1, 1655, 1656, 1657, 1658, -1, -1, -1, 1662, 1663, -1, 1665, -1, 1667, -1, 1669, -1, -1, 1672, -1, 1674, 1675, -1, -1, -1, -1, 1680, 1681, -1, -1, -1, 1685, 1686, 1687, 1688, 1689, -1, -1, 1692, 1693, -1, 1695, 1696, 1697, -1, 1699, -1, -1, -1, 1703, -1, -1, -1, 1707, 1708, 1709, 1710, -1, -1, 1713, 1714, -1, -1, -1, -1, 1719, 1720, 1721, -1, 1723, -1, -1, -1, 1727, -1, -1, 1730, 1731, -1, 1733, -1, -1, -1, 1737, 1738, 1739, 1740, 1741, -1, 1743, 1744, 1745, -1, -1, 1748, 1749, 1750, 1751, -1, 1753, 1754, -1, -1, -1, -1, -1, -1, 1761, -1, -1, -1, 1765, -1, -1, -1, 1769, -1, 1771, 1772, 1773, -1, -1, 1776, -1, -1, -1, 1780, 1781, 1782, 1783, -1, 1785, 1786, 1787, -1, -1, 1790, -1, 1792, -1, -1, 1795, -1, 1797, 1798, 1799, -1, 1801, 1802, 1803, 1804, -1, -1, -1, 1808, 1809, 1810, 1811, -1, 1813, -1, -1, 1816, 1817, -1, -1, -1, 1821, 1822, 1823, -1, 1825, 1826, -1, 1828, -1, 1830, -1, 1832, -1, -1, -1, -1, 1837, 1838, -1, -1, -1, -1, -1, -1, 1845, 1846, 1847, 1848, 1849, 1850, 1851, 1852, 1853, -1, 1855, -1, 1857, -1, 1859, -1, -1, -1, -1, 1864, -1, 1866, -1, 1868, -1, -1, -1, -1, -1, 1874, 1875, -1, 1877, -1, -1, -1, 1881, -1, 1883, -1, -1, 1886, -1, 1888, -1, -1, 1891, -1, -1, 1894, 1895, -1, -1, -1, 1899, 1900, -1, 1902, 1903, 1904, 1905, 1906, 1907, 1908, -1, 1910, 1911, 1912, -1, 1914, -1, -1, 1917, -1, -1, -1, 1921, -1, 1923, -1, 1925, -1, -1, 1928, 1929, 1930, 1931, 1932, -1, 1934, -1, -1, -1, -1, 1939, 1940, 1941, -1, 1943, -1, -1, 1946, -1, 1948, -1, 1950, -1, -1, 1953, 1954, 1955, -1, -1, -1, 1959, 1960, -1, 1962, -1, -1, -1, 1966, 1967, 1968, -1, 1970, -1, 1972, -1, -1, -1, 1976, -1, -1, 1979, 1980, 1981, -1, 1983, -1, 1985, 1986, -1, 1988, -1, 1990, 1991, -1, -1, -1, -1, -1, -1, 1998, -1, 2000, -1, 2002, -1, -1, 2005, -1, 2007, -1, 2009, 2010, 2011, 2012, -1, 2014, -1, -1, 2017, -1, -1, -1, -1, -1, 2023, 2024, 2025, 2026, -1, 2028, -1, -1, 2031, 2032, 2033, 2034, -1, -1, -1, -1, -1, 2040, -1, 2042, -1, 2044, -1, -1, 2047, -1, 2049, 2050, -1, 2052, 2053, 2054, -1, -1, -1, -1, 2059, 2060, -1, -1, 2063, -1, -1], "children_right": [1564, 225, 152, 23, 22, 21, 8, -1, 16, 11, -1, 13, -1, 15, -1, -1, 18, -1, 20, -1, -1, -1, -1, 45, 40, 33, 28, -1, 30, -1, 32, -1, -1, 39, 38, 37, -1, -1, -1, -1, 42, -1, 44, -1, -1, 69, 52, 51, 50, -1, -1, -1, 54, -1, 56, -1, 68, 67, 66, 65, 64, 63, -1, -1, -1, -1, -1, -1, -1, 147, 142, 85, 82, 81, 80, 77, -1, 79, -1, -1, -1, -1, 84, -1, -1, 87, -1, 97, 90, -1, 92, -1, 94, -1, 96, -1, -1, 99, -1, 139, 130, 109, 108, 107, 106, -1, -1, -1, -1, 111, -1, 113, -1, 115, -1, 117, -1, 119, -1, 129, 126, 123, -1, 125, -1, -1, 128, -1, -1, -1, 132, -1, 134, -1, 138, 137, -1, -1, -1, 141, -1, -1, 144, -1, 146, -1, -1, 151, 150, -1, -1, -1, 198, 197, 184, 183, 160, 159, -1, -1, 162, -1, 178, 177, 176, 173, 168, -1, 172, 171, -1, -1, -1, 175, -1, -1, -1, -1, 180, -1, 182, -1, -1, -1, 196, 187, -1, 195, 190, -1, 194, 193, -1, -1, -1, -1, -1, -1, 212, 201, -1, 211, 208, 207, 206, -1, -1, -1, 210, -1, -1, -1, 222, 221, 216, -1, 220, 219, -1, -1, -1, -1, 224, -1, -1, 1143, 970, 965, 472, 441, 394, 305, 278, 273, 248, 241, 238, -1, 240, -1, -1, 247, 246, 245, -1, -1, -1, -1, 250, -1, 268, 267, 254, -1, 264, 263, 262, 259, -1, 261, -1, -1, -1, -1, 266, -1, -1, -1, 272, 271, -1, -1, -1, 275, -1, 277, -1, -1, 288, 281, -1, 287, 286, 285, -1, -1, -1, -1, 290, -1, 300, 293, -1, 299, 298, 297, -1, -1, -1, -1, 304, 303, -1, -1, -1, 389, 382, 377, 366, 353, 322, 317, 314, -1, 316, -1, -1, 319, -1, 321, -1, -1, 352, 325, -1, 351, 328, -1, 330, -1, 346, 345, 340, 339, 338, 337, -1, -1, -1, -1, 344, 343, -1, -1, -1, -1, 348, -1, 350, -1, -1, -1, -1, 355, -1, 359, 358, -1, -1, 365, 364, 363, -1, -1, -1, -1, 376, 371, 370, -1, -1, 375, 374, -1, -1, -1, -1, 379, -1, 381, -1, -1, 388, 387, 386, -1, -1, -1, -1, 391, -1, 393, -1, -1, 396, -1, 402, 399, -1, 401, -1, -1, 408, 407, 406, -1, -1, -1, 426, 423, 412, -1, 422, 421, 420, 419, 418, -1, -1, -1, -1, -1, -1, 425, -1, -1, 432, 429, -1, 431, -1, -1, 440, 439, 436, -1, 438, -1, -1, -1, -1, 453, 452, 451, 446, -1, 450, 449, -1, -1, -1, -1, -1, 467, 464, 463, 460, 459, -1, -1, 462, -1, -1, -1, 466, -1, -1, 471, 470, -1, -1, -1, 662, 519, 500, 489, 484, 479, -1, 483, 482, -1, -1, -1, 486, -1, 488, -1, -1, 497, 496, 495, 494, -1, -1, -1, -1, 499, -1, -1, 508, 507, 504, -1, 506, -1, -1, -1, 516, 511, -1, 513, -1, 515, -1, -1, 518, -1, -1, 561, 546, 523, -1, 545, 530, 529, 528, -1, -1, -1, 532, -1, 534, -1, 544, 543, 542, 539, -1, 541, -1, -1, -1, -1, -1, -1, 548, -1, 560, 551, -1, 559, 554, -1, 556, -1, 558, -1, -1, -1, -1, 657, 640, 595, 566, -1, 594, 575, 570, -1, 572, -1, 574, -1, -1, 581, 578, -1, 580, -1, -1, 585, 584, -1, -1, 587, -1, 589, -1, 591, -1, 593, -1, -1, -1, 629, 598, -1, 628, 627, 602, -1, 604, -1, 622, 615, 608, -1, 614, 613, 612, -1, -1, -1, -1, 617, -1, 619, -1, 621, -1, -1, 626, 625, -1, -1, -1, -1, -1, 639, 636, 635, 634, -1, -1, -1, 638, -1, -1, -1, 642, -1, 644, -1, 656, 647, -1, 649, -1, 655, 654, 653, -1, -1, -1, -1, -1, 659, -1, 661, -1, -1, 704, 703, 694, 669, 668, -1, -1, 673, 672, -1, -1, 689, 680, 679, 678, -1, -1, -1, 688, 683, -1, 685, -1, 687, -1, -1, -1, 691, -1, 693, -1, -1, 696, -1, 700, 699, -1, -1, 702, -1, -1, -1, 750, 707, -1, 727, 724, 723, 716, 715, 714, -1, -1, -1, 722, 721, 720, -1, -1, -1, -1, -1, 726, -1, -1, 741, 730, -1, 732, -1, 740, 735, -1, 737, -1, 739, -1, -1, -1, 749, 748, 745, -1, 747, -1, -1, -1, -1, 868, 757, 756, 755, -1, -1, -1, 843, 820, 777, 770, 769, 764, -1, 768, 767, -1, -1, -1, -1, 776, 775, 774, -1, -1, -1, -1, 819, 802, 781, -1, 785, 784, -1, -1, 793, 792, 789, -1, 791, -1, -1, -1, 795, -1, 801, 800, 799, -1, -1, -1, -1, 804, -1, 818, 817, 816, 809, -1, 811, -1, 813, -1, 815, -1, -1, -1, -1, -1, -1, 830, 829, 828, 825, -1, 827, -1, -1, -1, -1, 834, 833, -1, -1, 838, 837, -1, -1, 842, 841, -1, -1, -1, 859, 846, -1, 858, 849, -1, 851, -1, 857, 856, 855, -1, -1, -1, -1, -1, 867, 862, -1, 866, 865, -1, -1, -1, -1, 876, 875, 874, 873, -1, -1, -1, -1, 884, 881, 880, -1, -1, 883, -1, -1, 964, 945, 914, 891, 890, -1, -1, 913, 898, 897, 896, -1, -1, -1, 904, 903, 902, -1, -1, -1, 912, 907, -1, 911, 910, -1, -1, -1, -1, -1, 944, 917, -1, 921, 920, -1, -1, 943, 924, -1, 932, 931, 930, 929, -1, -1, -1, -1, 942, 941, 938, 937, -1, -1, 940, -1, -1, -1, -1, -1, -1, 953, 952, 951, 950, -1, -1, -1, -1, 955, -1, 963, 958, -1, 962, 961, -1, -1, -1, -1, -1, 967, -1, 969, -1, -1, 1076, 979, 976, 975, -1, -1, 978, -1, -1, 1057, 1008, 1005, 984, -1, 990, 989, 988, -1, -1, -1, 994, 993, -1, -1, 996, -1, 998, -1, 1000, -1, 1002, -1, 1004, -1, -1, 1007, -1, -1, 1024, 1023, 1012, -1, 1020, 1019, 1016, -1, 1018, -1, -1, -1, 1022, -1, -1, -1, 1054, 1045, 1044, 1037, 1030, -1, 1032, -1, 1036, 1035, -1, -1, -1, 1043, 1040, -1, 1042, -1, -1, -1, -1, 1053, 1048, -1, 1050, -1, 1052, -1, -1, -1, 1056, -1, -1, 1065, 1064, 1061, -1, 1063, -1, -1, -1, 1075, 1072, 1069, -1, 1071, -1, -1, 1074, -1, -1, -1, 1078, -1, 1098, 1081, -1, 1093, 1084, -1, 1092, 1087, -1, 1091, 1090, -1, -1, -1, -1, 1095, -1, 1097, -1, -1, 1114, 1101, -1, 1103, -1, 1113, 1106, -1, 1112, 1109, -1, 1111, -1, -1, -1, -1, 1132, 1131, 1120, 1119, -1, -1, 1130, 1123, -1, 1125, -1, 1129, 1128, -1, -1, -1, -1, -1, 1142, 1135, -1, 1141, 1140, 1139, -1, -1, -1, -1, -1, 1447, 1426, 1151, 1148, -1, 1150, -1, -1, 1391, 1368, 1185, 1184, 1179, 1176, 1175, 1160, -1, 1162, -1, 1174, 1173, 1172, 1171, 1168, -1, 1170, -1, -1, -1, -1, -1, -1, -1, 1178, -1, -1, 1183, 1182, -1, -1, -1, -1, 1219, 1206, 1189, -1, 1205, 1194, 1193, -1, -1, 1196, -1, 1204, 1203, 1202, 1201, -1, -1, -1, -1, -1, -1, 1214, 1211, 1210, -1, -1, 1213, -1, -1, 1218, 1217, -1, -1, -1, 1341, 1234, 1227, 1226, 1225, -1, -1, -1, 1231, 1230, -1, -1, 1233, -1, -1, 1336, 1335, 1326, 1277, 1250, 1241, -1, 1249, 1248, 1247, 1246, -1, -1, -1, -1, -1, 1252, -1, 1256, 1255, -1, -1, 1258, -1, 1260, -1, 1262, -1, 1266, 1265, -1, -1, 1276, 1269, -1, 1271, -1, 1273, -1, 1275, -1, -1, -1, 1321, 1320, 1287, 1282, -1, 1284, -1, 1286, -1, -1, 1289, -1, 1319, 1318, 1295, 1294, -1, -1, 1313, 1312, 1301, 1300, -1, -1, 1305, 1304, -1, -1, 1307, -1, 1309, -1, 1311, -1, -1, -1, 1315, -1, 1317, -1, -1, -1, -1, -1, 1323, -1, 1325, -1, -1, 1328, -1, 1330, -1, 1334, 1333, -1, -1, -1, -1, 1338, -1, 1340, -1, -1, 1355, 1354, 1345, -1, 1353, 1352, 1349, -1, 1351, -1, -1, -1, -1, -1, 1363, 1362, 1359, -1, 1361, -1, -1, -1, 1365, -1, 1367, -1, -1, 1382, 1371, -1, 1381, 1380, 1379, 1378, 1377, -1, -1, -1, -1, -1, -1, 1386, 1385, -1, -1, 1390, 1389, -1, -1, -1, 1415, 1414, 1395, -1, 1401, 1400, 1399, -1, -1, -1, 1403, -1, 1413, 1406, -1, 1408, -1, 1412, 1411, -1, -1, -1, -1, -1, 1419, 1418, -1, -1, 1425, 1422, -1, 1424, -1, -1, -1, 1434, 1429, -1, 1433, 1432, -1, -1, -1, 1444, 1437, -1, 1439, -1, 1443, 1442, -1, -1, -1, 1446, -1, -1, 1541, 1530, 1521, 1520, 1455, 1454, -1, -1, 1515, 1478, 1459, -1, 1461, -1, 1463, -1, 1477, 1476, 1467, -1, 1475, 1470, -1, 1474, 1473, -1, -1, -1, -1, -1, -1, 1512, 1487, 1486, 1485, 1484, -1, -1, -1, -1, 1511, 1498, 1491, -1, 1493, -1, 1495, -1, 1497, -1, -1, 1500, -1, 1502, -1, 1510, 1505, -1, 1509, 1508, -1, -1, -1, -1, -1, 1514, -1, -1, 1517, -1, 1519, -1, -1, -1, 1529, 1528, 1525, -1, 1527, -1, -1, -1, -1, 1532, -1, 1534, -1, 1536, -1, 1538, -1, 1540, -1, -1, 1555, 1548, 1545, -1, 1547, -1, -1, 1550, -1, 1554, 1553, -1, -1, -1, 1557, -1, 1561, 1560, -1, -1, 1563, -1, -1, 1898, 1577, 1570, 1569, -1, -1, 1572, -1, 1576, 1575, -1, -1, -1, 1779, 1638, 1581, -1, 1591, 1590, 1589, 1586, -1, 1588, -1, -1, -1, -1, 1619, 1606, 1601, 1600, 1599, 1598, -1, -1, -1, -1, 1603, -1, 1605, -1, -1, 1616, 1613, 1610, -1, 1612, -1, -1, 1615, -1, -1, 1618, -1, -1, 1631, 1630, 1629, 1624, -1, 1628, 1627, -1, -1, -1, -1, -1, 1637, 1634, -1, 1636, -1, -1, -1, 1684, 1679, 1654, 1653, 1644, -1, 1648, 1647, -1, -1, 1650, -1, 1652, -1, -1, -1, 1678, 1661, 1660, 1659, -1, -1, -1, 1671, 1664, -1, 1666, -1, 1668, -1, 1670, -1, -1, 1673, -1, 1677, 1676, -1, -1, -1, -1, 1683, 1682, -1, -1, -1, 1736, 1729, 1706, 1691, 1690, -1, -1, 1705, 1694, -1, 1702, 1701, 1698, -1, 1700, -1, -1, -1, 1704, -1, -1, -1, 1718, 1717, 1712, 1711, -1, -1, 1716, 1715, -1, -1, -1, -1, 1726, 1725, 1722, -1, 1724, -1, -1, -1, 1728, -1, -1, 1735, 1732, -1, 1734, -1, -1, -1, 1768, 1767, 1764, 1763, 1742, -1, 1760, 1747, 1746, -1, -1, 1759, 1758, 1757, 1752, -1, 1756, 1755, -1, -1, -1, -1, -1, -1, 1762, -1, -1, -1, 1766, -1, -1, -1, 1770, -1, 1778, 1775, 1774, -1, -1, 1777, -1, -1, -1, 1893, 1890, 1885, 1784, -1, 1794, 1789, 1788, -1, -1, 1791, -1, 1793, -1, -1, 1796, -1, 1844, 1843, 1800, -1, 1842, 1807, 1806, 1805, -1, -1, -1, 1841, 1820, 1815, 1812, -1, 1814, -1, -1, 1819, 1818, -1, -1, -1, 1836, 1835, 1824, -1, 1834, 1827, -1, 1829, -1, 1831, -1, 1833, -1, -1, -1, -1, 1840, 1839, -1, -1, -1, -1, -1, -1, 1880, 1873, 1872, 1871, 1870, 1863, 1862, 1861, 1854, -1, 1856, -1, 1858, -1, 1860, -1, -1, -1, -1, 1865, -1, 1867, -1, 1869, -1, -1, -1, -1, -1, 1879, 1876, -1, 1878, -1, -1, -1, 1882, -1, 1884, -1, -1, 1887, -1, 1889, -1, -1, 1892, -1, -1, 1897, 1896, -1, -1, -1, 2022, 1901, -1, 2021, 2004, 1997, 1978, 1927, 1920, 1909, -1, 1919, 1916, 1913, -1, 1915, -1, -1, 1918, -1, -1, -1, 1922, -1, 1924, -1, 1926, -1, -1, 1965, 1938, 1937, 1936, 1933, -1, 1935, -1, -1, -1, -1, 1952, 1945, 1942, -1, 1944, -1, -1, 1947, -1, 1949, -1, 1951, -1, -1, 1958, 1957, 1956, -1, -1, -1, 1964, 1961, -1, 1963, -1, -1, -1, 1975, 1974, 1969, -1, 1971, -1, 1973, -1, -1, -1, 1977, -1, -1, 1996, 1995, 1982, -1, 1984, -1, 1994, 1987, -1, 1989, -1, 1993, 1992, -1, -1, -1, -1, -1, -1, 1999, -1, 2001, -1, 2003, -1, -1, 2006, -1, 2008, -1, 2020, 2019, 2016, 2013, -1, 2015, -1, -1, 2018, -1, -1, -1, -1, -1, 2046, 2039, 2030, 2027, -1, 2029, -1, -1, 2038, 2037, 2036, 2035, -1, -1, -1, -1, -1, 2041, -1, 2043, -1, 2045, -1, -1, 2048, -1, 2058, 2051, -1, 2057, 2056, 2055, -1, -1, -1, -1, 2062, 2061, -1, -1, 2064, -1, -1], "feature": [0, 7, 2, 0, 6, 4, 1, -2, 3, 6, -2, 7, -2, 7, -2, -2, 3, -2, 3, -2, -2, -2, -2, 1, 5, 6, 3, -2, 6, -2, 4, -2, -2, 5, 1, 7, -2, -2, -2, -2, 6, -2, 5, -2, -2, 6, 2, 1, 3, -2, -2, -2, 0, -2, 0, -2, 6, 6, 5, 4, 3, 2, -2, -2, -2, -2, -2, -2, -2, 1, 5, 5, 5, 1, 6, 0, -2, 0, -2, -2, -2, -2, 7, -2, -2, 0, -2, 3, 0, -2, 6, -2, 6, -2, 0, -2, -2, 3, -2, 3, 2, 1, 2, 3, 4, -2, -2, -2, -2, 7, -2, 6, -2, 6, -2, 7, -2, 3, -2, 0, 5, 0, -2, 4, -2, -2, 2, -2, -2, -2, 3, -2, 6, -2, 0, 5, -2, -2, -2, 6, -2, -2, 2, -2, 7, -2, -2, 4, 2, -2, -2, -2, 2, 1, 2, 3, 1, 4, -2, -2, 2, -2, 4, 5, 7, 6, 5, -2, 1, 2, -2, -2, -2, 5, -2, -2, -2, -2, 5, -2, 2, -2, -2, -2, 6, 0, -2, 0, 5, -2, 2, 0, -2, -2, -2, -2, -2, -2, 2, 2, -2, 6, 6, 6, 6, -2, -2, -2, 2, -2, -2, -2, 1, 7, 7, -2, 2, 3, -2, -2, -2, -2, 4, -2, -2, 5, 5, 6, 6, 2, 4, 6, 5, 7, 1, 2, 7, -2, 6, -2, -2, 0, 5, 5, -2, -2, -2, -2, 5, -2, 0, 7, 0, -2, 1, 5, 1, 6, -2, 4, -2, -2, -2, -2, 7, -2, -2, -2, 5, 1, -2, -2, -2, 5, -2, 5, -2, -2, 4, 6, -2, 6, 2, 7, -2, -2, -2, -2, 7, -2, 6, 5, -2, 5, 0, 1, -2, -2, -2, -2, 3, 3, -2, -2, -2, 0, 0, 3, 6, 1, 5, 7, 0, -2, 6, -2, -2, 7, -2, 3, -2, -2, 1, 1, -2, 7, 6, -2, 7, -2, 3, 3, 2, 2, 4, 7, -2, -2, -2, -2, 5, 7, -2, -2, -2, -2, 1, -2, 0, -2, -2, -2, -2, 0, -2, 3, 3, -2, -2, 0, 3, 0, -2, -2, -2, -2, 5, 7, 2, -2, -2, 2, 3, -2, -2, -2, -2, 6, -2, 5, -2, -2, 1, 4, 5, -2, -2, -2, -2, 4, -2, 6, -2, -2, 7, -2, 5, 7, -2, 4, -2, -2, 7, 0, 0, -2, -2, -2, 4, 3, 0, -2, 4, 1, 1, 2, 3, -2, -2, -2, -2, -2, -2, 0, -2, -2, 0, 4, -2, 2, -2, -2, 7, 3, 3, -2, 1, -2, -2, -2, -2, 6, 2, 5, 2, -2, 4, 5, -2, -2, -2, -2, -2, 2, 0, 3, 6, 1, -2, -2, 6, -2, -2, -2, 2, -2, -2, 0, 0, -2, -2, -2, 6, 2, 0, 7, 7, 1, -2, 7, 2, -2, -2, -2, 0, -2, 0, -2, -2, 0, 3, 1, 2, -2, -2, -2, -2, 5, -2, -2, 5, 7, 6, -2, 2, -2, -2, -2, 0, 4, -2, 7, -2, 6, -2, -2, 4, -2, -2, 6, 2, 3, -2, 7, 3, 3, 6, -2, -2, -2, 3, -2, 1, -2, 6, 3, 3, 1, -2, 6, -2, -2, -2, -2, -2, -2, 6, -2, 3, 5, -2, 6, 1, -2, 4, -2, 1, -2, -2, -2, -2, 0, 4, 2, 6, -2, 7, 0, 6, -2, 1, -2, 5, -2, -2, 3, 0, -2, 4, -2, -2, 3, 5, -2, -2, 0, -2, 2, -2, 7, -2, 1, -2, -2, -2, 4, 3, -2, 7, 4, 1, -2, 1, -2, 3, 2, 4, -2, 0, 4, 6, -2, -2, -2, -2, 0, -2, 1, -2, 7, -2, -2, 7, 0, -2, -2, -2, -2, -2, 3, 3, 2, 3, -2, -2, -2, 2, -2, -2, -2, 4, -2, 6, -2, 7, 6, -2, 0, -2, 4, 4, 2, -2, -2, -2, -2, -2, 4, -2, 4, -2, -2, 1, 7, 3, 2, 0, -2, -2, 3, 0, -2, -2, 3, 1, 5, 5, -2, -2, -2, 2, 2, -2, 4, -2, 7, -2, -2, -2, 7, -2, 2, -2, -2, 4, -2, 3, 4, -2, -2, 6, -2, -2, -2, 6, 2, -2, 0, 7, 6, 6, 0, 0, -2, -2, -2, 0, 4, 4, -2, -2, -2, -2, -2, 5, -2, -2, 7, 0, -2, 2, -2, 4, 7, -2, 2, -2, 7, -2, -2, -2, 2, 2, 3, -2, 2, -2, -2, -2, -2, 5, 5, 2, 7, -2, -2, -2, 1, 0, 7, 0, 6, 3, -2, 2, 4, -2, -2, -2, -2, 0, 7, 6, -2, -2, -2, -2, 4, 7, 6, -2, 2, 0, -2, -2, 4, 6, 7, -2, 5, -2, -2, -2, 4, -2, 1, 7, 5, -2, -2, -2, -2, 2, -2, 6, 7, 3, 7, -2, 7, -2, 3, -2, 6, -2, -2, -2, -2, -2, -2, 0, 7, 7, 0, -2, 7, -2, -2, -2, -2, 5, 0, -2, -2, 7, 6, -2, -2, 5, 7, -2, -2, -2, 7, 2, -2, 3, 2, -2, 2, -2, 3, 7, 7, -2, -2, -2, -2, -2, 6, 3, -2, 1, 0, -2, -2, -2, -2, 4, 0, 1, 3, -2, -2, -2, -2, 6, 5, 0, -2, -2, 0, -2, -2, 4, 0, 0, 4, 1, -2, -2, 2, 4, 4, 6, -2, -2, -2, 6, 6, 6, -2, -2, -2, 4, 2, -2, 5, 3, -2, -2, -2, -2, -2, 7, 6, -2, 3, 1, -2, -2, 7, 5, -2, 6, 2, 0, 0, -2, -2, -2, -2, 7, 7, 0, 4, -2, -2, 4, -2, -2, -2, -2, -2, -2, 0, 7, 7, 6, -2, -2, -2, -2, 7, -2, 3, 6, -2, 4, 7, -2, -2, -2, -2, -2, 4, -2, 0, -2, -2, 3, 3, 6, 4, -2, -2, 0, -2, -2, 5, 5, 6, 4, -2, 5, 0, 3, -2, -2, -2, 0, 2, -2, -2, 0, -2, 5, -2, 5, -2, 3, -2, 1, -2, -2, 0, -2, -2, 3, 7, 2, -2, 3, 6, 7, -2, 3, -2, -2, -2, 5, -2, -2, -2, 2, 7, 4, 0, 4, -2, 5, -2, 6, 7, -2, -2, -2, 5, 5, -2, 5, -2, -2, -2, -2, 4, 7, -2, 4, -2, 2, -2, -2, -2, 5, -2, -2, 4, 3, 3, -2, 7, -2, -2, -2, 7, 3, 6, -2, 6, -2, -2, 7, -2, -2, -2, 6, -2, 7, 3, -2, 3, 0, -2, 5, 0, -2, 6, 1, -2, -2, -2, -2, 5, -2, 2, -2, -2, 6, 0, -2, 0, -2, 7, 3, -2, 2, 0, -2, 0, -2, -2, -2, -2, 5, 4, 6, 1, -2, -2, 7, 6, -2, 4, -2, 0, 1, -2, -2, -2, -2, -2, 6, 1, -2, 3, 0, 4, -2, -2, -2, -2, -2, 2, 7, 6, 2, -2, 3, -2, -2, 0, 0, 5, 3, 1, 0, 0, 0, -2, 5, -2, 3, 4, 7, 0, 2, -2, 3, -2, -2, -2, -2, -2, -2, -2, 2, -2, -2, 4, 0, -2, -2, -2, -2, 7, 2, 2, -2, 7, 0, 7, -2, -2, 3, -2, 6, 6, 1, 0, -2, -2, -2, -2, -2, -2, 3, 7, 7, -2, -2, 5, -2, -2, 2, 4, -2, -2, -2, 4, 0, 5, 3, 3, -2, -2, -2, 5, 0, -2, -2, 5, -2, -2, 6, 1, 5, 1, 5, 5, -2, 3, 1, 3, 3, -2, -2, -2, -2, -2, 6, -2, 0, 3, -2, -2, 5, -2, 4, -2, 4, -2, 4, 5, -2, -2, 7, 4, -2, 7, -2, 4, -2, 0, -2, -2, -2, 0, 4, 7, 2, -2, 0, -2, 0, -2, -2, 7, -2, 0, 0, 6, 6, -2, -2, 4, 3, 6, 1, -2, -2, 6, 2, -2, -2, 6, -2, 4, -2, 2, -2, -2, -2, 3, -2, 1, -2, -2, -2, -2, -2, 0, -2, 0, -2, -2, 3, -2, 3, -2, 6, 7, -2, -2, -2, -2, 6, -2, 6, -2, -2, 3, 4, 1, -2, 7, 4, 7, -2, 7, -2, -2, -2, -2, -2, 2, 4, 0, -2, 3, -2, -2, -2, 3, -2, 3, -2, -2, 0, 1, -2, 6, 0, 0, 5, 6, -2, -2, -2, -2, -2, -2, 6, 3, -2, -2, 1, 4, -2, -2, -2, 7, 1, 6, -2, 6, 7, 2, -2, -2, -2, 5, -2, 6, 4, -2, 6, -2, 6, 0, -2, -2, -2, -2, -2, 4, 2, -2, -2, 6, 0, -2, 5, -2, -2, -2, 0, 7, -2, 5, 1, -2, -2, -2, 0, 1, -2, 0, -2, 7, 2, -2, -2, -2, 1, -2, -2, 1, 6, 2, 7, 6, 5, -2, -2, 1, 2, 5, -2, 7, -2, 0, -2, 1, 4, 1, -2, 5, 0, -2, 1, 7, -2, -2, -2, -2, -2, -2, 0, 0, 5, 1, 0, -2, -2, -2, -2, 4, 0, 6, -2, 6, -2, 2, -2, 0, -2, -2, 0, -2, 3, -2, 2, 7, -2, 3, 0, -2, -2, -2, -2, -2, 0, -2, -2, 5, -2, 5, -2, -2, -2, 1, 4, 7, -2, 0, -2, -2, -2, -2, 0, -2, 4, -2, 2, -2, 3, -2, 0, -2, -2, 5, 0, 3, -2, 4, -2, -2, 3, -2, 5, 1, -2, -2, -2, 1, -2, 2, 3, -2, -2, 4, -2, -2, 0, 7, 5, 3, -2, -2, 4, -2, 0, 6, -2, -2, -2, 0, 2, 7, -2, 6, 0, 0, 4, -2, 3, -2, -2, -2, -2, 7, 7, 3, 0, 1, 6, -2, -2, -2, -2, 3, -2, 7, -2, -2, 0, 3, 1, -2, 3, -2, -2, 4, -2, -2, 1, -2, -2, 5, 0, 6, 4, -2, 0, 7, -2, -2, -2, -2, -2, 0, 6, -2, 3, -2, -2, -2, 6, 1, 6, 0, 7, -2, 3, 4, -2, -2, 0, -2, 7, -2, -2, -2, 1, 2, 1, 1, -2, -2, -2, 3, 7, -2, 6, -2, 1, -2, 5, -2, -2, 4, -2, 3, 6, -2, -2, -2, -2, 5, 7, -2, -2, -2, 0, 6, 0, 0, 0, -2, -2, 5, 5, -2, 7, 7, 0, -2, 0, -2, -2, -2, 0, -2, -2, -2, 6, 6, 7, 0, -2, -2, 5, 6, -2, -2, -2, -2, 0, 0, 2, -2, 5, -2, -2, -2, 7, -2, -2, 5, 7, -2, 7, -2, -2, -2, 1, 0, 7, 7, 6, -2, 7, 1, 4, -2, -2, 6, 2, 0, 0, -2, 5, 4, -2, -2, -2, -2, -2, -2, 0, -2, -2, -2, 7, -2, -2, -2, 5, -2, 4, 0, 2, -2, -2, 1, -2, -2, -2, 6, 6, 6, 3, -2, 4, 1, 1, -2, -2, 6, -2, 5, -2, -2, 6, -2, 3, 7, 1, -2, 6, 6, 6, 0, -2, -2, -2, 7, 4, 1, 3, -2, 3, -2, -2, 3, 0, -2, -2, -2, 1, 0, 5, -2, 1, 5, -2, 5, -2, 0, -2, 6, -2, -2, -2, -2, 6, 7, -2, -2, -2, -2, -2, -2, 1, 6, 6, 6, 3, 0, 0, 3, 6, -2, 0, -2, 1, -2, 1, -2, -2, -2, -2, 5, -2, 4, -2, 3, -2, -2, -2, -2, -2, 6, 2, -2, 2, -2, -2, -2, 2, -2, 6, -2, -2, 0, -2, 7, -2, -2, 4, -2, -2, 5, 4, -2, -2, -2, 5, 7, -2, 7, 5, 0, 6, 2, 3, 4, -2, 5, 6, 6, -2, 4, -2, -2, 0, -2, -2, -2, 1, -2, 2, -2, 1, -2, -2, 3, 7, 7, 2, 7, -2, 6, -2, -2, -2, -2, 3, 7, 4, -2, 7, -2, -2, 1, -2, 4, -2, 0, -2, -2, 3, 0, 0, -2, -2, -2, 5, 6, -2, 3, -2, -2, -2, 2, 4, 3, -2, 7, -2, 7, -2, -2, -2, 4, -2, -2, 5, 4, 1, -2, 6, -2, 7, 6, -2, 3, -2, 4, 6, -2, -2, -2, -2, -2, -2, 6, -2, 5, -2, 0, -2, -2, 1, -2, 7, -2, 0, 0, 5, 6, -2, 3, -2, -2, 0, -2, -2, -2, -2, -2, 7, 2, 0, 4, -2, 6, -2, -2, 7, 6, 5, 0, -2, -2, -2, -2, -2, 6, -2, 0, -2, 3, -2, -2, 1, -2, 0, 2, -2, 5, 7, 7, -2, -2, -2, -2, 1, 0, -2, -2, 6, -2, -2], "threshold": [0.6111602783203125, -0.961178332567215, -0.7042957544326782, -2.3015228509902954, 0.8986989855766296, 2.0184597969055176, -1.3753327131271362, -2.0, 1.6234358549118042, 0.483849436044693, -2.0, -1.0491300225257874, -2.0, -1.0054208040237427, -2.0, -2.0, 4.8959057331085205, -2.0, 4.917769432067871, -2.0, -2.0, -2.0, -2.0, -1.2296395301818848, 1.079348623752594, 0.7970240414142609, 1.2055121660232544, -2.0, 0.6547808051109314, -2.0, 1.8536750078201294, -2.0, -2.0, 1.0680544972419739, -1.2485615015029907, -0.9614309668540955, -2.0, -2.0, -2.0, -2.0, 0.7963422238826752, -2.0, 1.0839972496032715, -2.0, -2.0, 0.41540825366973877, -1.1299768090248108, -1.0496577620506287, 1.2644979357719421, -2.0, -2.0, -2.0, -0.9195998311042786, -2.0, -0.8728970885276794, -2.0, 0.414676696062088, 0.36715736985206604, 1.0019769072532654, 0.8141390085220337, 0.6633533835411072, -0.8293165266513824, -2.0, -2.0, -2.0, -2.0, -2.0, -2.0, -2.0, -0.7776186466217041, 1.0513847470283508, 1.001471996307373, 1.0007033944129944, -0.7834648489952087, 0.7558778822422028, -0.018046177923679352, -2.0, 0.17580333352088928, -2.0, -2.0, -2.0, -2.0, -1.0636693835258484, -2.0, -2.0, -1.977979600429535, -2.0, 0.9108825623989105, -0.6028263866901398, -2.0, 0.5351653397083282, -2.0, 0.5609177649021149, -2.0, -0.5848525166511536, -2.0, -2.0, 0.917430967092514, -2.0, 1.3580852150917053, -1.2355939149856567, -1.125243067741394, -1.6059722900390625, 1.1466310024261475, 1.5914838314056396, -2.0, -2.0, -2.0, -2.0, -1.0342500805854797, -2.0, 0.6803277432918549, -2.0, 0.7522664070129395, -2.0, -1.0054666996002197, -2.0, 1.0743873715400696, -2.0, -1.6160447001457214, 1.0405575633049011, -1.755827248096466, -2.0, 1.3189136981964111, -2.0, -2.0, -1.5632750988006592, -2.0, -2.0, -2.0, 0.9775556921958923, -2.0, 0.7300569117069244, -2.0, -1.6015453934669495, 1.0034720301628113, -2.0, -2.0, -2.0, 0.9006378948688507, -2.0, -2.0, -1.7361288666725159, -2.0, -1.0053135454654694, -2.0, -2.0, 0.766578882932663, -0.7751323878765106, -2.0, -2.0, -2.0, -0.12710531800985336, -0.1643662378191948, -0.3548020273447037, 0.9668215811252594, -0.6658434271812439, 0.6857969462871552, -2.0, -2.0, -0.6836967170238495, -2.0, 0.5788529813289642, 0.9673199653625488, -1.085766077041626, 0.4184560924768448, 0.9543376863002777, -2.0, -0.5993684232234955, -0.45086538791656494, -2.0, -2.0, -2.0, 0.9553316235542297, -2.0, -2.0, -2.0, -2.0, 0.9743181765079498, -2.0, -0.6688308715820312, -2.0, -2.0, -2.0, 0.6255434453487396, 0.6052480936050415, -2.0, 0.6106504797935486, 0.9362166225910187, -2.0, -0.22549661993980408, 0.607958972454071, -2.0, -2.0, -2.0, -2.0, -2.0, -2.0, 0.9412951767444611, 0.42846977710723877, -2.0, 0.8168319165706635, 0.21209633350372314, 0.0536658838391304, 0.020029660081490874, -2.0, -2.0, -2.0, 0.8640583455562592, -2.0, -2.0, -2.0, 2.188309907913208, -1.092938482761383, -1.1293396353721619, -2.0, 1.7020759582519531, -0.8883947730064392, -2.0, -2.0, -2.0, -2.0, -1.3882449269294739, -2.0, -2.0, 0.21809087693691254, -0.4594927281141281, 1.548278033733368, -0.9771017730236053, -0.1704353392124176, 1.864815890789032, -1.5255204439163208, -0.5309560298919678, 0.8071610033512115, -0.5304360389709473, -1.4169718623161316, 0.7703585028648376, -2.0, -1.5346022248268127, -2.0, -2.0, 0.6085064709186554, -0.7667147219181061, -0.7946625053882599, -2.0, -2.0, -2.0, -2.0, -0.7251711785793304, -2.0, -0.20765917748212814, 0.8069206178188324, -1.0347979664802551, -2.0, -0.07887198403477669, -0.6254633367061615, -0.21929283440113068, -1.5340288877487183, -2.0, 1.6099076867103577, -2.0, -2.0, -2.0, -2.0, 0.7996415197849274, -2.0, -2.0, -2.0, -0.5861878991127014, -0.306948646903038, -2.0, -2.0, -2.0, -0.5584520697593689, -2.0, -0.542053610086441, -2.0, -2.0, 0.9791475534439087, -1.6031176447868347, -2.0, -1.5876241326332092, -0.5013236105442047, 0.7850708663463593, -2.0, -2.0, -2.0, -2.0, 0.7996378839015961, -2.0, -1.5570144653320312, -0.5201112329959869, -2.0, -0.4657767117023468, -0.24125031009316444, -0.01728899870067835, -2.0, -2.0, -2.0, -2.0, 0.1731451004743576, 0.14492801576852798, -2.0, -2.0, -2.0, 0.6047226786613464, 0.5483607947826385, 0.8718672394752502, -1.3104593753814697, -0.7980383634567261, -0.9329798519611359, 0.645931214094162, 0.07082378957420588, -2.0, -1.3241252899169922, -2.0, -2.0, 0.6901787221431732, -2.0, 0.6112910807132721, -2.0, -2.0, -0.8609510064125061, -1.25617253780365, -2.0, 0.7850306928157806, -1.513184905052185, -2.0, 0.6756007671356201, -2.0, 0.5779926180839539, 0.5356696248054504, -1.730503797531128, -1.7649005651474, 1.825582206249237, 0.704779326915741, -2.0, -2.0, -2.0, -2.0, -0.7996973693370819, 0.704628050327301, -2.0, -2.0, -2.0, -2.0, -1.1369478106498718, -2.0, 0.06856290902942419, -2.0, -2.0, -2.0, -2.0, -0.15713859349489212, -2.0, 0.3220558315515518, 0.26859810948371887, -2.0, -2.0, 0.24798953533172607, 0.5169478952884674, 0.2296604886651039, -2.0, -2.0, -2.0, -2.0, -1.1599759459495544, 0.6023946404457092, -0.8396181464195251, -2.0, -2.0, -0.7376159429550171, 0.6601129472255707, -2.0, -2.0, -2.0, -2.0, -1.2306325435638428, -2.0, -1.1834962368011475, -2.0, -2.0, -1.2502859830856323, 1.4973810911178589, -0.731723815202713, -2.0, -2.0, -2.0, -2.0, 1.4589937329292297, -2.0, -1.3331482410430908, -2.0, -2.0, 0.6095283627510071, -2.0, -1.0135769844055176, 0.6681777238845825, -2.0, 2.0301772356033325, -2.0, -2.0, 0.6680644750595093, -0.6652964055538177, -0.9752807915210724, -2.0, -2.0, -2.0, 1.9569381475448608, 0.816057950258255, -0.23329168558120728, -2.0, 1.922895073890686, -1.2579617500305176, -1.2908738851547241, -1.9661614894866943, 0.7212688624858856, -2.0, -2.0, -2.0, -2.0, -2.0, -2.0, 0.36950744688510895, -2.0, -2.0, -0.151835598051548, 2.077268362045288, -2.0, -2.1295820474624634, -2.0, -2.0, 0.7192447185516357, 0.8135864436626434, 0.7438184916973114, -2.0, -1.41824072599411, -2.0, -2.0, -2.0, -2.0, -1.0721878409385681, 0.6444267332553864, -1.3046594262123108, 0.24946802854537964, -2.0, -0.23099245131015778, -1.3538845777511597, -2.0, -2.0, -2.0, -2.0, -2.0, 1.338851511478424, -1.5760049223899841, -0.6919857561588287, -1.0407902002334595, 5.963022708892822, -2.0, -2.0, -0.9936618208885193, -2.0, -2.0, -2.0, 0.19748310465365648, -2.0, -2.0, -2.548884868621826, -2.5561790466308594, -2.0, -2.0, -2.0, -0.16265513747930527, 1.0839447379112244, 0.12057418748736382, 0.4707986116409302, 0.309931218624115, 0.9190449416637421, -2.0, 0.2808637470006943, 0.7512526214122772, -2.0, -2.0, -2.0, -0.29337938129901886, -2.0, -0.2815072238445282, -2.0, -2.0, -0.5239072293043137, -0.5065267980098724, 0.8561353087425232, 0.6593934297561646, -2.0, -2.0, -2.0, -2.0, -1.392686367034912, -2.0, -2.0, -1.3746845722198486, 0.27350062131881714, -0.2783607169985771, -2.0, 0.8609374463558197, -2.0, -2.0, -2.0, 0.5708508789539337, -0.6866503953933716, -2.0, 0.36114509403705597, -2.0, -0.5726647973060608, -2.0, -2.0, -0.6531746685504913, -2.0, -2.0, -0.864788681268692, 1.4390521049499512, -0.9628672897815704, -2.0, 0.5000319480895996, -0.9099441170692444, -0.9289701581001282, -0.9232470393180847, -2.0, -2.0, -2.0, -0.8881874978542328, -2.0, 0.9720122814178467, -2.0, -0.8823065757751465, -0.8222106397151947, -0.8645865023136139, 1.1218950748443604, -2.0, -0.9375678300857544, -2.0, -2.0, -2.0, -2.0, -2.0, -2.0, -0.9454867839813232, -2.0, -1.0192086100578308, -1.4506590962409973, -2.0, -0.8718840777873993, 3.772881507873535, -2.0, -1.686865746974945, -2.0, 6.080116033554077, -2.0, -2.0, -2.0, -2.0, 0.5991546809673309, -1.182848870754242, 1.4323708415031433, -0.71712327003479, -2.0, 0.42697490751743317, -1.317108929157257, -0.6704984605312347, -2.0, 1.142823576927185, -2.0, -1.4241765141487122, -2.0, -2.0, -0.9296826124191284, -0.15475808829069138, -2.0, -1.3874382972717285, -2.0, -2.0, -0.9231782555580139, -1.4242605566978455, -2.0, -2.0, 0.16137584298849106, -2.0, 1.2280656695365906, -2.0, 0.324906662106514, -2.0, 0.6317269802093506, -2.0, -2.0, -2.0, -1.5158573389053345, -1.1531269550323486, -2.0, 0.4417070299386978, -1.5419755578041077, 0.9008140861988068, -2.0, 0.973787933588028, -2.0, -1.073997974395752, 1.6425286531448364, -1.6604370474815369, -2.0, -1.7233982682228088, -1.6237237453460693, -0.7456704378128052, -2.0, -2.0, -2.0, -2.0, -1.4633851647377014, -2.0, 1.0123777985572815, -2.0, 0.3172147274017334, -2.0, -2.0, 0.33224713802337646, -0.19916962087154388, -2.0, -2.0, -2.0, -2.0, -2.0, -0.9909729063510895, -1.0109205842018127, 1.4813414216041565, -1.017783522605896, -2.0, -2.0, -2.0, 1.4358769059181213, -2.0, -2.0, -2.0, -1.1796424388885498, -2.0, -0.7447212636470795, -2.0, 0.3832118511199951, -0.5571689605712891, -2.0, -1.564268946647644, -2.0, -1.1110608577728271, -1.1502552032470703, 1.139441192150116, -2.0, -2.0, -2.0, -2.0, -2.0, -1.1421433091163635, -2.0, -1.1249191164970398, -2.0, -2.0, -1.1232817769050598, -0.1428041011095047, 0.9003137052059174, -2.03048038482666, -0.6877920478582382, -2.0, -2.0, 0.6508619487285614, -0.5189180076122284, -2.0, -2.0, 0.8052882850170135, -1.2716119885444641, -1.1315318942070007, -1.1393181085586548, -2.0, -2.0, -2.0, -1.665974199771881, -1.8445743918418884, -2.0, 1.7092157006263733, -2.0, -0.18665045499801636, -2.0, -2.0, -2.0, -0.20124227553606033, -2.0, -1.8061916828155518, -2.0, -2.0, 1.7663034200668335, -2.0, 1.672210454940796, 1.7784506678581238, -2.0, -2.0, 1.3323562145233154, -2.0, -2.0, -2.0, 0.34221379458904266, -0.2102077528834343, -2.0, 0.5410969257354736, 0.22262651473283768, 0.19810456037521362, 0.028898483142256737, 0.011010315269231796, -0.12929489836096764, -2.0, -2.0, -2.0, 0.37375684082508087, -1.3038525581359863, -1.3739545941352844, -2.0, -2.0, -2.0, -2.0, -2.0, -1.3774842023849487, -2.0, -2.0, 0.17846888303756714, 0.5899188220500946, -2.0, 0.3093641698360443, -2.0, -0.6320176720619202, 0.10541987791657448, -2.0, 0.7917851507663727, -2.0, 0.1491916999220848, -2.0, -2.0, -2.0, 0.8266522288322449, 0.7177598774433136, -0.43414776027202606, -2.0, -0.006865635514259338, -2.0, -2.0, -2.0, -2.0, -1.238975167274475, -1.4276501536369324, 1.6915403604507446, -0.04056048393249512, -2.0, -2.0, -2.0, 0.6620324850082397, 0.5638059973716736, -0.09914334118366241, -0.33508557081222534, 0.9796106517314911, -0.22114726155996323, -2.0, -0.7032221555709839, 1.0467745959758759, -2.0, -2.0, -2.0, -2.0, 0.15967535227537155, -0.13548114895820618, 1.0795278549194336, -2.0, -2.0, -2.0, -2.0, 1.0302621722221375, -0.040751924738287926, 0.7889281511306763, -2.0, -0.7937435805797577, 0.407610222697258, -2.0, -2.0, 0.44952140748500824, 0.9158017039299011, -0.06979601085186005, -2.0, -1.2976148128509521, -2.0, -2.0, -2.0, 0.6182368099689484, -2.0, 0.023492720909416676, -0.08458439260721207, -1.2598893642425537, -2.0, -2.0, -2.0, -2.0, -0.31333233416080475, -2.0, 0.7460265159606934, 0.06908133998513222, -0.16330354288220406, -0.011338837444782257, -2.0, 0.0030885839369148016, -2.0, -0.308707058429718, -2.0, 0.6417315304279327, -2.0, -2.0, -2.0, -2.0, -2.0, -2.0, 0.6063440442085266, -0.04050568304955959, -0.04059701785445213, 0.600275456905365, -2.0, -0.05532182939350605, -2.0, -2.0, -2.0, -2.0, -1.3350605368614197, 0.6067415475845337, -2.0, -2.0, -0.01123873284086585, 0.9632810056209564, -2.0, -2.0, -1.3003205060958862, 0.003318019676953554, -2.0, -2.0, -2.0, 0.0542907677590847, -0.4201507270336151, -2.0, -0.5414021015167236, 0.5510517954826355, -2.0, 1.0288615226745605, -2.0, -0.8200475871562958, -0.1868499293923378, -0.20877493172883987, -2.0, -2.0, -2.0, -2.0, -2.0, 0.5355693697929382, -0.6310008764266968, -2.0, 0.7682715058326721, -0.5141155868768692, -2.0, -2.0, -2.0, -2.0, 0.7340408861637115, 0.6053585410118103, -0.6501330733299255, 0.48822543025016785, -2.0, -2.0, -2.0, -2.0, 0.9672503769397736, -1.217768371105194, -1.787493646144867, -2.0, -2.0, 0.6066440343856812, -2.0, -2.0, 1.9132431745529175, 0.5392979681491852, -0.0692366510629654, 0.9357409775257111, -0.6786417663097382, -2.0, -2.0, -1.1392479538917542, 1.3082281351089478, 1.2675634026527405, 1.4899492859840393, -2.0, -2.0, -2.0, 1.0777103900909424, 1.0697789788246155, 1.0292829275131226, -2.0, -2.0, -2.0, 1.5464617013931274, -1.5699355006217957, -2.0, -1.1796321868896484, 0.26618844270706177, -2.0, -2.0, -2.0, -2.0, -2.0, -0.11359560489654541, 1.0319125056266785, -2.0, 0.2984352856874466, -0.42703278362751007, -2.0, -2.0, -0.13570035994052887, -1.1834369897842407, -2.0, 1.37667578458786, -1.5461961030960083, 0.07740766927599907, -0.03285461734049022, -2.0, -2.0, -2.0, -2.0, -0.2308548390865326, -0.2598784863948822, 0.42773914337158203, 1.448344349861145, -2.0, -2.0, 1.0993358492851257, -2.0, -2.0, -2.0, -2.0, -2.0, -2.0, 0.6051993370056152, -0.11376731470227242, -0.274587944149971, 1.4642348289489746, -2.0, -2.0, -2.0, -2.0, -0.2816748768091202, -2.0, 0.9268409311771393, 1.2877667546272278, -2.0, 1.0186471343040466, -0.20148924738168716, -2.0, -2.0, -2.0, -2.0, -2.0, 0.36970819532871246, -2.0, -0.0929800346493721, -2.0, -2.0, 0.14284886419773102, -0.5570056140422821, -1.580718457698822, -0.37278518080711365, -2.0, -2.0, 0.6008809208869934, -2.0, -2.0, 0.12480935454368591, -0.3595740795135498, -1.5824840664863586, 0.26448287069797516, -2.0, -0.42014411091804504, -0.8740776777267456, -0.15946895256638527, -2.0, -2.0, -2.0, -0.36480459570884705, -0.22199153900146484, -2.0, -2.0, -0.04523010551929474, -2.0, -0.41415123641490936, -2.0, -0.39330054819583893, -2.0, -0.028473676182329655, -2.0, -0.12769514322280884, -2.0, -2.0, -0.915010929107666, -2.0, -2.0, -0.3947286456823349, 0.9163417816162109, -0.6157417297363281, -2.0, -0.43446528911590576, -1.6422305703163147, 0.8581483662128448, -2.0, -0.548004150390625, -2.0, -2.0, -2.0, -0.09330061171203852, -2.0, -2.0, -2.0, 1.0823656916618347, 0.894714891910553, 0.1965959370136261, -0.3856641352176666, -0.3586853891611099, -2.0, -0.3130315989255905, -2.0, -1.633317232131958, 0.8727891445159912, -2.0, -2.0, -2.0, -0.2724907547235489, -0.316915825009346, -2.0, -0.2931862622499466, -2.0, -2.0, -2.0, -2.0, 0.5084491223096848, 0.8947718739509583, -2.0, 0.3730555772781372, -2.0, -0.2364381104707718, -2.0, -2.0, -2.0, 0.03895246051251888, -2.0, -2.0, -0.851669579744339, -0.3100478947162628, -0.41852469742298126, -2.0, -0.6032274961471558, -2.0, -2.0, -2.0, 1.011553943157196, 0.06904289312660694, 1.6028507351875305, -2.0, 1.6032586693763733, -2.0, -2.0, -0.6324334442615509, -2.0, -2.0, -2.0, 1.584295392036438, -2.0, -0.5958757400512695, 0.261576846241951, -2.0, 0.54716756939888, -1.015505462884903, -2.0, 0.13045930862426758, -0.9436303079128265, -2.0, 1.6162924766540527, -0.19487124681472778, -2.0, -2.0, -2.0, -2.0, 0.12543584033846855, -2.0, 0.33180710673332214, -2.0, -2.0, 1.6393218040466309, -0.5447695255279541, -2.0, -0.49995772540569305, -2.0, -0.5374331772327423, 0.21595627814531326, -2.0, 0.36859652400016785, -0.2685971111059189, -2.0, -0.19039662182331085, -2.0, -2.0, -2.0, -2.0, -0.12340988218784332, 0.6956079304218292, 1.640942394733429, -0.36281318962574005, -2.0, -2.0, -0.5085415244102478, 1.6496849656105042, -2.0, 0.24782057851552963, -2.0, -1.23031485080719, -0.646987110376358, -2.0, -2.0, -2.0, -2.0, -2.0, 1.652668058872223, -0.454055979847908, -2.0, 0.6207411289215088, -0.6892238259315491, 0.20766201615333557, -2.0, -2.0, -2.0, -2.0, -2.0, 1.4662232995033264, 1.5232674479484558, -1.5538742542266846, 0.34450563788414, -2.0, -0.499899223446846, -2.0, -2.0, 0.6058950126171112, 0.5110309720039368, 0.48765528202056885, 0.01612756634131074, 0.30727773904800415, -0.21290604025125504, -0.36257775127887726, -1.0092667043209076, -2.0, 0.2364305704832077, -2.0, -0.16234863549470901, -1.0184666514396667, -0.654219001531601, -0.543334037065506, 1.2065294981002808, -2.0, -0.566931426525116, -2.0, -2.0, -2.0, -2.0, -2.0, -2.0, -2.0, 1.425949215888977, -2.0, -2.0, -1.3969538807868958, 0.08234995044767857, -2.0, -2.0, -2.0, -2.0, -0.924791157245636, -1.649317979812622, -2.1104928255081177, -2.0, -0.9322689175605774, -2.4314205646514893, -0.9323115944862366, -2.0, -2.0, 1.5636436939239502, -2.0, 0.948115348815918, 0.9454480111598969, -1.226125955581665, -2.343317747116089, -2.0, -2.0, -2.0, -2.0, -2.0, -2.0, 4.566174745559692, -0.9467770755290985, -0.9611186385154724, -2.0, -2.0, 0.9397885799407959, -2.0, -2.0, -1.563628375530243, 1.5541011691093445, -2.0, -2.0, -2.0, 0.25432851910591125, -0.4703518897294998, 0.8200728893280029, -0.7338060438632965, -0.7381204068660736, -2.0, -2.0, -2.0, 0.8381836414337158, -0.5789191722869873, -2.0, -2.0, 0.9284158051013947, -2.0, -2.0, 1.4140769243240356, 0.7386538982391357, 0.8630994260311127, 0.418018639087677, 0.6965093612670898, 0.5794408321380615, -2.0, -0.39727427065372467, 0.3842173367738724, -0.6013878285884857, -0.6281535029411316, -2.0, -2.0, -2.0, -2.0, -2.0, -1.2030720114707947, -2.0, -0.45262831449508667, -0.2842436134815216, -2.0, -2.0, 0.8103867769241333, -2.0, -1.2704593539237976, -2.0, -1.046474277973175, -2.0, -1.0005626678466797, 0.8438698351383209, -2.0, -2.0, 1.3474450707435608, -0.8051279485225677, -2.0, -0.8080039322376251, -2.0, -0.7794670760631561, -2.0, 0.12213389202952385, -2.0, -2.0, -2.0, 0.3237377554178238, -0.20560633391141891, -0.8007178008556366, 0.5292569547891617, -2.0, 0.05112551897764206, -2.0, 0.0905726719647646, -2.0, -2.0, -0.8005242347717285, -2.0, 0.2453320547938347, 0.2208562195301056, -1.4567636847496033, -1.5024961829185486, -2.0, -2.0, -1.0516908764839172, -0.8111007511615753, -1.3379349112510681, 0.707212507724762, -2.0, -2.0, -1.236831784248352, 1.4351456761360168, -2.0, -2.0, 1.363811731338501, -2.0, -1.3608604669570923, -2.0, 1.2081655263900757, -2.0, -2.0, -2.0, -0.6457445323467255, -2.0, 0.444303035736084, -2.0, -2.0, -2.0, -2.0, -2.0, 0.4324799031019211, -2.0, 0.488310843706131, -2.0, -2.0, -0.056547366082668304, -2.0, 0.004575262893922627, -2.0, -0.816613495349884, 1.2671564817428589, -2.0, -2.0, -2.0, -2.0, 1.479379653930664, -2.0, 1.4830081462860107, -2.0, -2.0, 4.757393836975098, 1.1745051741600037, -0.9044048190116882, -2.0, -0.8151934444904327, 0.6982680559158325, -0.8373033106327057, -2.0, -0.8152766823768616, -2.0, -2.0, -2.0, -2.0, -2.0, -1.476631999015808, 2.070730209350586, -2.1681597232818604, -2.0, 6.193126916885376, -2.0, -2.0, -2.0, 4.858686447143555, -2.0, 5.1090147495269775, -2.0, -2.0, 0.6018176674842834, 0.5115026235580444, -2.0, 1.486755609512329, 0.550087034702301, 0.5467191934585571, 0.570744663476944, -1.494648039340973, -2.0, -2.0, -2.0, -2.0, -2.0, -2.0, -0.9037776589393616, -0.6068097651004791, -2.0, -2.0, -0.32400571554899216, -1.242077887058258, -2.0, -2.0, -2.0, 1.4059300422668457, 0.7337096035480499, -1.2198135256767273, -2.0, -0.8127580881118774, 1.2746840119361877, 1.0886147618293762, -2.0, -2.0, -2.0, 0.42290738224983215, -2.0, 1.490164339542389, -0.9076545238494873, -2.0, -0.7538271844387054, -2.0, 1.3699219822883606, 0.6072375476360321, -2.0, -2.0, -2.0, -2.0, -2.0, -0.666308730840683, 1.012426644563675, -2.0, -2.0, -0.1784890629351139, 0.610889732837677, -2.0, 0.8926537334918976, -2.0, -2.0, -2.0, 0.4660995751619339, 1.7932907342910767, -2.0, 0.9989044666290283, -0.3612658977508545, -2.0, -2.0, -2.0, 0.6084365248680115, -0.2964651584625244, -2.0, 0.5967622399330139, -2.0, 1.6399421095848083, 0.41968291997909546, -2.0, -2.0, -2.0, -0.54314886033535, -2.0, -2.0, 0.821454793214798, 1.507919192314148, 1.8424301743507385, 1.3768596649169922, -1.3801366686820984, 0.595533937215805, -2.0, -2.0, 0.762490302324295, 1.6020862460136414, 0.4436674565076828, -2.0, -0.712892472743988, -2.0, -0.7176950573921204, -2.0, 0.6399023532867432, -1.4790453910827637, 0.40623313188552856, -2.0, 0.7284277975559235, -0.42097415030002594, -2.0, 0.6326352655887604, -0.712830513715744, -2.0, -2.0, -2.0, -2.0, -2.0, -2.0, 0.4245746433734894, -0.5137916952371597, 0.6994968354701996, 0.5205530673265457, -1.0893544554710388, -2.0, -2.0, -2.0, -2.0, -1.6385647654533386, -0.0765419565141201, -1.220552146434784, -2.0, 1.4668964743614197, -2.0, 1.7063401937484741, -2.0, -0.16934844478964806, -2.0, -2.0, 0.07374812103807926, -2.0, -1.185188353061676, -2.0, 1.7489870190620422, -0.6908363103866577, -2.0, -1.0841863751411438, 0.37164686620235443, -2.0, -2.0, -2.0, -2.0, -2.0, 0.6070010662078857, -2.0, -2.0, 0.5880134403705597, -2.0, 0.7847470343112946, -2.0, -2.0, -2.0, 0.7963775396347046, -1.7162997722625732, 1.2380926012992859, -2.0, -0.06606847792863846, -2.0, -2.0, -2.0, -2.0, 0.10261597856879234, -2.0, -1.5337039232254028, -2.0, 1.4984980821609497, -2.0, -0.8785159289836884, -2.0, 0.1446782760322094, -2.0, -2.0, 0.705674797296524, 0.17015159130096436, -1.007462590932846, -2.0, -0.808347225189209, -2.0, -2.0, -1.197519063949585, -2.0, 0.6554623544216156, 0.8580743074417114, -2.0, -2.0, -2.0, 0.894467830657959, -2.0, 1.6117649674415588, -1.0149083733558655, -2.0, -2.0, -1.9134382605552673, -2.0, -2.0, 0.618572324514389, -1.1365389227867126, 0.9328757226467133, -0.045817768201231956, -2.0, -2.0, 0.19557545334100723, -2.0, 0.6157611310482025, 0.2816309332847595, -2.0, -2.0, -2.0, 0.617221474647522, -0.2861015796661377, -0.8881221115589142, -2.0, -1.2803779244422913, 0.6144535839557648, 0.6142060458660126, 1.5671938061714172, -2.0, 0.45710012316703796, -2.0, -2.0, -2.0, -2.0, 0.07622088678181171, -0.2160949632525444, -0.19251642003655434, 0.6141287684440613, -0.5771341025829315, 1.5351165533065796, -2.0, -2.0, -2.0, -2.0, 0.7476716339588165, -2.0, -0.2233441025018692, -2.0, -2.0, 0.6171570718288422, 1.0207357108592987, -0.3378189504146576, -2.0, 0.09507236629724503, -2.0, -2.0, 1.7339093685150146, -2.0, -2.0, -1.1022987961769104, -2.0, -2.0, 0.9656243324279785, 0.6166049540042877, 0.3488314002752304, 0.6429601907730103, -2.0, 0.6129904985427856, 0.14206092804670334, -2.0, -2.0, -2.0, -2.0, -2.0, 0.6159148216247559, -0.17562411818653345, -2.0, 0.6119312942028046, -2.0, -2.0, -2.0, -0.4595191031694412, 0.7387310862541199, -1.0005863308906555, 0.6165331900119781, 1.2452905774116516, -2.0, -0.9277773797512054, -1.7853885889053345, -2.0, -2.0, 0.6152329742908478, -2.0, 1.259942352771759, -2.0, -2.0, -2.0, 0.21990355104207993, 0.2680373936891556, -0.20139504224061966, -0.22499807178974152, -2.0, -2.0, -2.0, -0.3060082197189331, 1.2964920401573181, -2.0, -0.6705145239830017, -2.0, 0.13238032907247543, -2.0, 0.8732182085514069, -2.0, -2.0, -0.3845863491296768, -2.0, 0.06700265593826771, -0.6501603722572327, -2.0, -2.0, -2.0, -2.0, 0.5575225353240967, 1.143002450466156, -2.0, -2.0, -2.0, 0.6148630380630493, 1.4486891627311707, 0.613567441701889, 0.6114087104797363, 0.6112945973873138, -2.0, -2.0, 0.7216270864009857, -1.3930474519729614, -2.0, 0.0981181226670742, 0.07618654519319534, 0.6131874024868011, -2.0, 0.6134459674358368, -2.0, -2.0, -2.0, 0.6134607195854187, -2.0, -2.0, -2.0, -0.07281824573874474, -0.18035823106765747, 0.3173805773258209, 0.6137533187866211, -2.0, -2.0, 0.9301537275314331, -0.2370009496808052, -2.0, -2.0, -2.0, -2.0, 0.6147627532482147, 0.6139290630817413, 0.07547792419791222, -2.0, -1.377235770225525, -2.0, -2.0, -2.0, -0.3695199182257056, -2.0, -2.0, 0.48589520156383514, -0.6689115166664124, -2.0, -0.2598828598856926, -2.0, -2.0, -2.0, 0.7244632244110107, 0.6172141134738922, 1.4791851043701172, 1.4716517329216003, 0.021774384193122387, -2.0, 0.17118465900421143, 0.29896754026412964, 0.25197017192840576, -2.0, -2.0, 1.4872991442680359, 0.5636544823646545, 0.6163288950920105, 0.6153470575809479, -2.0, -1.351537823677063, -0.5047198981046677, -2.0, -2.0, -2.0, -2.0, -2.0, -2.0, 0.6161642074584961, -2.0, -2.0, -2.0, 1.4864020943641663, -2.0, -2.0, -2.0, -1.4235115051269531, -2.0, -1.1104488968849182, 0.6163473129272461, 1.4101327657699585, -2.0, -2.0, 0.8412028849124908, -2.0, -2.0, -2.0, 1.475374460220337, 1.4340956807136536, 0.9441072344779968, -1.009753167629242, -2.0, -1.4393263459205627, 0.6074880063533783, 0.43513669073581696, -2.0, -2.0, -0.8123767673969269, -2.0, -1.4292173981666565, -2.0, -2.0, -1.4768165349960327, -2.0, -0.07555444166064262, 1.3915252685546875, 0.048921745270490646, -2.0, 0.6832827031612396, -0.8871617019176483, -0.9164868593215942, 0.6173723638057709, -2.0, -2.0, -2.0, 1.3914806842803955, -0.6844451427459717, 0.7676539123058319, -0.4043493866920471, -2.0, -0.37537527084350586, -2.0, -2.0, -0.8126073479652405, 0.6185658574104309, -2.0, -2.0, -2.0, 0.467743381857872, 0.6183496415615082, -1.3523167967796326, -2.0, 0.38915883004665375, -1.3302947282791138, -2.0, -1.3269157409667969, -2.0, 0.6181379556655884, -2.0, 0.48087091743946075, -2.0, -2.0, -2.0, -2.0, 0.10945326834917068, 0.2298698127269745, -2.0, -2.0, -2.0, -2.0, -2.0, -2.0, -0.1231427863240242, -0.14458392560482025, -0.16741982102394104, -0.25962841510772705, 0.9090668559074402, 0.6181931793689728, 0.6181260347366333, 0.6707579791545868, -1.4262146949768066, -2.0, 0.6174542903900146, -2.0, -0.16795669496059418, -2.0, -0.12728428840637207, -2.0, -2.0, -2.0, -2.0, 0.9341040551662445, -2.0, 0.13141049817204475, -2.0, 0.3843080401420593, -2.0, -2.0, -2.0, -2.0, -2.0, 0.9277744889259338, -0.4571174383163452, -2.0, -0.41025616228580475, -2.0, -2.0, -2.0, -0.4062257558107376, -2.0, 0.3670439273118973, -2.0, -2.0, 0.6185336709022522, -2.0, -0.10660146176815033, -2.0, -2.0, -1.5588635206222534, -2.0, -2.0, 0.10500561445951462, -1.2443262338638306, -2.0, -2.0, -2.0, 0.9328731000423431, -1.3339430689811707, -2.0, 1.464558184146881, 0.9328246116638184, 0.6194455623626709, 0.3484301418066025, 0.378161683678627, 0.12292902916669846, -0.08165419846773148, -2.0, -1.3151320815086365, -0.15786301903426647, -0.45239849388599396, -2.0, 0.0150789525359869, -2.0, -2.0, 0.6186192035675049, -2.0, -2.0, -2.0, -0.6461907029151917, -2.0, -0.7478607892990112, -2.0, -0.37166009843349457, -2.0, -2.0, -0.43209999799728394, 0.16370826959609985, 0.1566585972905159, 1.3738654851913452, 0.14921654760837555, -2.0, 0.19379572570323944, -2.0, -2.0, -2.0, -2.0, -0.981571614742279, 1.376628041267395, -1.691343069076538, -2.0, 1.318211019039154, -2.0, -2.0, 0.8360168933868408, -2.0, -1.8426663279533386, -2.0, 0.6186486780643463, -2.0, -2.0, -0.47438056766986847, 0.6186201572418213, 0.6186155676841736, -2.0, -2.0, -2.0, -1.3618546724319458, -0.35331207513809204, -2.0, -0.4720829427242279, -2.0, -2.0, -2.0, 0.7474544942378998, -0.3964613229036331, -0.4311802238225937, -2.0, 1.4497084617614746, -2.0, 1.449753761291504, -2.0, -2.0, -2.0, -0.8192586898803711, -2.0, -2.0, -1.2189981937408447, 1.3444814085960388, -0.3568483740091324, -2.0, 0.4165260046720505, -2.0, 0.06189575977623463, 0.6078800559043884, -2.0, -0.02128121769055724, -2.0, 0.9207455515861511, 0.6297926306724548, -2.0, -2.0, -2.0, -2.0, -2.0, -2.0, 0.0447366270236671, -2.0, -1.3000162839889526, -2.0, 1.832442045211792, -2.0, -2.0, -0.1579297110438347, -2.0, -1.3269463777542114, -2.0, 0.6367964446544647, 0.6362112164497375, 0.932863175868988, 0.1809738650918007, -2.0, -0.045521778985857964, -2.0, -2.0, 0.6307738721370697, -2.0, -2.0, -2.0, -2.0, -2.0, -1.1951417326927185, -0.18239913135766983, 0.6255739331245422, 0.16871397197246552, -2.0, 0.045686688274145126, -2.0, -2.0, -1.239062786102295, 0.043146878480911255, 0.9397131204605103, 0.7020794749259949, -2.0, -2.0, -2.0, -2.0, -2.0, 0.045119112357497215, -2.0, 0.6339733600616455, -2.0, -0.03131591621786356, -2.0, -2.0, -0.771847277879715, -2.0, 0.6204329133033752, -0.34537777304649353, -2.0, 0.9497863948345184, 1.5814930200576782, 1.5814309120178223, -2.0, -2.0, -2.0, -2.0, -0.29798491299152374, 0.6205368936061859, -2.0, -2.0, 0.19732559472322464, -2.0, -2.0], "values": [[[5065.0, 3050.0, 325.0]], [[1835.0, 2889.0, 208.0]], [[403.0, 116.0, 90.0]], [[287.0, 92.0, 4.0]], [[13.0, 26.0, 0.0]], [[11.0, 26.0, 0.0]], [[11.0, 21.0, 0.0]], [[2.0, 0.0, 0.0]], [[9.0, 21.0, 0.0]], [[7.0, 8.0, 0.0]], [[3.0, 0.0, 0.0]], [[4.0, 8.0, 0.0]], [[0.0, 6.0, 0.0]], [[4.0, 2.0, 0.0]], [[4.0, 0.0, 0.0]], [[0.0, 2.0, 0.0]], [[2.0, 13.0, 0.0]], [[0.0, 10.0, 0.0]], [[2.0, 3.0, 0.0]], [[2.0, 0.0, 0.0]], [[0.0, 3.0, 0.0]], [[0.0, 5.0, 0.0]], [[2.0, 0.0, 0.0]], [[274.0, 66.0, 4.0]], [[20.0, 15.0, 0.0]], [[11.0, 14.0, 0.0]], [[3.0, 11.0, 0.0]], [[0.0, 6.0, 0.0]], [[3.0, 5.0, 0.0]], [[0.0, 3.0, 0.0]], [[3.0, 2.0, 0.0]], [[3.0, 0.0, 0.0]], [[0.0, 2.0, 0.0]], [[8.0, 3.0, 0.0]], [[4.0, 3.0, 0.0]], [[2.0, 3.0, 0.0]], [[0.0, 3.0, 0.0]], [[2.0, 0.0, 0.0]], [[2.0, 0.0, 0.0]], [[4.0, 0.0, 0.0]], [[9.0, 1.0, 0.0]], [[8.0, 0.0, 0.0]], [[1.0, 1.0, 0.0]], [[1.0, 0.0, 0.0]], [[0.0, 1.0, 0.0]], [[254.0, 51.0, 4.0]], [[32.0, 19.0, 0.0]], [[3.0, 11.0, 0.0]], [[3.0, 2.0, 0.0]], [[0.0, 2.0, 0.0]], [[3.0, 0.0, 0.0]], [[0.0, 9.0, 0.0]], [[29.0, 8.0, 0.0]], [[11.0, 0.0, 0.0]], [[18.0, 8.0, 0.0]], [[0.0, 2.0, 0.0]], [[18.0, 6.0, 0.0]], [[18.0, 5.0, 0.0]], [[9.0, 5.0, 0.0]], [[9.0, 3.0, 0.0]], [[2.0, 3.0, 0.0]], [[2.0, 1.0, 0.0]], [[0.0, 1.0, 0.0]], [[2.0, 0.0, 0.0]], [[0.0, 2.0, 0.0]], [[7.0, 0.0, 0.0]], [[0.0, 2.0, 0.0]], [[9.0, 0.0, 0.0]], [[0.0, 1.0, 0.0]], [[222.0, 32.0, 4.0]], [[182.0, 32.0, 3.0]], [[176.0, 32.0, 1.0]], [[14.0, 7.0, 1.0]], [[14.0, 4.0, 0.0]], [[14.0, 2.0, 0.0]], [[14.0, 1.0, 0.0]], [[12.0, 0.0, 0.0]], [[2.0, 1.0, 0.0]], [[0.0, 1.0, 0.0]], [[2.0, 0.0, 0.0]], [[0.0, 1.0, 0.0]], [[0.0, 2.0, 0.0]], [[0.0, 3.0, 1.0]], [[0.0, 0.0, 1.0]], [[0.0, 3.0, 0.0]], [[162.0, 25.0, 0.0]], [[24.0, 0.0, 0.0]], [[138.0, 25.0, 0.0]], [[58.0, 3.0, 0.0]], [[38.0, 0.0, 0.0]], [[20.0, 3.0, 0.0]], [[12.0, 0.0, 0.0]], [[8.0, 3.0, 0.0]], [[0.0, 2.0, 0.0]], [[8.0, 1.0, 0.0]], [[0.0, 1.0, 0.0]], [[8.0, 0.0, 0.0]], [[80.0, 22.0, 0.0]], [[0.0, 2.0, 0.0]], [[80.0, 20.0, 0.0]], [[79.0, 17.0, 0.0]], [[69.0, 10.0, 0.0]], [[6.0, 4.0, 0.0]], [[6.0, 2.0, 0.0]], [[1.0, 2.0, 0.0]], [[1.0, 0.0, 0.0]], [[0.0, 2.0, 0.0]], [[5.0, 0.0, 0.0]], [[0.0, 2.0, 0.0]], [[63.0, 6.0, 0.0]], [[21.0, 0.0, 0.0]], [[42.0, 6.0, 0.0]], [[0.0, 2.0, 0.0]], [[42.0, 4.0, 0.0]], [[11.0, 0.0, 0.0]], [[31.0, 4.0, 0.0]], [[0.0, 1.0, 0.0]], [[31.0, 3.0, 0.0]], [[13.0, 0.0, 0.0]], [[18.0, 3.0, 0.0]], [[18.0, 2.0, 0.0]], [[17.0, 1.0, 0.0]], [[13.0, 0.0, 0.0]], [[4.0, 1.0, 0.0]], [[4.0, 0.0, 0.0]], [[0.0, 1.0, 0.0]], [[1.0, 1.0, 0.0]], [[1.0, 0.0, 0.0]], [[0.0, 1.0, 0.0]], [[0.0, 1.0, 0.0]], [[10.0, 7.0, 0.0]], [[7.0, 0.0, 0.0]], [[3.0, 7.0, 0.0]], [[0.0, 4.0, 0.0]], [[3.0, 3.0, 0.0]], [[1.0, 3.0, 0.0]], [[1.0, 0.0, 0.0]], [[0.0, 3.0, 0.0]], [[2.0, 0.0, 0.0]], [[1.0, 3.0, 0.0]], [[0.0, 3.0, 0.0]], [[1.0, 0.0, 0.0]], [[6.0, 0.0, 2.0]], [[5.0, 0.0, 0.0]], [[1.0, 0.0, 2.0]], [[1.0, 0.0, 0.0]], [[0.0, 0.0, 2.0]], [[40.0, 0.0, 1.0]], [[12.0, 0.0, 1.0]], [[0.0, 0.0, 1.0]], [[12.0, 0.0, 0.0]], [[28.0, 0.0, 0.0]], [[116.0, 24.0, 86.0]], [[107.0, 4.0, 58.0]], [[51.0, 4.0, 58.0]], [[47.0, 1.0, 17.0]], [[47.0, 1.0, 13.0]], [[7.0, 1.0, 0.0]], [[0.0, 1.0, 0.0]], [[7.0, 0.0, 0.0]], [[40.0, 0.0, 13.0]], [[0.0, 0.0, 2.0]], [[40.0, 0.0, 11.0]], [[22.0, 0.0, 10.0]], [[22.0, 0.0, 7.0]], [[14.0, 0.0, 7.0]], [[12.0, 0.0, 2.0]], [[0.0, 0.0, 1.0]], [[12.0, 0.0, 1.0]], [[1.0, 0.0, 1.0]], [[1.0, 0.0, 0.0]], [[0.0, 0.0, 1.0]], [[11.0, 0.0, 0.0]], [[2.0, 0.0, 5.0]], [[2.0, 0.0, 0.0]], [[0.0, 0.0, 5.0]], [[8.0, 0.0, 0.0]], [[0.0, 0.0, 3.0]], [[18.0, 0.0, 1.0]], [[17.0, 0.0, 0.0]], [[1.0, 0.0, 1.0]], [[1.0, 0.0, 0.0]], [[0.0, 0.0, 1.0]], [[0.0, 0.0, 4.0]], [[4.0, 3.0, 41.0]], [[4.0, 0.0, 41.0]], [[0.0, 0.0, 36.0]], [[4.0, 0.0, 5.0]], [[4.0, 0.0, 2.0]], [[0.0, 0.0, 1.0]], [[4.0, 0.0, 1.0]], [[1.0, 0.0, 1.0]], [[0.0, 0.0, 1.0]], [[1.0, 0.0, 0.0]], [[3.0, 0.0, 0.0]], [[0.0, 0.0, 3.0]], [[0.0, 3.0, 0.0]], [[56.0, 0.0, 0.0]], [[9.0, 20.0, 28.0]], [[5.0, 17.0, 1.0]], [[0.0, 12.0, 0.0]], [[5.0, 5.0, 1.0]], [[5.0, 5.0, 0.0]], [[1.0, 4.0, 0.0]], [[1.0, 1.0, 0.0]], [[0.0, 1.0, 0.0]], [[1.0, 0.0, 0.0]], [[0.0, 3.0, 0.0]], [[4.0, 1.0, 0.0]], [[4.0, 0.0, 0.0]], [[0.0, 1.0, 0.0]], [[0.0, 0.0, 1.0]], [[4.0, 3.0, 27.0]], [[4.0, 0.0, 26.0]], [[4.0, 0.0, 12.0]], [[0.0, 0.0, 8.0]], [[4.0, 0.0, 4.0]], [[4.0, 0.0, 1.0]], [[4.0, 0.0, 0.0]], [[0.0, 0.0, 1.0]], [[0.0, 0.0, 3.0]], [[0.0, 0.0, 14.0]], [[0.0, 3.0, 1.0]], [[0.0, 0.0, 1.0]], [[0.0, 3.0, 0.0]], [[1432.0, 2773.0, 118.0]], [[1121.0, 1494.0, 90.0]], [[815.0, 1381.0, 67.0]], [[814.0, 1146.0, 67.0]], [[183.0, 591.0, 16.0]], [[163.0, 276.0, 16.0]], [[112.0, 253.0, 6.0]], [[55.0, 63.0, 3.0]], [[39.0, 39.0, 0.0]], [[29.0, 38.0, 0.0]], [[7.0, 22.0, 0.0]], [[5.0, 3.0, 0.0]], [[4.0, 0.0, 0.0]], [[1.0, 3.0, 0.0]], [[1.0, 0.0, 0.0]], [[0.0, 3.0, 0.0]], [[2.0, 19.0, 0.0]], [[1.0, 19.0, 0.0]], [[1.0, 2.0, 0.0]], [[0.0, 2.0, 0.0]], [[1.0, 0.0, 0.0]], [[0.0, 17.0, 0.0]], [[1.0, 0.0, 0.0]], [[22.0, 16.0, 0.0]], [[5.0, 0.0, 0.0]], [[17.0, 16.0, 0.0]], [[9.0, 14.0, 0.0]], [[9.0, 11.0, 0.0]], [[2.0, 0.0, 0.0]], [[7.0, 11.0, 0.0]], [[6.0, 5.0, 0.0]], [[3.0, 5.0, 0.0]], [[1.0, 5.0, 0.0]], [[0.0, 4.0, 0.0]], [[1.0, 1.0, 0.0]], [[1.0, 0.0, 0.0]], [[0.0, 1.0, 0.0]], [[2.0, 0.0, 0.0]], [[3.0, 0.0, 0.0]], [[1.0, 6.0, 0.0]], [[0.0, 6.0, 0.0]], [[1.0, 0.0, 0.0]], [[0.0, 3.0, 0.0]], [[8.0, 2.0, 0.0]], [[2.0, 2.0, 0.0]], [[0.0, 2.0, 0.0]], [[2.0, 0.0, 0.0]], [[6.0, 0.0, 0.0]], [[10.0, 1.0, 0.0]], [[8.0, 0.0, 0.0]], [[2.0, 1.0, 0.0]], [[0.0, 1.0, 0.0]], [[2.0, 0.0, 0.0]], [[16.0, 24.0, 3.0]], [[6.0, 17.0, 0.0]], [[3.0, 0.0, 0.0]], [[3.0, 17.0, 0.0]], [[3.0, 7.0, 0.0]], [[3.0, 1.0, 0.0]], [[0.0, 1.0, 0.0]], [[3.0, 0.0, 0.0]], [[0.0, 6.0, 0.0]], [[0.0, 10.0, 0.0]], [[10.0, 7.0, 3.0]], [[4.0, 0.0, 0.0]], [[6.0, 7.0, 3.0]], [[6.0, 3.0, 1.0]], [[0.0, 2.0, 0.0]], [[6.0, 1.0, 1.0]], [[6.0, 0.0, 1.0]], [[1.0, 0.0, 1.0]], [[0.0, 0.0, 1.0]], [[1.0, 0.0, 0.0]], [[5.0, 0.0, 0.0]], [[0.0, 1.0, 0.0]], [[0.0, 4.0, 2.0]], [[0.0, 1.0, 2.0]], [[0.0, 1.0, 0.0]], [[0.0, 0.0, 2.0]], [[0.0, 3.0, 0.0]], [[57.0, 190.0, 3.0]], [[45.0, 186.0, 3.0]], [[44.0, 139.0, 1.0]], [[38.0, 138.0, 0.0]], [[29.0, 130.0, 0.0]], [[25.0, 72.0, 0.0]], [[5.0, 43.0, 0.0]], [[4.0, 10.0, 0.0]], [[0.0, 9.0, 0.0]], [[4.0, 1.0, 0.0]], [[4.0, 0.0, 0.0]], [[0.0, 1.0, 0.0]], [[1.0, 33.0, 0.0]], [[0.0, 30.0, 0.0]], [[1.0, 3.0, 0.0]], [[0.0, 3.0, 0.0]], [[1.0, 0.0, 0.0]], [[20.0, 29.0, 0.0]], [[16.0, 29.0, 0.0]], [[3.0, 0.0, 0.0]], [[13.0, 29.0, 0.0]], [[11.0, 29.0, 0.0]], [[0.0, 5.0, 0.0]], [[11.0, 24.0, 0.0]], [[0.0, 5.0, 0.0]], [[11.0, 19.0, 0.0]], [[7.0, 18.0, 0.0]], [[7.0, 12.0, 0.0]], [[3.0, 10.0, 0.0]], [[3.0, 4.0, 0.0]], [[3.0, 1.0, 0.0]], [[0.0, 1.0, 0.0]], [[3.0, 0.0, 0.0]], [[0.0, 3.0, 0.0]], [[0.0, 6.0, 0.0]], [[4.0, 2.0, 0.0]], [[1.0, 2.0, 0.0]], [[1.0, 0.0, 0.0]], [[0.0, 2.0, 0.0]], [[3.0, 0.0, 0.0]], [[0.0, 6.0, 0.0]], [[4.0, 1.0, 0.0]], [[3.0, 0.0, 0.0]], [[1.0, 1.0, 0.0]], [[1.0, 0.0, 0.0]], [[0.0, 1.0, 0.0]], [[2.0, 0.0, 0.0]], [[4.0, 0.0, 0.0]], [[4.0, 58.0, 0.0]], [[0.0, 36.0, 0.0]], [[4.0, 22.0, 0.0]], [[2.0, 1.0, 0.0]], [[0.0, 1.0, 0.0]], [[2.0, 0.0, 0.0]], [[2.0, 21.0, 0.0]], [[2.0, 10.0, 0.0]], [[1.0, 10.0, 0.0]], [[0.0, 10.0, 0.0]], [[1.0, 0.0, 0.0]], [[1.0, 0.0, 0.0]], [[0.0, 11.0, 0.0]], [[9.0, 8.0, 0.0]], [[6.0, 8.0, 0.0]], [[5.0, 2.0, 0.0]], [[0.0, 2.0, 0.0]], [[5.0, 0.0, 0.0]], [[1.0, 6.0, 0.0]], [[1.0, 1.0, 0.0]], [[1.0, 0.0, 0.0]], [[0.0, 1.0, 0.0]], [[0.0, 5.0, 0.0]], [[3.0, 0.0, 0.0]], [[6.0, 1.0, 1.0]], [[6.0, 0.0, 0.0]], [[0.0, 1.0, 1.0]], [[0.0, 0.0, 1.0]], [[0.0, 1.0, 0.0]], [[1.0, 47.0, 2.0]], [[1.0, 4.0, 2.0]], [[1.0, 4.0, 0.0]], [[0.0, 4.0, 0.0]], [[1.0, 0.0, 0.0]], [[0.0, 0.0, 2.0]], [[0.0, 43.0, 0.0]], [[12.0, 4.0, 0.0]], [[11.0, 0.0, 0.0]], [[1.0, 4.0, 0.0]], [[0.0, 4.0, 0.0]], [[1.0, 0.0, 0.0]], [[51.0, 23.0, 10.0]], [[0.0, 0.0, 6.0]], [[51.0, 23.0, 4.0]], [[10.0, 0.0, 2.0]], [[9.0, 0.0, 0.0]], [[1.0, 0.0, 2.0]], [[1.0, 0.0, 0.0]], [[0.0, 0.0, 2.0]], [[41.0, 23.0, 2.0]], [[1.0, 7.0, 0.0]], [[1.0, 1.0, 0.0]], [[0.0, 1.0, 0.0]], [[1.0, 0.0, 0.0]], [[0.0, 6.0, 0.0]], [[40.0, 16.0, 2.0]], [[11.0, 11.0, 1.0]], [[11.0, 10.0, 0.0]], [[0.0, 4.0, 0.0]], [[11.0, 6.0, 0.0]], [[11.0, 4.0, 0.0]], [[5.0, 4.0, 0.0]], [[5.0, 1.0, 0.0]], [[1.0, 1.0, 0.0]], [[0.0, 1.0, 0.0]], [[1.0, 0.0, 0.0]], [[4.0, 0.0, 0.0]], [[0.0, 3.0, 0.0]], [[6.0, 0.0, 0.0]], [[0.0, 2.0, 0.0]], [[0.0, 1.0, 1.0]], [[0.0, 1.0, 0.0]], [[0.0, 0.0, 1.0]], [[29.0, 5.0, 1.0]], [[14.0, 0.0, 1.0]], [[13.0, 0.0, 0.0]], [[1.0, 0.0, 1.0]], [[1.0, 0.0, 0.0]], [[0.0, 0.0, 1.0]], [[15.0, 5.0, 0.0]], [[6.0, 5.0, 0.0]], [[1.0, 5.0, 0.0]], [[0.0, 4.0, 0.0]], [[1.0, 1.0, 0.0]], [[0.0, 1.0, 0.0]], [[1.0, 0.0, 0.0]], [[5.0, 0.0, 0.0]], [[9.0, 0.0, 0.0]], [[20.0, 315.0, 0.0]], [[3.0, 253.0, 0.0]], [[3.0, 79.0, 0.0]], [[3.0, 6.0, 0.0]], [[0.0, 3.0, 0.0]], [[3.0, 3.0, 0.0]], [[1.0, 3.0, 0.0]], [[1.0, 0.0, 0.0]], [[0.0, 3.0, 0.0]], [[2.0, 0.0, 0.0]], [[0.0, 73.0, 0.0]], [[0.0, 174.0, 0.0]], [[17.0, 62.0, 0.0]], [[16.0, 19.0, 0.0]], [[14.0, 7.0, 0.0]], [[8.0, 7.0, 0.0]], [[1.0, 5.0, 0.0]], [[0.0, 5.0, 0.0]], [[1.0, 0.0, 0.0]], [[7.0, 2.0, 0.0]], [[7.0, 0.0, 0.0]], [[0.0, 2.0, 0.0]], [[6.0, 0.0, 0.0]], [[2.0, 12.0, 0.0]], [[2.0, 0.0, 0.0]], [[0.0, 12.0, 0.0]], [[1.0, 43.0, 0.0]], [[1.0, 11.0, 0.0]], [[0.0, 11.0, 0.0]], [[1.0, 0.0, 0.0]], [[0.0, 32.0, 0.0]], [[631.0, 555.0, 51.0]], [[401.0, 109.0, 14.0]], [[138.0, 13.0, 12.0]], [[113.0, 12.0, 1.0]], [[97.0, 5.0, 1.0]], [[10.0, 4.0, 1.0]], [[9.0, 0.0, 0.0]], [[1.0, 4.0, 1.0]], [[1.0, 0.0, 1.0]], [[1.0, 0.0, 0.0]], [[0.0, 0.0, 1.0]], [[0.0, 4.0, 0.0]], [[87.0, 1.0, 0.0]], [[58.0, 0.0, 0.0]], [[29.0, 1.0, 0.0]], [[0.0, 1.0, 0.0]], [[29.0, 0.0, 0.0]], [[16.0, 7.0, 0.0]], [[15.0, 3.0, 0.0]], [[6.0, 3.0, 0.0]], [[1.0, 3.0, 0.0]], [[1.0, 0.0, 0.0]], [[0.0, 3.0, 0.0]], [[5.0, 0.0, 0.0]], [[9.0, 0.0, 0.0]], [[1.0, 4.0, 0.0]], [[1.0, 0.0, 0.0]], [[0.0, 4.0, 0.0]], [[25.0, 1.0, 11.0]], [[15.0, 1.0, 1.0]], [[1.0, 1.0, 1.0]], [[0.0, 0.0, 1.0]], [[1.0, 1.0, 0.0]], [[0.0, 1.0, 0.0]], [[1.0, 0.0, 0.0]], [[14.0, 0.0, 0.0]], [[10.0, 0.0, 10.0]], [[9.0, 0.0, 4.0]], [[0.0, 0.0, 2.0]], [[9.0, 0.0, 2.0]], [[6.0, 0.0, 0.0]], [[3.0, 0.0, 2.0]], [[3.0, 0.0, 0.0]], [[0.0, 0.0, 2.0]], [[1.0, 0.0, 6.0]], [[1.0, 0.0, 0.0]], [[0.0, 0.0, 6.0]], [[263.0, 96.0, 2.0]], [[35.0, 40.0, 0.0]], [[25.0, 15.0, 0.0]], [[5.0, 0.0, 0.0]], [[20.0, 15.0, 0.0]], [[16.0, 15.0, 0.0]], [[3.0, 8.0, 0.0]], [[3.0, 3.0, 0.0]], [[0.0, 3.0, 0.0]], [[3.0, 0.0, 0.0]], [[0.0, 5.0, 0.0]], [[13.0, 7.0, 0.0]], [[5.0, 0.0, 0.0]], [[8.0, 7.0, 0.0]], [[3.0, 0.0, 0.0]], [[5.0, 7.0, 0.0]], [[3.0, 7.0, 0.0]], [[2.0, 7.0, 0.0]], [[2.0, 3.0, 0.0]], [[0.0, 2.0, 0.0]], [[2.0, 1.0, 0.0]], [[0.0, 1.0, 0.0]], [[2.0, 0.0, 0.0]], [[0.0, 4.0, 0.0]], [[1.0, 0.0, 0.0]], [[2.0, 0.0, 0.0]], [[4.0, 0.0, 0.0]], [[10.0, 25.0, 0.0]], [[0.0, 11.0, 0.0]], [[10.0, 14.0, 0.0]], [[10.0, 9.0, 0.0]], [[0.0, 4.0, 0.0]], [[10.0, 5.0, 0.0]], [[10.0, 3.0, 0.0]], [[7.0, 0.0, 0.0]], [[3.0, 3.0, 0.0]], [[2.0, 0.0, 0.0]], [[1.0, 3.0, 0.0]], [[0.0, 3.0, 0.0]], [[1.0, 0.0, 0.0]], [[0.0, 2.0, 0.0]], [[0.0, 5.0, 0.0]], [[228.0, 56.0, 2.0]], [[227.0, 49.0, 2.0]], [[210.0, 37.0, 1.0]], [[133.0, 10.0, 1.0]], [[51.0, 0.0, 0.0]], [[82.0, 10.0, 1.0]], [[82.0, 8.0, 1.0]], [[6.0, 3.0, 0.0]], [[3.0, 0.0, 0.0]], [[3.0, 3.0, 0.0]], [[0.0, 2.0, 0.0]], [[3.0, 1.0, 0.0]], [[0.0, 1.0, 0.0]], [[3.0, 0.0, 0.0]], [[76.0, 5.0, 1.0]], [[24.0, 0.0, 1.0]], [[22.0, 0.0, 0.0]], [[2.0, 0.0, 1.0]], [[2.0, 0.0, 0.0]], [[0.0, 0.0, 1.0]], [[52.0, 5.0, 0.0]], [[1.0, 2.0, 0.0]], [[1.0, 0.0, 0.0]], [[0.0, 2.0, 0.0]], [[51.0, 3.0, 0.0]], [[41.0, 0.0, 0.0]], [[10.0, 3.0, 0.0]], [[5.0, 0.0, 0.0]], [[5.0, 3.0, 0.0]], [[4.0, 0.0, 0.0]], [[1.0, 3.0, 0.0]], [[1.0, 0.0, 0.0]], [[0.0, 3.0, 0.0]], [[0.0, 2.0, 0.0]], [[77.0, 27.0, 0.0]], [[68.0, 17.0, 0.0]], [[0.0, 2.0, 0.0]], [[68.0, 15.0, 0.0]], [[55.0, 15.0, 0.0]], [[47.0, 15.0, 0.0]], [[0.0, 3.0, 0.0]], [[47.0, 12.0, 0.0]], [[11.0, 0.0, 0.0]], [[36.0, 12.0, 0.0]], [[20.0, 11.0, 0.0]], [[7.0, 9.0, 0.0]], [[0.0, 5.0, 0.0]], [[7.0, 4.0, 0.0]], [[1.0, 4.0, 0.0]], [[1.0, 1.0, 0.0]], [[1.0, 0.0, 0.0]], [[0.0, 1.0, 0.0]], [[0.0, 3.0, 0.0]], [[6.0, 0.0, 0.0]], [[13.0, 2.0, 0.0]], [[8.0, 0.0, 0.0]], [[5.0, 2.0, 0.0]], [[4.0, 0.0, 0.0]], [[1.0, 2.0, 0.0]], [[1.0, 0.0, 0.0]], [[0.0, 2.0, 0.0]], [[16.0, 1.0, 0.0]], [[2.0, 1.0, 0.0]], [[0.0, 1.0, 0.0]], [[2.0, 0.0, 0.0]], [[14.0, 0.0, 0.0]], [[8.0, 0.0, 0.0]], [[13.0, 0.0, 0.0]], [[9.0, 10.0, 0.0]], [[9.0, 6.0, 0.0]], [[1.0, 5.0, 0.0]], [[1.0, 2.0, 0.0]], [[1.0, 0.0, 0.0]], [[0.0, 2.0, 0.0]], [[0.0, 3.0, 0.0]], [[8.0, 1.0, 0.0]], [[0.0, 1.0, 0.0]], [[8.0, 0.0, 0.0]], [[0.0, 4.0, 0.0]], [[17.0, 12.0, 1.0]], [[0.0, 0.0, 1.0]], [[17.0, 12.0, 0.0]], [[4.0, 0.0, 0.0]], [[13.0, 12.0, 0.0]], [[13.0, 7.0, 0.0]], [[5.0, 0.0, 0.0]], [[8.0, 7.0, 0.0]], [[0.0, 2.0, 0.0]], [[8.0, 5.0, 0.0]], [[8.0, 3.0, 0.0]], [[2.0, 3.0, 0.0]], [[0.0, 3.0, 0.0]], [[2.0, 0.0, 0.0]], [[6.0, 0.0, 0.0]], [[0.0, 2.0, 0.0]], [[0.0, 5.0, 0.0]], [[1.0, 7.0, 0.0]], [[0.0, 6.0, 0.0]], [[1.0, 1.0, 0.0]], [[1.0, 0.0, 0.0]], [[0.0, 1.0, 0.0]], [[230.0, 446.0, 37.0]], [[48.0, 29.0, 19.0]], [[48.0, 29.0, 8.0]], [[44.0, 27.0, 1.0]], [[10.0, 0.0, 1.0]], [[0.0, 0.0, 1.0]], [[10.0, 0.0, 0.0]], [[34.0, 27.0, 0.0]], [[16.0, 2.0, 0.0]], [[0.0, 2.0, 0.0]], [[16.0, 0.0, 0.0]], [[18.0, 25.0, 0.0]], [[8.0, 23.0, 0.0]], [[1.0, 15.0, 0.0]], [[1.0, 1.0, 0.0]], [[0.0, 1.0, 0.0]], [[1.0, 0.0, 0.0]], [[0.0, 14.0, 0.0]], [[7.0, 8.0, 0.0]], [[7.0, 4.0, 0.0]], [[3.0, 0.0, 0.0]], [[4.0, 4.0, 0.0]], [[3.0, 0.0, 0.0]], [[1.0, 4.0, 0.0]], [[0.0, 4.0, 0.0]], [[1.0, 0.0, 0.0]], [[0.0, 4.0, 0.0]], [[10.0, 2.0, 0.0]], [[8.0, 0.0, 0.0]], [[2.0, 2.0, 0.0]], [[2.0, 0.0, 0.0]], [[0.0, 2.0, 0.0]], [[4.0, 2.0, 7.0]], [[3.0, 0.0, 0.0]], [[1.0, 2.0, 7.0]], [[0.0, 1.0, 7.0]], [[0.0, 1.0, 0.0]], [[0.0, 0.0, 7.0]], [[1.0, 1.0, 0.0]], [[1.0, 0.0, 0.0]], [[0.0, 1.0, 0.0]], [[0.0, 0.0, 11.0]], [[182.0, 417.0, 18.0]], [[22.0, 36.0, 12.0]], [[0.0, 0.0, 7.0]], [[22.0, 36.0, 5.0]], [[17.0, 10.0, 1.0]], [[17.0, 8.0, 0.0]], [[11.0, 8.0, 0.0]], [[8.0, 1.0, 0.0]], [[1.0, 1.0, 0.0]], [[1.0, 0.0, 0.0]], [[0.0, 1.0, 0.0]], [[7.0, 0.0, 0.0]], [[3.0, 7.0, 0.0]], [[2.0, 7.0, 0.0]], [[2.0, 2.0, 0.0]], [[0.0, 2.0, 0.0]], [[2.0, 0.0, 0.0]], [[0.0, 5.0, 0.0]], [[1.0, 0.0, 0.0]], [[6.0, 0.0, 0.0]], [[0.0, 2.0, 1.0]], [[0.0, 2.0, 0.0]], [[0.0, 0.0, 1.0]], [[5.0, 26.0, 4.0]], [[5.0, 10.0, 1.0]], [[0.0, 0.0, 1.0]], [[5.0, 10.0, 0.0]], [[2.0, 0.0, 0.0]], [[3.0, 10.0, 0.0]], [[3.0, 4.0, 0.0]], [[0.0, 2.0, 0.0]], [[3.0, 2.0, 0.0]], [[2.0, 0.0, 0.0]], [[1.0, 2.0, 0.0]], [[1.0, 0.0, 0.0]], [[0.0, 2.0, 0.0]], [[0.0, 6.0, 0.0]], [[0.0, 16.0, 3.0]], [[0.0, 6.0, 3.0]], [[0.0, 6.0, 2.0]], [[0.0, 4.0, 0.0]], [[0.0, 2.0, 2.0]], [[0.0, 2.0, 0.0]], [[0.0, 0.0, 2.0]], [[0.0, 0.0, 1.0]], [[0.0, 10.0, 0.0]], [[160.0, 381.0, 6.0]], [[93.0, 162.0, 0.0]], [[9.0, 1.0, 0.0]], [[3.0, 1.0, 0.0]], [[3.0, 0.0, 0.0]], [[0.0, 1.0, 0.0]], [[6.0, 0.0, 0.0]], [[84.0, 161.0, 0.0]], [[73.0, 115.0, 0.0]], [[56.0, 61.0, 0.0]], [[8.0, 26.0, 0.0]], [[3.0, 22.0, 0.0]], [[3.0, 9.0, 0.0]], [[1.0, 0.0, 0.0]], [[2.0, 9.0, 0.0]], [[2.0, 2.0, 0.0]], [[2.0, 0.0, 0.0]], [[0.0, 2.0, 0.0]], [[0.0, 7.0, 0.0]], [[0.0, 13.0, 0.0]], [[5.0, 4.0, 0.0]], [[5.0, 1.0, 0.0]], [[1.0, 1.0, 0.0]], [[0.0, 1.0, 0.0]], [[1.0, 0.0, 0.0]], [[4.0, 0.0, 0.0]], [[0.0, 3.0, 0.0]], [[48.0, 35.0, 0.0]], [[41.0, 35.0, 0.0]], [[19.0, 26.0, 0.0]], [[0.0, 6.0, 0.0]], [[19.0, 20.0, 0.0]], [[1.0, 6.0, 0.0]], [[0.0, 6.0, 0.0]], [[1.0, 0.0, 0.0]], [[18.0, 14.0, 0.0]], [[5.0, 10.0, 0.0]], [[2.0, 10.0, 0.0]], [[0.0, 8.0, 0.0]], [[2.0, 2.0, 0.0]], [[2.0, 0.0, 0.0]], [[0.0, 2.0, 0.0]], [[3.0, 0.0, 0.0]], [[13.0, 4.0, 0.0]], [[6.0, 0.0, 0.0]], [[7.0, 4.0, 0.0]], [[7.0, 2.0, 0.0]], [[1.0, 2.0, 0.0]], [[0.0, 2.0, 0.0]], [[1.0, 0.0, 0.0]], [[6.0, 0.0, 0.0]], [[0.0, 2.0, 0.0]], [[22.0, 9.0, 0.0]], [[7.0, 0.0, 0.0]], [[15.0, 9.0, 0.0]], [[15.0, 7.0, 0.0]], [[15.0, 6.0, 0.0]], [[15.0, 5.0, 0.0]], [[6.0, 0.0, 0.0]], [[9.0, 5.0, 0.0]], [[0.0, 3.0, 0.0]], [[9.0, 2.0, 0.0]], [[7.0, 0.0, 0.0]], [[2.0, 2.0, 0.0]], [[0.0, 2.0, 0.0]], [[2.0, 0.0, 0.0]], [[0.0, 1.0, 0.0]], [[0.0, 1.0, 0.0]], [[0.0, 2.0, 0.0]], [[7.0, 0.0, 0.0]], [[17.0, 54.0, 0.0]], [[2.0, 44.0, 0.0]], [[2.0, 15.0, 0.0]], [[1.0, 15.0, 0.0]], [[0.0, 13.0, 0.0]], [[1.0, 2.0, 0.0]], [[1.0, 0.0, 0.0]], [[0.0, 2.0, 0.0]], [[1.0, 0.0, 0.0]], [[0.0, 29.0, 0.0]], [[15.0, 10.0, 0.0]], [[1.0, 5.0, 0.0]], [[1.0, 0.0, 0.0]], [[0.0, 5.0, 0.0]], [[14.0, 5.0, 0.0]], [[9.0, 1.0, 0.0]], [[9.0, 0.0, 0.0]], [[0.0, 1.0, 0.0]], [[5.0, 4.0, 0.0]], [[5.0, 1.0, 0.0]], [[0.0, 1.0, 0.0]], [[5.0, 0.0, 0.0]], [[0.0, 3.0, 0.0]], [[11.0, 46.0, 0.0]], [[5.0, 39.0, 0.0]], [[1.0, 0.0, 0.0]], [[4.0, 39.0, 0.0]], [[4.0, 22.0, 0.0]], [[2.0, 0.0, 0.0]], [[2.0, 22.0, 0.0]], [[0.0, 12.0, 0.0]], [[2.0, 10.0, 0.0]], [[1.0, 10.0, 0.0]], [[1.0, 1.0, 0.0]], [[0.0, 1.0, 0.0]], [[1.0, 0.0, 0.0]], [[0.0, 9.0, 0.0]], [[1.0, 0.0, 0.0]], [[0.0, 17.0, 0.0]], [[6.0, 7.0, 0.0]], [[3.0, 7.0, 0.0]], [[0.0, 5.0, 0.0]], [[3.0, 2.0, 0.0]], [[1.0, 2.0, 0.0]], [[0.0, 2.0, 0.0]], [[1.0, 0.0, 0.0]], [[2.0, 0.0, 0.0]], [[3.0, 0.0, 0.0]], [[67.0, 219.0, 6.0]], [[3.0, 60.0, 0.0]], [[1.0, 60.0, 0.0]], [[1.0, 6.0, 0.0]], [[1.0, 0.0, 0.0]], [[0.0, 6.0, 0.0]], [[0.0, 54.0, 0.0]], [[2.0, 0.0, 0.0]], [[64.0, 159.0, 6.0]], [[1.0, 5.0, 4.0]], [[0.0, 5.0, 1.0]], [[0.0, 0.0, 1.0]], [[0.0, 5.0, 0.0]], [[1.0, 0.0, 3.0]], [[0.0, 0.0, 3.0]], [[1.0, 0.0, 0.0]], [[63.0, 154.0, 2.0]], [[63.0, 154.0, 1.0]], [[53.0, 98.0, 0.0]], [[18.0, 63.0, 0.0]], [[5.0, 2.0, 0.0]], [[0.0, 2.0, 0.0]], [[5.0, 0.0, 0.0]], [[13.0, 61.0, 0.0]], [[13.0, 48.0, 0.0]], [[5.0, 3.0, 0.0]], [[1.0, 3.0, 0.0]], [[0.0, 3.0, 0.0]], [[1.0, 0.0, 0.0]], [[4.0, 0.0, 0.0]], [[8.0, 45.0, 0.0]], [[4.0, 4.0, 0.0]], [[1.0, 4.0, 0.0]], [[1.0, 0.0, 0.0]], [[0.0, 4.0, 0.0]], [[3.0, 0.0, 0.0]], [[4.0, 41.0, 0.0]], [[4.0, 19.0, 0.0]], [[2.0, 0.0, 0.0]], [[2.0, 19.0, 0.0]], [[2.0, 2.0, 0.0]], [[0.0, 2.0, 0.0]], [[2.0, 0.0, 0.0]], [[0.0, 17.0, 0.0]], [[0.0, 22.0, 0.0]], [[0.0, 13.0, 0.0]], [[35.0, 35.0, 0.0]], [[32.0, 35.0, 0.0]], [[0.0, 4.0, 0.0]], [[32.0, 31.0, 0.0]], [[7.0, 1.0, 0.0]], [[7.0, 0.0, 0.0]], [[0.0, 1.0, 0.0]], [[25.0, 30.0, 0.0]], [[25.0, 26.0, 0.0]], [[6.0, 0.0, 0.0]], [[19.0, 26.0, 0.0]], [[4.0, 15.0, 0.0]], [[4.0, 3.0, 0.0]], [[1.0, 3.0, 0.0]], [[1.0, 0.0, 0.0]], [[0.0, 3.0, 0.0]], [[3.0, 0.0, 0.0]], [[0.0, 12.0, 0.0]], [[15.0, 11.0, 0.0]], [[7.0, 11.0, 0.0]], [[7.0, 6.0, 0.0]], [[6.0, 1.0, 0.0]], [[6.0, 0.0, 0.0]], [[0.0, 1.0, 0.0]], [[1.0, 5.0, 0.0]], [[0.0, 5.0, 0.0]], [[1.0, 0.0, 0.0]], [[0.0, 5.0, 0.0]], [[8.0, 0.0, 0.0]], [[0.0, 4.0, 0.0]], [[3.0, 0.0, 0.0]], [[10.0, 56.0, 1.0]], [[3.0, 51.0, 0.0]], [[2.0, 51.0, 0.0]], [[2.0, 7.0, 0.0]], [[2.0, 0.0, 0.0]], [[0.0, 7.0, 0.0]], [[0.0, 44.0, 0.0]], [[1.0, 0.0, 0.0]], [[7.0, 5.0, 1.0]], [[0.0, 0.0, 1.0]], [[7.0, 5.0, 0.0]], [[4.0, 5.0, 0.0]], [[2.0, 0.0, 0.0]], [[2.0, 5.0, 0.0]], [[2.0, 1.0, 0.0]], [[2.0, 0.0, 0.0]], [[0.0, 1.0, 0.0]], [[0.0, 4.0, 0.0]], [[3.0, 0.0, 0.0]], [[0.0, 0.0, 1.0]], [[1.0, 235.0, 0.0]], [[0.0, 225.0, 0.0]], [[1.0, 10.0, 0.0]], [[1.0, 0.0, 0.0]], [[0.0, 10.0, 0.0]], [[306.0, 113.0, 23.0]], [[226.0, 49.0, 21.0]], [[2.0, 4.0, 8.0]], [[1.0, 4.0, 0.0]], [[0.0, 4.0, 0.0]], [[1.0, 0.0, 0.0]], [[1.0, 0.0, 8.0]], [[0.0, 0.0, 8.0]], [[1.0, 0.0, 0.0]], [[224.0, 45.0, 13.0]], [[207.0, 28.0, 13.0]], [[35.0, 16.0, 2.0]], [[14.0, 16.0, 1.0]], [[0.0, 5.0, 0.0]], [[14.0, 11.0, 1.0]], [[1.0, 5.0, 1.0]], [[1.0, 0.0, 1.0]], [[1.0, 0.0, 0.0]], [[0.0, 0.0, 1.0]], [[0.0, 5.0, 0.0]], [[13.0, 6.0, 0.0]], [[1.0, 3.0, 0.0]], [[0.0, 3.0, 0.0]], [[1.0, 0.0, 0.0]], [[12.0, 3.0, 0.0]], [[8.0, 0.0, 0.0]], [[4.0, 3.0, 0.0]], [[2.0, 0.0, 0.0]], [[2.0, 3.0, 0.0]], [[0.0, 2.0, 0.0]], [[2.0, 1.0, 0.0]], [[1.0, 0.0, 0.0]], [[1.0, 1.0, 0.0]], [[1.0, 0.0, 0.0]], [[0.0, 1.0, 0.0]], [[21.0, 0.0, 1.0]], [[0.0, 0.0, 1.0]], [[21.0, 0.0, 0.0]], [[172.0, 12.0, 11.0]], [[13.0, 7.0, 3.0]], [[6.0, 7.0, 3.0]], [[0.0, 0.0, 2.0]], [[6.0, 7.0, 1.0]], [[6.0, 5.0, 0.0]], [[2.0, 5.0, 0.0]], [[1.0, 0.0, 0.0]], [[1.0, 5.0, 0.0]], [[1.0, 0.0, 0.0]], [[0.0, 5.0, 0.0]], [[4.0, 0.0, 0.0]], [[0.0, 2.0, 1.0]], [[0.0, 0.0, 1.0]], [[0.0, 2.0, 0.0]], [[7.0, 0.0, 0.0]], [[159.0, 5.0, 8.0]], [[158.0, 5.0, 6.0]], [[119.0, 5.0, 1.0]], [[64.0, 5.0, 1.0]], [[7.0, 4.0, 0.0]], [[0.0, 2.0, 0.0]], [[7.0, 2.0, 0.0]], [[0.0, 1.0, 0.0]], [[7.0, 1.0, 0.0]], [[1.0, 1.0, 0.0]], [[1.0, 0.0, 0.0]], [[0.0, 1.0, 0.0]], [[6.0, 0.0, 0.0]], [[57.0, 1.0, 1.0]], [[2.0, 1.0, 1.0]], [[2.0, 0.0, 0.0]], [[0.0, 1.0, 1.0]], [[0.0, 1.0, 0.0]], [[0.0, 0.0, 1.0]], [[55.0, 0.0, 0.0]], [[55.0, 0.0, 0.0]], [[39.0, 0.0, 5.0]], [[39.0, 0.0, 3.0]], [[0.0, 0.0, 2.0]], [[39.0, 0.0, 1.0]], [[36.0, 0.0, 0.0]], [[3.0, 0.0, 1.0]], [[3.0, 0.0, 0.0]], [[0.0, 0.0, 1.0]], [[0.0, 0.0, 2.0]], [[1.0, 0.0, 2.0]], [[0.0, 0.0, 2.0]], [[1.0, 0.0, 0.0]], [[17.0, 17.0, 0.0]], [[11.0, 3.0, 0.0]], [[5.0, 3.0, 0.0]], [[4.0, 0.0, 0.0]], [[1.0, 3.0, 0.0]], [[0.0, 3.0, 0.0]], [[1.0, 0.0, 0.0]], [[6.0, 0.0, 0.0]], [[6.0, 14.0, 0.0]], [[4.0, 14.0, 0.0]], [[1.0, 13.0, 0.0]], [[0.0, 12.0, 0.0]], [[1.0, 1.0, 0.0]], [[1.0, 0.0, 0.0]], [[0.0, 1.0, 0.0]], [[3.0, 1.0, 0.0]], [[0.0, 1.0, 0.0]], [[3.0, 0.0, 0.0]], [[2.0, 0.0, 0.0]], [[80.0, 64.0, 2.0]], [[0.0, 0.0, 2.0]], [[80.0, 64.0, 0.0]], [[9.0, 23.0, 0.0]], [[0.0, 8.0, 0.0]], [[9.0, 15.0, 0.0]], [[8.0, 5.0, 0.0]], [[4.0, 0.0, 0.0]], [[4.0, 5.0, 0.0]], [[4.0, 2.0, 0.0]], [[0.0, 1.0, 0.0]], [[4.0, 1.0, 0.0]], [[1.0, 1.0, 0.0]], [[0.0, 1.0, 0.0]], [[1.0, 0.0, 0.0]], [[3.0, 0.0, 0.0]], [[0.0, 3.0, 0.0]], [[1.0, 10.0, 0.0]], [[0.0, 9.0, 0.0]], [[1.0, 1.0, 0.0]], [[1.0, 0.0, 0.0]], [[0.0, 1.0, 0.0]], [[71.0, 41.0, 0.0]], [[40.0, 9.0, 0.0]], [[22.0, 0.0, 0.0]], [[18.0, 9.0, 0.0]], [[0.0, 3.0, 0.0]], [[18.0, 6.0, 0.0]], [[18.0, 4.0, 0.0]], [[8.0, 0.0, 0.0]], [[10.0, 4.0, 0.0]], [[10.0, 2.0, 0.0]], [[8.0, 0.0, 0.0]], [[2.0, 2.0, 0.0]], [[0.0, 2.0, 0.0]], [[2.0, 0.0, 0.0]], [[0.0, 2.0, 0.0]], [[0.0, 2.0, 0.0]], [[31.0, 32.0, 0.0]], [[24.0, 9.0, 0.0]], [[24.0, 6.0, 0.0]], [[1.0, 2.0, 0.0]], [[0.0, 2.0, 0.0]], [[1.0, 0.0, 0.0]], [[23.0, 4.0, 0.0]], [[12.0, 4.0, 0.0]], [[5.0, 0.0, 0.0]], [[7.0, 4.0, 0.0]], [[0.0, 2.0, 0.0]], [[7.0, 2.0, 0.0]], [[1.0, 2.0, 0.0]], [[1.0, 0.0, 0.0]], [[0.0, 2.0, 0.0]], [[6.0, 0.0, 0.0]], [[11.0, 0.0, 0.0]], [[0.0, 3.0, 0.0]], [[7.0, 23.0, 0.0]], [[7.0, 9.0, 0.0]], [[4.0, 0.0, 0.0]], [[3.0, 9.0, 0.0]], [[3.0, 4.0, 0.0]], [[3.0, 1.0, 0.0]], [[3.0, 0.0, 0.0]], [[0.0, 1.0, 0.0]], [[0.0, 3.0, 0.0]], [[0.0, 5.0, 0.0]], [[0.0, 14.0, 0.0]], [[311.0, 1279.0, 28.0]], [[218.0, 1167.0, 9.0]], [[197.0, 1148.0, 2.0]], [[1.0, 199.0, 0.0]], [[0.0, 194.0, 0.0]], [[1.0, 5.0, 0.0]], [[0.0, 5.0, 0.0]], [[1.0, 0.0, 0.0]], [[196.0, 949.0, 2.0]], [[163.0, 920.0, 1.0]], [[156.0, 652.0, 0.0]], [[32.0, 30.0, 0.0]], [[32.0, 22.0, 0.0]], [[19.0, 20.0, 0.0]], [[18.0, 12.0, 0.0]], [[12.0, 12.0, 0.0]], [[0.0, 3.0, 0.0]], [[12.0, 9.0, 0.0]], [[0.0, 2.0, 0.0]], [[12.0, 7.0, 0.0]], [[9.0, 7.0, 0.0]], [[9.0, 4.0, 0.0]], [[5.0, 4.0, 0.0]], [[2.0, 4.0, 0.0]], [[1.0, 0.0, 0.0]], [[1.0, 4.0, 0.0]], [[1.0, 0.0, 0.0]], [[0.0, 4.0, 0.0]], [[3.0, 0.0, 0.0]], [[4.0, 0.0, 0.0]], [[0.0, 3.0, 0.0]], [[3.0, 0.0, 0.0]], [[6.0, 0.0, 0.0]], [[1.0, 8.0, 0.0]], [[0.0, 8.0, 0.0]], [[1.0, 0.0, 0.0]], [[13.0, 2.0, 0.0]], [[3.0, 2.0, 0.0]], [[3.0, 0.0, 0.0]], [[0.0, 2.0, 0.0]], [[10.0, 0.0, 0.0]], [[0.0, 8.0, 0.0]], [[124.0, 622.0, 0.0]], [[42.0, 54.0, 0.0]], [[10.0, 42.0, 0.0]], [[2.0, 0.0, 0.0]], [[8.0, 42.0, 0.0]], [[8.0, 24.0, 0.0]], [[1.0, 13.0, 0.0]], [[0.0, 13.0, 0.0]], [[1.0, 0.0, 0.0]], [[7.0, 11.0, 0.0]], [[0.0, 6.0, 0.0]], [[7.0, 5.0, 0.0]], [[3.0, 5.0, 0.0]], [[3.0, 2.0, 0.0]], [[1.0, 2.0, 0.0]], [[1.0, 0.0, 0.0]], [[0.0, 2.0, 0.0]], [[2.0, 0.0, 0.0]], [[0.0, 3.0, 0.0]], [[4.0, 0.0, 0.0]], [[0.0, 18.0, 0.0]], [[32.0, 12.0, 0.0]], [[8.0, 10.0, 0.0]], [[7.0, 1.0, 0.0]], [[0.0, 1.0, 0.0]], [[7.0, 0.0, 0.0]], [[1.0, 9.0, 0.0]], [[1.0, 0.0, 0.0]], [[0.0, 9.0, 0.0]], [[24.0, 2.0, 0.0]], [[4.0, 2.0, 0.0]], [[0.0, 2.0, 0.0]], [[4.0, 0.0, 0.0]], [[20.0, 0.0, 0.0]], [[82.0, 568.0, 0.0]], [[71.0, 287.0, 0.0]], [[5.0, 101.0, 0.0]], [[1.0, 87.0, 0.0]], [[1.0, 21.0, 0.0]], [[0.0, 21.0, 0.0]], [[1.0, 0.0, 0.0]], [[0.0, 66.0, 0.0]], [[4.0, 14.0, 0.0]], [[3.0, 1.0, 0.0]], [[3.0, 0.0, 0.0]], [[0.0, 1.0, 0.0]], [[1.0, 13.0, 0.0]], [[0.0, 13.0, 0.0]], [[1.0, 0.0, 0.0]], [[66.0, 186.0, 0.0]], [[65.0, 145.0, 0.0]], [[60.0, 145.0, 0.0]], [[46.0, 137.0, 0.0]], [[16.0, 80.0, 0.0]], [[7.0, 14.0, 0.0]], [[0.0, 8.0, 0.0]], [[7.0, 6.0, 0.0]], [[7.0, 3.0, 0.0]], [[7.0, 1.0, 0.0]], [[2.0, 1.0, 0.0]], [[2.0, 0.0, 0.0]], [[0.0, 1.0, 0.0]], [[5.0, 0.0, 0.0]], [[0.0, 2.0, 0.0]], [[0.0, 3.0, 0.0]], [[9.0, 66.0, 0.0]], [[0.0, 20.0, 0.0]], [[9.0, 46.0, 0.0]], [[2.0, 1.0, 0.0]], [[2.0, 0.0, 0.0]], [[0.0, 1.0, 0.0]], [[7.0, 45.0, 0.0]], [[0.0, 14.0, 0.0]], [[7.0, 31.0, 0.0]], [[2.0, 0.0, 0.0]], [[5.0, 31.0, 0.0]], [[0.0, 14.0, 0.0]], [[5.0, 17.0, 0.0]], [[2.0, 1.0, 0.0]], [[2.0, 0.0, 0.0]], [[0.0, 1.0, 0.0]], [[3.0, 16.0, 0.0]], [[2.0, 16.0, 0.0]], [[0.0, 9.0, 0.0]], [[2.0, 7.0, 0.0]], [[0.0, 5.0, 0.0]], [[2.0, 2.0, 0.0]], [[1.0, 0.0, 0.0]], [[1.0, 2.0, 0.0]], [[1.0, 0.0, 0.0]], [[0.0, 2.0, 0.0]], [[1.0, 0.0, 0.0]], [[30.0, 57.0, 0.0]], [[24.0, 55.0, 0.0]], [[22.0, 55.0, 0.0]], [[2.0, 14.0, 0.0]], [[1.0, 0.0, 0.0]], [[1.0, 14.0, 0.0]], [[0.0, 10.0, 0.0]], [[1.0, 4.0, 0.0]], [[1.0, 0.0, 0.0]], [[0.0, 4.0, 0.0]], [[20.0, 41.0, 0.0]], [[3.0, 0.0, 0.0]], [[17.0, 41.0, 0.0]], [[17.0, 36.0, 0.0]], [[15.0, 36.0, 0.0]], [[4.0, 2.0, 0.0]], [[0.0, 2.0, 0.0]], [[4.0, 0.0, 0.0]], [[11.0, 34.0, 0.0]], [[10.0, 18.0, 0.0]], [[8.0, 18.0, 0.0]], [[1.0, 10.0, 0.0]], [[0.0, 10.0, 0.0]], [[1.0, 0.0, 0.0]], [[7.0, 8.0, 0.0]], [[4.0, 1.0, 0.0]], [[4.0, 0.0, 0.0]], [[0.0, 1.0, 0.0]], [[3.0, 7.0, 0.0]], [[0.0, 4.0, 0.0]], [[3.0, 3.0, 0.0]], [[0.0, 2.0, 0.0]], [[3.0, 1.0, 0.0]], [[0.0, 1.0, 0.0]], [[3.0, 0.0, 0.0]], [[2.0, 0.0, 0.0]], [[1.0, 16.0, 0.0]], [[0.0, 15.0, 0.0]], [[1.0, 1.0, 0.0]], [[1.0, 0.0, 0.0]], [[0.0, 1.0, 0.0]], [[2.0, 0.0, 0.0]], [[0.0, 5.0, 0.0]], [[2.0, 0.0, 0.0]], [[6.0, 2.0, 0.0]], [[5.0, 0.0, 0.0]], [[1.0, 2.0, 0.0]], [[0.0, 2.0, 0.0]], [[1.0, 0.0, 0.0]], [[14.0, 8.0, 0.0]], [[9.0, 0.0, 0.0]], [[5.0, 8.0, 0.0]], [[0.0, 5.0, 0.0]], [[5.0, 3.0, 0.0]], [[5.0, 1.0, 0.0]], [[0.0, 1.0, 0.0]], [[5.0, 0.0, 0.0]], [[0.0, 2.0, 0.0]], [[5.0, 0.0, 0.0]], [[1.0, 41.0, 0.0]], [[0.0, 33.0, 0.0]], [[1.0, 8.0, 0.0]], [[1.0, 0.0, 0.0]], [[0.0, 8.0, 0.0]], [[11.0, 281.0, 0.0]], [[4.0, 211.0, 0.0]], [[4.0, 71.0, 0.0]], [[1.0, 0.0, 0.0]], [[3.0, 71.0, 0.0]], [[3.0, 33.0, 0.0]], [[3.0, 6.0, 0.0]], [[2.0, 0.0, 0.0]], [[1.0, 6.0, 0.0]], [[0.0, 6.0, 0.0]], [[1.0, 0.0, 0.0]], [[0.0, 27.0, 0.0]], [[0.0, 38.0, 0.0]], [[0.0, 140.0, 0.0]], [[7.0, 70.0, 0.0]], [[2.0, 65.0, 0.0]], [[1.0, 65.0, 0.0]], [[0.0, 56.0, 0.0]], [[1.0, 9.0, 0.0]], [[1.0, 0.0, 0.0]], [[0.0, 9.0, 0.0]], [[1.0, 0.0, 0.0]], [[5.0, 5.0, 0.0]], [[3.0, 0.0, 0.0]], [[2.0, 5.0, 0.0]], [[0.0, 5.0, 0.0]], [[2.0, 0.0, 0.0]], [[7.0, 268.0, 1.0]], [[3.0, 235.0, 0.0]], [[0.0, 163.0, 0.0]], [[3.0, 72.0, 0.0]], [[2.0, 72.0, 0.0]], [[2.0, 22.0, 0.0]], [[1.0, 22.0, 0.0]], [[1.0, 2.0, 0.0]], [[0.0, 2.0, 0.0]], [[1.0, 0.0, 0.0]], [[0.0, 20.0, 0.0]], [[1.0, 0.0, 0.0]], [[0.0, 50.0, 0.0]], [[1.0, 0.0, 0.0]], [[4.0, 33.0, 1.0]], [[4.0, 7.0, 0.0]], [[0.0, 7.0, 0.0]], [[4.0, 0.0, 0.0]], [[0.0, 26.0, 1.0]], [[0.0, 1.0, 1.0]], [[0.0, 0.0, 1.0]], [[0.0, 1.0, 0.0]], [[0.0, 25.0, 0.0]], [[33.0, 29.0, 1.0]], [[30.0, 15.0, 0.0]], [[21.0, 15.0, 0.0]], [[0.0, 2.0, 0.0]], [[21.0, 13.0, 0.0]], [[9.0, 1.0, 0.0]], [[2.0, 1.0, 0.0]], [[0.0, 1.0, 0.0]], [[2.0, 0.0, 0.0]], [[7.0, 0.0, 0.0]], [[12.0, 12.0, 0.0]], [[3.0, 0.0, 0.0]], [[9.0, 12.0, 0.0]], [[9.0, 9.0, 0.0]], [[3.0, 0.0, 0.0]], [[6.0, 9.0, 0.0]], [[0.0, 4.0, 0.0]], [[6.0, 5.0, 0.0]], [[6.0, 1.0, 0.0]], [[0.0, 1.0, 0.0]], [[6.0, 0.0, 0.0]], [[0.0, 4.0, 0.0]], [[0.0, 3.0, 0.0]], [[9.0, 0.0, 0.0]], [[3.0, 14.0, 1.0]], [[1.0, 0.0, 1.0]], [[1.0, 0.0, 0.0]], [[0.0, 0.0, 1.0]], [[2.0, 14.0, 0.0]], [[1.0, 14.0, 0.0]], [[0.0, 12.0, 0.0]], [[1.0, 2.0, 0.0]], [[0.0, 2.0, 0.0]], [[1.0, 0.0, 0.0]], [[1.0, 0.0, 0.0]], [[21.0, 19.0, 7.0]], [[16.0, 2.0, 1.0]], [[15.0, 0.0, 0.0]], [[1.0, 2.0, 1.0]], [[1.0, 0.0, 1.0]], [[1.0, 0.0, 0.0]], [[0.0, 0.0, 1.0]], [[0.0, 2.0, 0.0]], [[5.0, 17.0, 6.0]], [[0.0, 14.0, 6.0]], [[0.0, 8.0, 0.0]], [[0.0, 6.0, 6.0]], [[0.0, 0.0, 4.0]], [[0.0, 6.0, 2.0]], [[0.0, 6.0, 1.0]], [[0.0, 6.0, 0.0]], [[0.0, 0.0, 1.0]], [[0.0, 0.0, 1.0]], [[5.0, 3.0, 0.0]], [[0.0, 3.0, 0.0]], [[5.0, 0.0, 0.0]], [[93.0, 112.0, 19.0]], [[80.0, 101.0, 6.0]], [[58.0, 98.0, 6.0]], [[43.0, 97.0, 4.0]], [[43.0, 97.0, 1.0]], [[1.0, 0.0, 1.0]], [[1.0, 0.0, 0.0]], [[0.0, 0.0, 1.0]], [[42.0, 97.0, 0.0]], [[36.0, 95.0, 0.0]], [[9.0, 49.0, 0.0]], [[2.0, 0.0, 0.0]], [[7.0, 49.0, 0.0]], [[0.0, 17.0, 0.0]], [[7.0, 32.0, 0.0]], [[0.0, 8.0, 0.0]], [[7.0, 24.0, 0.0]], [[7.0, 17.0, 0.0]], [[7.0, 13.0, 0.0]], [[3.0, 0.0, 0.0]], [[4.0, 13.0, 0.0]], [[4.0, 4.0, 0.0]], [[2.0, 0.0, 0.0]], [[2.0, 4.0, 0.0]], [[1.0, 4.0, 0.0]], [[1.0, 0.0, 0.0]], [[0.0, 4.0, 0.0]], [[1.0, 0.0, 0.0]], [[0.0, 9.0, 0.0]], [[0.0, 4.0, 0.0]], [[0.0, 7.0, 0.0]], [[27.0, 46.0, 0.0]], [[25.0, 32.0, 0.0]], [[3.0, 13.0, 0.0]], [[3.0, 4.0, 0.0]], [[3.0, 1.0, 0.0]], [[0.0, 1.0, 0.0]], [[3.0, 0.0, 0.0]], [[0.0, 3.0, 0.0]], [[0.0, 9.0, 0.0]], [[22.0, 19.0, 0.0]], [[17.0, 19.0, 0.0]], [[9.0, 4.0, 0.0]], [[0.0, 2.0, 0.0]], [[9.0, 2.0, 0.0]], [[7.0, 0.0, 0.0]], [[2.0, 2.0, 0.0]], [[1.0, 0.0, 0.0]], [[1.0, 2.0, 0.0]], [[0.0, 2.0, 0.0]], [[1.0, 0.0, 0.0]], [[8.0, 15.0, 0.0]], [[0.0, 9.0, 0.0]], [[8.0, 6.0, 0.0]], [[3.0, 0.0, 0.0]], [[5.0, 6.0, 0.0]], [[5.0, 3.0, 0.0]], [[2.0, 0.0, 0.0]], [[3.0, 3.0, 0.0]], [[3.0, 1.0, 0.0]], [[3.0, 0.0, 0.0]], [[0.0, 1.0, 0.0]], [[0.0, 2.0, 0.0]], [[0.0, 3.0, 0.0]], [[5.0, 0.0, 0.0]], [[2.0, 14.0, 0.0]], [[0.0, 14.0, 0.0]], [[2.0, 0.0, 0.0]], [[6.0, 2.0, 0.0]], [[0.0, 1.0, 0.0]], [[6.0, 1.0, 0.0]], [[6.0, 0.0, 0.0]], [[0.0, 1.0, 0.0]], [[0.0, 0.0, 3.0]], [[15.0, 1.0, 2.0]], [[15.0, 0.0, 2.0]], [[15.0, 0.0, 1.0]], [[11.0, 0.0, 0.0]], [[4.0, 0.0, 1.0]], [[0.0, 0.0, 1.0]], [[4.0, 0.0, 0.0]], [[0.0, 0.0, 1.0]], [[0.0, 1.0, 0.0]], [[22.0, 3.0, 0.0]], [[13.0, 0.0, 0.0]], [[9.0, 3.0, 0.0]], [[6.0, 0.0, 0.0]], [[3.0, 3.0, 0.0]], [[2.0, 0.0, 0.0]], [[1.0, 3.0, 0.0]], [[0.0, 2.0, 0.0]], [[1.0, 1.0, 0.0]], [[0.0, 1.0, 0.0]], [[1.0, 0.0, 0.0]], [[13.0, 11.0, 13.0]], [[6.0, 3.0, 13.0]], [[0.0, 2.0, 8.0]], [[0.0, 0.0, 7.0]], [[0.0, 2.0, 1.0]], [[0.0, 2.0, 0.0]], [[0.0, 0.0, 1.0]], [[6.0, 1.0, 5.0]], [[4.0, 0.0, 0.0]], [[2.0, 1.0, 5.0]], [[0.0, 1.0, 5.0]], [[0.0, 1.0, 0.0]], [[0.0, 0.0, 5.0]], [[2.0, 0.0, 0.0]], [[7.0, 8.0, 0.0]], [[0.0, 4.0, 0.0]], [[7.0, 4.0, 0.0]], [[1.0, 3.0, 0.0]], [[0.0, 3.0, 0.0]], [[1.0, 0.0, 0.0]], [[6.0, 1.0, 0.0]], [[0.0, 1.0, 0.0]], [[6.0, 0.0, 0.0]], [[3230.0, 161.0, 117.0]], [[897.0, 133.0, 46.0]], [[18.0, 1.0, 12.0]], [[7.0, 1.0, 0.0]], [[0.0, 1.0, 0.0]], [[7.0, 0.0, 0.0]], [[11.0, 0.0, 12.0]], [[0.0, 0.0, 10.0]], [[11.0, 0.0, 2.0]], [[2.0, 0.0, 2.0]], [[2.0, 0.0, 0.0]], [[0.0, 0.0, 2.0]], [[9.0, 0.0, 0.0]], [[879.0, 132.0, 34.0]], [[411.0, 82.0, 29.0]], [[161.0, 13.0, 14.0]], [[30.0, 0.0, 0.0]], [[131.0, 13.0, 14.0]], [[45.0, 0.0, 2.0]], [[16.0, 0.0, 2.0]], [[16.0, 0.0, 1.0]], [[14.0, 0.0, 0.0]], [[2.0, 0.0, 1.0]], [[2.0, 0.0, 0.0]], [[0.0, 0.0, 1.0]], [[0.0, 0.0, 1.0]], [[29.0, 0.0, 0.0]], [[86.0, 13.0, 12.0]], [[71.0, 8.0, 5.0]], [[15.0, 6.0, 3.0]], [[6.0, 0.0, 3.0]], [[3.0, 0.0, 3.0]], [[1.0, 0.0, 3.0]], [[1.0, 0.0, 0.0]], [[0.0, 0.0, 3.0]], [[2.0, 0.0, 0.0]], [[3.0, 0.0, 0.0]], [[9.0, 6.0, 0.0]], [[0.0, 5.0, 0.0]], [[9.0, 1.0, 0.0]], [[9.0, 0.0, 0.0]], [[0.0, 1.0, 0.0]], [[56.0, 2.0, 2.0]], [[56.0, 1.0, 1.0]], [[55.0, 1.0, 0.0]], [[40.0, 0.0, 0.0]], [[15.0, 1.0, 0.0]], [[15.0, 0.0, 0.0]], [[0.0, 1.0, 0.0]], [[1.0, 0.0, 1.0]], [[0.0, 0.0, 1.0]], [[1.0, 0.0, 0.0]], [[0.0, 1.0, 1.0]], [[0.0, 1.0, 0.0]], [[0.0, 0.0, 1.0]], [[15.0, 5.0, 7.0]], [[7.0, 2.0, 7.0]], [[7.0, 0.0, 7.0]], [[7.0, 0.0, 5.0]], [[4.0, 0.0, 0.0]], [[3.0, 0.0, 5.0]], [[3.0, 0.0, 2.0]], [[0.0, 0.0, 2.0]], [[3.0, 0.0, 0.0]], [[0.0, 0.0, 3.0]], [[0.0, 0.0, 2.0]], [[0.0, 2.0, 0.0]], [[8.0, 3.0, 0.0]], [[4.0, 3.0, 0.0]], [[3.0, 0.0, 0.0]], [[1.0, 3.0, 0.0]], [[0.0, 3.0, 0.0]], [[1.0, 0.0, 0.0]], [[4.0, 0.0, 0.0]], [[250.0, 69.0, 15.0]], [[109.0, 23.0, 1.0]], [[79.0, 23.0, 0.0]], [[10.0, 11.0, 0.0]], [[10.0, 7.0, 0.0]], [[5.0, 0.0, 0.0]], [[5.0, 7.0, 0.0]], [[4.0, 1.0, 0.0]], [[0.0, 1.0, 0.0]], [[4.0, 0.0, 0.0]], [[1.0, 6.0, 0.0]], [[0.0, 5.0, 0.0]], [[1.0, 1.0, 0.0]], [[0.0, 1.0, 0.0]], [[1.0, 0.0, 0.0]], [[0.0, 4.0, 0.0]], [[69.0, 12.0, 0.0]], [[43.0, 12.0, 0.0]], [[17.0, 1.0, 0.0]], [[4.0, 1.0, 0.0]], [[4.0, 0.0, 0.0]], [[0.0, 1.0, 0.0]], [[13.0, 0.0, 0.0]], [[26.0, 11.0, 0.0]], [[21.0, 4.0, 0.0]], [[0.0, 1.0, 0.0]], [[21.0, 3.0, 0.0]], [[15.0, 0.0, 0.0]], [[6.0, 3.0, 0.0]], [[0.0, 2.0, 0.0]], [[6.0, 1.0, 0.0]], [[0.0, 1.0, 0.0]], [[6.0, 0.0, 0.0]], [[5.0, 7.0, 0.0]], [[0.0, 5.0, 0.0]], [[5.0, 2.0, 0.0]], [[5.0, 1.0, 0.0]], [[5.0, 0.0, 0.0]], [[0.0, 1.0, 0.0]], [[0.0, 1.0, 0.0]], [[26.0, 0.0, 0.0]], [[30.0, 0.0, 1.0]], [[6.0, 0.0, 1.0]], [[6.0, 0.0, 0.0]], [[0.0, 0.0, 1.0]], [[24.0, 0.0, 0.0]], [[141.0, 46.0, 14.0]], [[50.0, 29.0, 9.0]], [[44.0, 18.0, 9.0]], [[27.0, 11.0, 1.0]], [[0.0, 2.0, 1.0]], [[0.0, 0.0, 1.0]], [[0.0, 2.0, 0.0]], [[27.0, 9.0, 0.0]], [[18.0, 9.0, 0.0]], [[0.0, 2.0, 0.0]], [[18.0, 7.0, 0.0]], [[7.0, 6.0, 0.0]], [[7.0, 3.0, 0.0]], [[5.0, 0.0, 0.0]], [[2.0, 3.0, 0.0]], [[0.0, 3.0, 0.0]], [[2.0, 0.0, 0.0]], [[0.0, 3.0, 0.0]], [[11.0, 1.0, 0.0]], [[11.0, 0.0, 0.0]], [[0.0, 1.0, 0.0]], [[9.0, 0.0, 0.0]], [[17.0, 7.0, 8.0]], [[2.0, 5.0, 5.0]], [[2.0, 5.0, 2.0]], [[0.0, 4.0, 1.0]], [[0.0, 0.0, 1.0]], [[0.0, 4.0, 0.0]], [[2.0, 1.0, 1.0]], [[2.0, 0.0, 1.0]], [[2.0, 0.0, 0.0]], [[0.0, 0.0, 1.0]], [[0.0, 1.0, 0.0]], [[0.0, 0.0, 3.0]], [[15.0, 2.0, 3.0]], [[14.0, 0.0, 3.0]], [[3.0, 0.0, 3.0]], [[2.0, 0.0, 0.0]], [[1.0, 0.0, 3.0]], [[1.0, 0.0, 0.0]], [[0.0, 0.0, 3.0]], [[11.0, 0.0, 0.0]], [[1.0, 2.0, 0.0]], [[1.0, 0.0, 0.0]], [[0.0, 2.0, 0.0]], [[6.0, 11.0, 0.0]], [[6.0, 4.0, 0.0]], [[5.0, 0.0, 0.0]], [[1.0, 4.0, 0.0]], [[0.0, 4.0, 0.0]], [[1.0, 0.0, 0.0]], [[0.0, 7.0, 0.0]], [[91.0, 17.0, 5.0]], [[78.0, 15.0, 1.0]], [[78.0, 13.0, 1.0]], [[64.0, 13.0, 0.0]], [[64.0, 11.0, 0.0]], [[16.0, 0.0, 0.0]], [[48.0, 11.0, 0.0]], [[47.0, 8.0, 0.0]], [[25.0, 1.0, 0.0]], [[25.0, 0.0, 0.0]], [[0.0, 1.0, 0.0]], [[22.0, 7.0, 0.0]], [[22.0, 5.0, 0.0]], [[7.0, 5.0, 0.0]], [[2.0, 5.0, 0.0]], [[1.0, 0.0, 0.0]], [[1.0, 5.0, 0.0]], [[1.0, 2.0, 0.0]], [[0.0, 2.0, 0.0]], [[1.0, 0.0, 0.0]], [[0.0, 3.0, 0.0]], [[5.0, 0.0, 0.0]], [[15.0, 0.0, 0.0]], [[0.0, 2.0, 0.0]], [[1.0, 3.0, 0.0]], [[0.0, 3.0, 0.0]], [[1.0, 0.0, 0.0]], [[0.0, 2.0, 0.0]], [[14.0, 0.0, 1.0]], [[0.0, 0.0, 1.0]], [[14.0, 0.0, 0.0]], [[0.0, 2.0, 0.0]], [[13.0, 2.0, 4.0]], [[6.0, 0.0, 0.0]], [[7.0, 2.0, 4.0]], [[3.0, 2.0, 4.0]], [[3.0, 0.0, 1.0]], [[3.0, 0.0, 0.0]], [[0.0, 0.0, 1.0]], [[0.0, 2.0, 3.0]], [[0.0, 0.0, 3.0]], [[0.0, 2.0, 0.0]], [[4.0, 0.0, 0.0]], [[468.0, 50.0, 5.0]], [[426.0, 50.0, 4.0]], [[424.0, 47.0, 4.0]], [[380.0, 47.0, 3.0]], [[34.0, 0.0, 0.0]], [[346.0, 47.0, 3.0]], [[4.0, 3.0, 2.0]], [[1.0, 3.0, 0.0]], [[1.0, 0.0, 0.0]], [[0.0, 3.0, 0.0]], [[3.0, 0.0, 2.0]], [[2.0, 0.0, 0.0]], [[1.0, 0.0, 2.0]], [[1.0, 0.0, 0.0]], [[0.0, 0.0, 2.0]], [[342.0, 44.0, 1.0]], [[28.0, 0.0, 0.0]], [[314.0, 44.0, 1.0]], [[221.0, 23.0, 0.0]], [[160.0, 23.0, 0.0]], [[24.0, 0.0, 0.0]], [[136.0, 23.0, 0.0]], [[136.0, 21.0, 0.0]], [[9.0, 5.0, 0.0]], [[9.0, 1.0, 0.0]], [[0.0, 1.0, 0.0]], [[9.0, 0.0, 0.0]], [[0.0, 4.0, 0.0]], [[127.0, 16.0, 0.0]], [[127.0, 15.0, 0.0]], [[66.0, 4.0, 0.0]], [[56.0, 1.0, 0.0]], [[55.0, 0.0, 0.0]], [[1.0, 1.0, 0.0]], [[0.0, 1.0, 0.0]], [[1.0, 0.0, 0.0]], [[10.0, 3.0, 0.0]], [[10.0, 1.0, 0.0]], [[10.0, 0.0, 0.0]], [[0.0, 1.0, 0.0]], [[0.0, 2.0, 0.0]], [[61.0, 11.0, 0.0]], [[59.0, 6.0, 0.0]], [[36.0, 6.0, 0.0]], [[14.0, 0.0, 0.0]], [[22.0, 6.0, 0.0]], [[22.0, 4.0, 0.0]], [[12.0, 0.0, 0.0]], [[10.0, 4.0, 0.0]], [[0.0, 2.0, 0.0]], [[10.0, 2.0, 0.0]], [[9.0, 0.0, 0.0]], [[1.0, 2.0, 0.0]], [[0.0, 2.0, 0.0]], [[1.0, 0.0, 0.0]], [[0.0, 2.0, 0.0]], [[23.0, 0.0, 0.0]], [[2.0, 5.0, 0.0]], [[2.0, 1.0, 0.0]], [[2.0, 0.0, 0.0]], [[0.0, 1.0, 0.0]], [[0.0, 4.0, 0.0]], [[0.0, 1.0, 0.0]], [[0.0, 2.0, 0.0]], [[61.0, 0.0, 0.0]], [[93.0, 21.0, 1.0]], [[92.0, 19.0, 0.0]], [[43.0, 16.0, 0.0]], [[43.0, 14.0, 0.0]], [[35.0, 14.0, 0.0]], [[29.0, 14.0, 0.0]], [[14.0, 11.0, 0.0]], [[14.0, 7.0, 0.0]], [[10.0, 7.0, 0.0]], [[0.0, 3.0, 0.0]], [[10.0, 4.0, 0.0]], [[0.0, 2.0, 0.0]], [[10.0, 2.0, 0.0]], [[9.0, 0.0, 0.0]], [[1.0, 2.0, 0.0]], [[0.0, 2.0, 0.0]], [[1.0, 0.0, 0.0]], [[4.0, 0.0, 0.0]], [[0.0, 4.0, 0.0]], [[15.0, 3.0, 0.0]], [[11.0, 0.0, 0.0]], [[4.0, 3.0, 0.0]], [[0.0, 2.0, 0.0]], [[4.0, 1.0, 0.0]], [[4.0, 0.0, 0.0]], [[0.0, 1.0, 0.0]], [[6.0, 0.0, 0.0]], [[8.0, 0.0, 0.0]], [[0.0, 2.0, 0.0]], [[49.0, 3.0, 0.0]], [[49.0, 2.0, 0.0]], [[32.0, 0.0, 0.0]], [[17.0, 2.0, 0.0]], [[0.0, 2.0, 0.0]], [[17.0, 0.0, 0.0]], [[0.0, 1.0, 0.0]], [[1.0, 2.0, 1.0]], [[0.0, 2.0, 0.0]], [[1.0, 0.0, 1.0]], [[0.0, 0.0, 1.0]], [[1.0, 0.0, 0.0]], [[44.0, 0.0, 1.0]], [[42.0, 0.0, 0.0]], [[2.0, 0.0, 1.0]], [[0.0, 0.0, 1.0]], [[2.0, 0.0, 0.0]], [[2.0, 3.0, 0.0]], [[2.0, 0.0, 0.0]], [[0.0, 3.0, 0.0]], [[42.0, 0.0, 1.0]], [[3.0, 0.0, 1.0]], [[0.0, 0.0, 1.0]], [[3.0, 0.0, 0.0]], [[39.0, 0.0, 0.0]], [[2333.0, 28.0, 71.0]], [[2087.0, 24.0, 20.0]], [[935.0, 0.0, 0.0]], [[1152.0, 24.0, 20.0]], [[799.0, 24.0, 20.0]], [[612.0, 24.0, 13.0]], [[608.0, 18.0, 13.0]], [[458.0, 11.0, 13.0]], [[158.0, 0.0, 6.0]], [[149.0, 0.0, 3.0]], [[77.0, 0.0, 0.0]], [[72.0, 0.0, 3.0]], [[19.0, 0.0, 3.0]], [[1.0, 0.0, 2.0]], [[0.0, 0.0, 1.0]], [[1.0, 0.0, 1.0]], [[1.0, 0.0, 0.0]], [[0.0, 0.0, 1.0]], [[18.0, 0.0, 1.0]], [[0.0, 0.0, 1.0]], [[18.0, 0.0, 0.0]], [[53.0, 0.0, 0.0]], [[9.0, 0.0, 3.0]], [[7.0, 0.0, 0.0]], [[2.0, 0.0, 3.0]], [[0.0, 0.0, 2.0]], [[2.0, 0.0, 1.0]], [[2.0, 0.0, 0.0]], [[0.0, 0.0, 1.0]], [[300.0, 11.0, 7.0]], [[259.0, 6.0, 7.0]], [[38.0, 4.0, 0.0]], [[38.0, 2.0, 0.0]], [[38.0, 1.0, 0.0]], [[32.0, 0.0, 0.0]], [[6.0, 1.0, 0.0]], [[6.0, 0.0, 0.0]], [[0.0, 1.0, 0.0]], [[0.0, 1.0, 0.0]], [[0.0, 2.0, 0.0]], [[221.0, 2.0, 7.0]], [[33.0, 2.0, 3.0]], [[25.0, 2.0, 0.0]], [[23.0, 0.0, 0.0]], [[2.0, 2.0, 0.0]], [[0.0, 2.0, 0.0]], [[2.0, 0.0, 0.0]], [[8.0, 0.0, 3.0]], [[5.0, 0.0, 0.0]], [[3.0, 0.0, 3.0]], [[2.0, 0.0, 0.0]], [[1.0, 0.0, 3.0]], [[1.0, 0.0, 0.0]], [[0.0, 0.0, 3.0]], [[188.0, 0.0, 4.0]], [[173.0, 0.0, 1.0]], [[13.0, 0.0, 1.0]], [[13.0, 0.0, 0.0]], [[0.0, 0.0, 1.0]], [[160.0, 0.0, 0.0]], [[15.0, 0.0, 3.0]], [[2.0, 0.0, 3.0]], [[0.0, 0.0, 2.0]], [[2.0, 0.0, 1.0]], [[0.0, 0.0, 1.0]], [[2.0, 0.0, 0.0]], [[13.0, 0.0, 0.0]], [[41.0, 5.0, 0.0]], [[40.0, 3.0, 0.0]], [[40.0, 2.0, 0.0]], [[0.0, 1.0, 0.0]], [[40.0, 1.0, 0.0]], [[29.0, 0.0, 0.0]], [[11.0, 1.0, 0.0]], [[0.0, 1.0, 0.0]], [[11.0, 0.0, 0.0]], [[0.0, 1.0, 0.0]], [[1.0, 2.0, 0.0]], [[1.0, 0.0, 0.0]], [[0.0, 2.0, 0.0]], [[150.0, 7.0, 0.0]], [[101.0, 7.0, 0.0]], [[101.0, 6.0, 0.0]], [[53.0, 0.0, 0.0]], [[48.0, 6.0, 0.0]], [[18.0, 0.0, 0.0]], [[30.0, 6.0, 0.0]], [[30.0, 4.0, 0.0]], [[20.0, 0.0, 0.0]], [[10.0, 4.0, 0.0]], [[0.0, 2.0, 0.0]], [[10.0, 2.0, 0.0]], [[10.0, 1.0, 0.0]], [[0.0, 1.0, 0.0]], [[10.0, 0.0, 0.0]], [[0.0, 1.0, 0.0]], [[0.0, 2.0, 0.0]], [[0.0, 1.0, 0.0]], [[49.0, 0.0, 0.0]], [[4.0, 6.0, 0.0]], [[0.0, 4.0, 0.0]], [[4.0, 2.0, 0.0]], [[0.0, 1.0, 0.0]], [[4.0, 1.0, 0.0]], [[4.0, 0.0, 0.0]], [[0.0, 1.0, 0.0]], [[187.0, 0.0, 7.0]], [[0.0, 0.0, 3.0]], [[187.0, 0.0, 4.0]], [[0.0, 0.0, 1.0]], [[187.0, 0.0, 3.0]], [[60.0, 0.0, 3.0]], [[60.0, 0.0, 2.0]], [[57.0, 0.0, 1.0]], [[44.0, 0.0, 0.0]], [[13.0, 0.0, 1.0]], [[13.0, 0.0, 0.0]], [[0.0, 0.0, 1.0]], [[3.0, 0.0, 1.0]], [[3.0, 0.0, 0.0]], [[0.0, 0.0, 1.0]], [[0.0, 0.0, 1.0]], [[127.0, 0.0, 0.0]], [[353.0, 0.0, 0.0]], [[246.0, 4.0, 51.0]], [[42.0, 0.0, 48.0]], [[39.0, 0.0, 10.0]], [[2.0, 0.0, 5.0]], [[1.0, 0.0, 0.0]], [[1.0, 0.0, 5.0]], [[1.0, 0.0, 0.0]], [[0.0, 0.0, 5.0]], [[37.0, 0.0, 5.0]], [[8.0, 0.0, 5.0]], [[8.0, 0.0, 2.0]], [[1.0, 0.0, 2.0]], [[0.0, 0.0, 2.0]], [[1.0, 0.0, 0.0]], [[7.0, 0.0, 0.0]], [[0.0, 0.0, 3.0]], [[29.0, 0.0, 0.0]], [[3.0, 0.0, 38.0]], [[0.0, 0.0, 25.0]], [[3.0, 0.0, 13.0]], [[0.0, 0.0, 12.0]], [[3.0, 0.0, 1.0]], [[0.0, 0.0, 1.0]], [[3.0, 0.0, 0.0]], [[204.0, 4.0, 3.0]], [[0.0, 2.0, 0.0]], [[204.0, 2.0, 3.0]], [[169.0, 2.0, 0.0]], [[85.0, 0.0, 0.0]], [[84.0, 2.0, 0.0]], [[84.0, 1.0, 0.0]], [[25.0, 1.0, 0.0]], [[25.0, 0.0, 0.0]], [[0.0, 1.0, 0.0]], [[59.0, 0.0, 0.0]], [[0.0, 1.0, 0.0]], [[35.0, 0.0, 3.0]], [[33.0, 0.0, 1.0]], [[0.0, 0.0, 1.0]], [[33.0, 0.0, 0.0]], [[2.0, 0.0, 2.0]], [[2.0, 0.0, 0.0]], [[0.0, 0.0, 2.0]]]}